MTP
version = 1.1.0
potential_name = MTP1m
species_count = 1
potential_tag = 
radial_basis_type = RBChebyshev
	min_dist = 2
	max_dist = 5
	radial_basis_size = 8
	radial_funcs_count = 6
	alpha_moments_count = 9396
alpha_index_basic_count = 706
alpha_index_basic = {{0, 0, 0, 0}, {0, 1, 0, 0}, {0, 0, 1, 0}, {0, 0, 0, 1}, {0, 2, 0, 0}, {0, 1, 1, 0}, {0, 1, 0, 1}, {0, 0, 2, 0}, {0, 0, 1, 1}, {0, 0, 0, 2}, {0, 3, 0, 0}, {0, 2, 1, 0}, {0, 2, 0, 1}, {0, 1, 2, 0}, {0, 1, 1, 1}, {0, 1, 0, 2}, {0, 0, 3, 0}, {0, 0, 2, 1}, {0, 0, 1, 2}, {0, 0, 0, 3}, {0, 4, 0, 0}, {0, 3, 1, 0}, {0, 3, 0, 1}, {0, 2, 2, 0}, {0, 2, 1, 1}, {0, 2, 0, 2}, {0, 1, 3, 0}, {0, 1, 2, 1}, {0, 1, 1, 2}, {0, 1, 0, 3}, {0, 0, 4, 0}, {0, 0, 3, 1}, {0, 0, 2, 2}, {0, 0, 1, 3}, {0, 0, 0, 4}, {0, 5, 0, 0}, {0, 4, 1, 0}, {0, 4, 0, 1}, {0, 3, 2, 0}, {0, 3, 1, 1}, {0, 3, 0, 2}, {0, 2, 3, 0}, {0, 2, 2, 1}, {0, 2, 1, 2}, {0, 2, 0, 3}, {0, 1, 4, 0}, {0, 1, 3, 1}, {0, 1, 2, 2}, {0, 1, 1, 3}, {0, 1, 0, 4}, {0, 0, 5, 0}, {0, 0, 4, 1}, {0, 0, 3, 2}, {0, 0, 2, 3}, {0, 0, 1, 4}, {0, 0, 0, 5}, {0, 6, 0, 0}, {0, 5, 1, 0}, {0, 5, 0, 1}, {0, 4, 2, 0}, {0, 4, 1, 1}, {0, 4, 0, 2}, {0, 3, 3, 0}, {0, 3, 2, 1}, {0, 3, 1, 2}, {0, 3, 0, 3}, {0, 2, 4, 0}, {0, 2, 3, 1}, {0, 2, 2, 2}, {0, 2, 1, 3}, {0, 2, 0, 4}, {0, 1, 5, 0}, {0, 1, 4, 1}, {0, 1, 3, 2}, {0, 1, 2, 3}, {0, 1, 1, 4}, {0, 1, 0, 5}, {0, 0, 6, 0}, {0, 0, 5, 1}, {0, 0, 4, 2}, {0, 0, 3, 3}, {0, 0, 2, 4}, {0, 0, 1, 5}, {0, 0, 0, 6}, {0, 7, 0, 0}, {0, 6, 1, 0}, {0, 6, 0, 1}, {0, 5, 2, 0}, {0, 5, 1, 1}, {0, 5, 0, 2}, {0, 4, 3, 0}, {0, 4, 2, 1}, {0, 4, 1, 2}, {0, 4, 0, 3}, {0, 3, 4, 0}, {0, 3, 3, 1}, {0, 3, 2, 2}, {0, 3, 1, 3}, {0, 3, 0, 4}, {0, 2, 5, 0}, {0, 2, 4, 1}, {0, 2, 3, 2}, {0, 2, 2, 3}, {0, 2, 1, 4}, {0, 2, 0, 5}, {0, 1, 6, 0}, {0, 1, 5, 1}, {0, 1, 4, 2}, {0, 1, 3, 3}, {0, 1, 2, 4}, {0, 1, 1, 5}, {0, 1, 0, 6}, {0, 0, 7, 0}, {0, 0, 6, 1}, {0, 0, 5, 2}, {0, 0, 4, 3}, {0, 0, 3, 4}, {0, 0, 2, 5}, {0, 0, 1, 6}, {0, 0, 0, 7}, {0, 8, 0, 0}, {0, 7, 1, 0}, {0, 7, 0, 1}, {0, 6, 2, 0}, {0, 6, 1, 1}, {0, 6, 0, 2}, {0, 5, 3, 0}, {0, 5, 2, 1}, {0, 5, 1, 2}, {0, 5, 0, 3}, {0, 4, 4, 0}, {0, 4, 3, 1}, {0, 4, 2, 2}, {0, 4, 1, 3}, {0, 4, 0, 4}, {0, 3, 5, 0}, {0, 3, 4, 1}, {0, 3, 3, 2}, {0, 3, 2, 3}, {0, 3, 1, 4}, {0, 3, 0, 5}, {0, 2, 6, 0}, {0, 2, 5, 1}, {0, 2, 4, 2}, {0, 2, 3, 3}, {0, 2, 2, 4}, {0, 2, 1, 5}, {0, 2, 0, 6}, {0, 1, 7, 0}, {0, 1, 6, 1}, {0, 1, 5, 2}, {0, 1, 4, 3}, {0, 1, 3, 4}, {0, 1, 2, 5}, {0, 1, 1, 6}, {0, 1, 0, 7}, {0, 0, 8, 0}, {0, 0, 7, 1}, {0, 0, 6, 2}, {0, 0, 5, 3}, {0, 0, 4, 4}, {0, 0, 3, 5}, {0, 0, 2, 6}, {0, 0, 1, 7}, {0, 0, 0, 8}, {0, 9, 0, 0}, {0, 8, 1, 0}, {0, 8, 0, 1}, {0, 7, 2, 0}, {0, 7, 1, 1}, {0, 7, 0, 2}, {0, 6, 3, 0}, {0, 6, 2, 1}, {0, 6, 1, 2}, {0, 6, 0, 3}, {0, 5, 4, 0}, {0, 5, 3, 1}, {0, 5, 2, 2}, {0, 5, 1, 3}, {0, 5, 0, 4}, {0, 4, 5, 0}, {0, 4, 4, 1}, {0, 4, 3, 2}, {0, 4, 2, 3}, {0, 4, 1, 4}, {0, 4, 0, 5}, {0, 3, 6, 0}, {0, 3, 5, 1}, {0, 3, 4, 2}, {0, 3, 3, 3}, {0, 3, 2, 4}, {0, 3, 1, 5}, {0, 3, 0, 6}, {0, 2, 7, 0}, {0, 2, 6, 1}, {0, 2, 5, 2}, {0, 2, 4, 3}, {0, 2, 3, 4}, {0, 2, 2, 5}, {0, 2, 1, 6}, {0, 2, 0, 7}, {0, 1, 8, 0}, {0, 1, 7, 1}, {0, 1, 6, 2}, {0, 1, 5, 3}, {0, 1, 4, 4}, {0, 1, 3, 5}, {0, 1, 2, 6}, {0, 1, 1, 7}, {0, 1, 0, 8}, {0, 0, 9, 0}, {0, 0, 8, 1}, {0, 0, 7, 2}, {0, 0, 6, 3}, {0, 0, 5, 4}, {0, 0, 4, 5}, {0, 0, 3, 6}, {0, 0, 2, 7}, {0, 0, 1, 8}, {0, 0, 0, 9}, {0, 10, 0, 0}, {0, 9, 1, 0}, {0, 9, 0, 1}, {0, 8, 2, 0}, {0, 8, 1, 1}, {0, 8, 0, 2}, {0, 7, 3, 0}, {0, 7, 2, 1}, {0, 7, 1, 2}, {0, 7, 0, 3}, {0, 6, 4, 0}, {0, 6, 3, 1}, {0, 6, 2, 2}, {0, 6, 1, 3}, {0, 6, 0, 4}, {0, 5, 5, 0}, {0, 5, 4, 1}, {0, 5, 3, 2}, {0, 5, 2, 3}, {0, 5, 1, 4}, {0, 5, 0, 5}, {0, 4, 6, 0}, {0, 4, 5, 1}, {0, 4, 4, 2}, {0, 4, 3, 3}, {0, 4, 2, 4}, {0, 4, 1, 5}, {0, 4, 0, 6}, {0, 3, 7, 0}, {0, 3, 6, 1}, {0, 3, 5, 2}, {0, 3, 4, 3}, {0, 3, 3, 4}, {0, 3, 2, 5}, {0, 3, 1, 6}, {0, 3, 0, 7}, {0, 2, 8, 0}, {0, 2, 7, 1}, {0, 2, 6, 2}, {0, 2, 5, 3}, {0, 2, 4, 4}, {0, 2, 3, 5}, {0, 2, 2, 6}, {0, 2, 1, 7}, {0, 2, 0, 8}, {0, 1, 9, 0}, {0, 1, 8, 1}, {0, 1, 7, 2}, {0, 1, 6, 3}, {0, 1, 5, 4}, {0, 1, 4, 5}, {0, 1, 3, 6}, {0, 1, 2, 7}, {0, 1, 1, 8}, {0, 1, 0, 9}, {0, 0, 10, 0}, {0, 0, 9, 1}, {0, 0, 8, 2}, {0, 0, 7, 3}, {0, 0, 6, 4}, {0, 0, 5, 5}, {0, 0, 4, 6}, {0, 0, 3, 7}, {0, 0, 2, 8}, {0, 0, 1, 9}, {0, 0, 0, 10}, {1, 0, 0, 0}, {1, 1, 0, 0}, {1, 0, 1, 0}, {1, 0, 0, 1}, {1, 2, 0, 0}, {1, 1, 1, 0}, {1, 1, 0, 1}, {1, 0, 2, 0}, {1, 0, 1, 1}, {1, 0, 0, 2}, {1, 3, 0, 0}, {1, 2, 1, 0}, {1, 2, 0, 1}, {1, 1, 2, 0}, {1, 1, 1, 1}, {1, 1, 0, 2}, {1, 0, 3, 0}, {1, 0, 2, 1}, {1, 0, 1, 2}, {1, 0, 0, 3}, {1, 4, 0, 0}, {1, 3, 1, 0}, {1, 3, 0, 1}, {1, 2, 2, 0}, {1, 2, 1, 1}, {1, 2, 0, 2}, {1, 1, 3, 0}, {1, 1, 2, 1}, {1, 1, 1, 2}, {1, 1, 0, 3}, {1, 0, 4, 0}, {1, 0, 3, 1}, {1, 0, 2, 2}, {1, 0, 1, 3}, {1, 0, 0, 4}, {1, 5, 0, 0}, {1, 4, 1, 0}, {1, 4, 0, 1}, {1, 3, 2, 0}, {1, 3, 1, 1}, {1, 3, 0, 2}, {1, 2, 3, 0}, {1, 2, 2, 1}, {1, 2, 1, 2}, {1, 2, 0, 3}, {1, 1, 4, 0}, {1, 1, 3, 1}, {1, 1, 2, 2}, {1, 1, 1, 3}, {1, 1, 0, 4}, {1, 0, 5, 0}, {1, 0, 4, 1}, {1, 0, 3, 2}, {1, 0, 2, 3}, {1, 0, 1, 4}, {1, 0, 0, 5}, {1, 6, 0, 0}, {1, 5, 1, 0}, {1, 5, 0, 1}, {1, 4, 2, 0}, {1, 4, 1, 1}, {1, 4, 0, 2}, {1, 3, 3, 0}, {1, 3, 2, 1}, {1, 3, 1, 2}, {1, 3, 0, 3}, {1, 2, 4, 0}, {1, 2, 3, 1}, {1, 2, 2, 2}, {1, 2, 1, 3}, {1, 2, 0, 4}, {1, 1, 5, 0}, {1, 1, 4, 1}, {1, 1, 3, 2}, {1, 1, 2, 3}, {1, 1, 1, 4}, {1, 1, 0, 5}, {1, 0, 6, 0}, {1, 0, 5, 1}, {1, 0, 4, 2}, {1, 0, 3, 3}, {1, 0, 2, 4}, {1, 0, 1, 5}, {1, 0, 0, 6}, {1, 7, 0, 0}, {1, 6, 1, 0}, {1, 6, 0, 1}, {1, 5, 2, 0}, {1, 5, 1, 1}, {1, 5, 0, 2}, {1, 4, 3, 0}, {1, 4, 2, 1}, {1, 4, 1, 2}, {1, 4, 0, 3}, {1, 3, 4, 0}, {1, 3, 3, 1}, {1, 3, 2, 2}, {1, 3, 1, 3}, {1, 3, 0, 4}, {1, 2, 5, 0}, {1, 2, 4, 1}, {1, 2, 3, 2}, {1, 2, 2, 3}, {1, 2, 1, 4}, {1, 2, 0, 5}, {1, 1, 6, 0}, {1, 1, 5, 1}, {1, 1, 4, 2}, {1, 1, 3, 3}, {1, 1, 2, 4}, {1, 1, 1, 5}, {1, 1, 0, 6}, {1, 0, 7, 0}, {1, 0, 6, 1}, {1, 0, 5, 2}, {1, 0, 4, 3}, {1, 0, 3, 4}, {1, 0, 2, 5}, {1, 0, 1, 6}, {1, 0, 0, 7}, {1, 8, 0, 0}, {1, 7, 1, 0}, {1, 7, 0, 1}, {1, 6, 2, 0}, {1, 6, 1, 1}, {1, 6, 0, 2}, {1, 5, 3, 0}, {1, 5, 2, 1}, {1, 5, 1, 2}, {1, 5, 0, 3}, {1, 4, 4, 0}, {1, 4, 3, 1}, {1, 4, 2, 2}, {1, 4, 1, 3}, {1, 4, 0, 4}, {1, 3, 5, 0}, {1, 3, 4, 1}, {1, 3, 3, 2}, {1, 3, 2, 3}, {1, 3, 1, 4}, {1, 3, 0, 5}, {1, 2, 6, 0}, {1, 2, 5, 1}, {1, 2, 4, 2}, {1, 2, 3, 3}, {1, 2, 2, 4}, {1, 2, 1, 5}, {1, 2, 0, 6}, {1, 1, 7, 0}, {1, 1, 6, 1}, {1, 1, 5, 2}, {1, 1, 4, 3}, {1, 1, 3, 4}, {1, 1, 2, 5}, {1, 1, 1, 6}, {1, 1, 0, 7}, {1, 0, 8, 0}, {1, 0, 7, 1}, {1, 0, 6, 2}, {1, 0, 5, 3}, {1, 0, 4, 4}, {1, 0, 3, 5}, {1, 0, 2, 6}, {1, 0, 1, 7}, {1, 0, 0, 8}, {1, 9, 0, 0}, {1, 8, 1, 0}, {1, 8, 0, 1}, {1, 7, 2, 0}, {1, 7, 1, 1}, {1, 7, 0, 2}, {1, 6, 3, 0}, {1, 6, 2, 1}, {1, 6, 1, 2}, {1, 6, 0, 3}, {1, 5, 4, 0}, {1, 5, 3, 1}, {1, 5, 2, 2}, {1, 5, 1, 3}, {1, 5, 0, 4}, {1, 4, 5, 0}, {1, 4, 4, 1}, {1, 4, 3, 2}, {1, 4, 2, 3}, {1, 4, 1, 4}, {1, 4, 0, 5}, {1, 3, 6, 0}, {1, 3, 5, 1}, {1, 3, 4, 2}, {1, 3, 3, 3}, {1, 3, 2, 4}, {1, 3, 1, 5}, {1, 3, 0, 6}, {1, 2, 7, 0}, {1, 2, 6, 1}, {1, 2, 5, 2}, {1, 2, 4, 3}, {1, 2, 3, 4}, {1, 2, 2, 5}, {1, 2, 1, 6}, {1, 2, 0, 7}, {1, 1, 8, 0}, {1, 1, 7, 1}, {1, 1, 6, 2}, {1, 1, 5, 3}, {1, 1, 4, 4}, {1, 1, 3, 5}, {1, 1, 2, 6}, {1, 1, 1, 7}, {1, 1, 0, 8}, {1, 0, 9, 0}, {1, 0, 8, 1}, {1, 0, 7, 2}, {1, 0, 6, 3}, {1, 0, 5, 4}, {1, 0, 4, 5}, {1, 0, 3, 6}, {1, 0, 2, 7}, {1, 0, 1, 8}, {1, 0, 0, 9}, {2, 0, 0, 0}, {2, 1, 0, 0}, {2, 0, 1, 0}, {2, 0, 0, 1}, {2, 2, 0, 0}, {2, 1, 1, 0}, {2, 1, 0, 1}, {2, 0, 2, 0}, {2, 0, 1, 1}, {2, 0, 0, 2}, {2, 3, 0, 0}, {2, 2, 1, 0}, {2, 2, 0, 1}, {2, 1, 2, 0}, {2, 1, 1, 1}, {2, 1, 0, 2}, {2, 0, 3, 0}, {2, 0, 2, 1}, {2, 0, 1, 2}, {2, 0, 0, 3}, {2, 4, 0, 0}, {2, 3, 1, 0}, {2, 3, 0, 1}, {2, 2, 2, 0}, {2, 2, 1, 1}, {2, 2, 0, 2}, {2, 1, 3, 0}, {2, 1, 2, 1}, {2, 1, 1, 2}, {2, 1, 0, 3}, {2, 0, 4, 0}, {2, 0, 3, 1}, {2, 0, 2, 2}, {2, 0, 1, 3}, {2, 0, 0, 4}, {2, 5, 0, 0}, {2, 4, 1, 0}, {2, 4, 0, 1}, {2, 3, 2, 0}, {2, 3, 1, 1}, {2, 3, 0, 2}, {2, 2, 3, 0}, {2, 2, 2, 1}, {2, 2, 1, 2}, {2, 2, 0, 3}, {2, 1, 4, 0}, {2, 1, 3, 1}, {2, 1, 2, 2}, {2, 1, 1, 3}, {2, 1, 0, 4}, {2, 0, 5, 0}, {2, 0, 4, 1}, {2, 0, 3, 2}, {2, 0, 2, 3}, {2, 0, 1, 4}, {2, 0, 0, 5}, {2, 6, 0, 0}, {2, 5, 1, 0}, {2, 5, 0, 1}, {2, 4, 2, 0}, {2, 4, 1, 1}, {2, 4, 0, 2}, {2, 3, 3, 0}, {2, 3, 2, 1}, {2, 3, 1, 2}, {2, 3, 0, 3}, {2, 2, 4, 0}, {2, 2, 3, 1}, {2, 2, 2, 2}, {2, 2, 1, 3}, {2, 2, 0, 4}, {2, 1, 5, 0}, {2, 1, 4, 1}, {2, 1, 3, 2}, {2, 1, 2, 3}, {2, 1, 1, 4}, {2, 1, 0, 5}, {2, 0, 6, 0}, {2, 0, 5, 1}, {2, 0, 4, 2}, {2, 0, 3, 3}, {2, 0, 2, 4}, {2, 0, 1, 5}, {2, 0, 0, 6}, {2, 7, 0, 0}, {2, 6, 1, 0}, {2, 6, 0, 1}, {2, 5, 2, 0}, {2, 5, 1, 1}, {2, 5, 0, 2}, {2, 4, 3, 0}, {2, 4, 2, 1}, {2, 4, 1, 2}, {2, 4, 0, 3}, {2, 3, 4, 0}, {2, 3, 3, 1}, {2, 3, 2, 2}, {2, 3, 1, 3}, {2, 3, 0, 4}, {2, 2, 5, 0}, {2, 2, 4, 1}, {2, 2, 3, 2}, {2, 2, 2, 3}, {2, 2, 1, 4}, {2, 2, 0, 5}, {2, 1, 6, 0}, {2, 1, 5, 1}, {2, 1, 4, 2}, {2, 1, 3, 3}, {2, 1, 2, 4}, {2, 1, 1, 5}, {2, 1, 0, 6}, {2, 0, 7, 0}, {2, 0, 6, 1}, {2, 0, 5, 2}, {2, 0, 4, 3}, {2, 0, 3, 4}, {2, 0, 2, 5}, {2, 0, 1, 6}, {2, 0, 0, 7}, {3, 0, 0, 0}, {3, 1, 0, 0}, {3, 0, 1, 0}, {3, 0, 0, 1}, {3, 2, 0, 0}, {3, 1, 1, 0}, {3, 1, 0, 1}, {3, 0, 2, 0}, {3, 0, 1, 1}, {3, 0, 0, 2}, {3, 3, 0, 0}, {3, 2, 1, 0}, {3, 2, 0, 1}, {3, 1, 2, 0}, {3, 1, 1, 1}, {3, 1, 0, 2}, {3, 0, 3, 0}, {3, 0, 2, 1}, {3, 0, 1, 2}, {3, 0, 0, 3}, {3, 4, 0, 0}, {3, 3, 1, 0}, {3, 3, 0, 1}, {3, 2, 2, 0}, {3, 2, 1, 1}, {3, 2, 0, 2}, {3, 1, 3, 0}, {3, 1, 2, 1}, {3, 1, 1, 2}, {3, 1, 0, 3}, {3, 0, 4, 0}, {3, 0, 3, 1}, {3, 0, 2, 2}, {3, 0, 1, 3}, {3, 0, 0, 4}, {3, 5, 0, 0}, {3, 4, 1, 0}, {3, 4, 0, 1}, {3, 3, 2, 0}, {3, 3, 1, 1}, {3, 3, 0, 2}, {3, 2, 3, 0}, {3, 2, 2, 1}, {3, 2, 1, 2}, {3, 2, 0, 3}, {3, 1, 4, 0}, {3, 1, 3, 1}, {3, 1, 2, 2}, {3, 1, 1, 3}, {3, 1, 0, 4}, {3, 0, 5, 0}, {3, 0, 4, 1}, {3, 0, 3, 2}, {3, 0, 2, 3}, {3, 0, 1, 4}, {3, 0, 0, 5}, {4, 0, 0, 0}, {4, 1, 0, 0}, {4, 0, 1, 0}, {4, 0, 0, 1}, {4, 2, 0, 0}, {4, 1, 1, 0}, {4, 1, 0, 1}, {4, 0, 2, 0}, {4, 0, 1, 1}, {4, 0, 0, 2}, {4, 3, 0, 0}, {4, 2, 1, 0}, {4, 2, 0, 1}, {4, 1, 2, 0}, {4, 1, 1, 1}, {4, 1, 0, 2}, {4, 0, 3, 0}, {4, 0, 2, 1}, {4, 0, 1, 2}, {4, 0, 0, 3}, {5, 0, 0, 0}, {5, 1, 0, 0}, {5, 0, 1, 0}, {5, 0, 0, 1}}
alpha_index_times_count = 82520
alpha_index_times = {{0, 0, 1, 706}, {1, 1, 1, 707}, {2, 2, 1, 707}, {3, 3, 1, 707}, {1, 4, 1, 708}, {2, 5, 1, 708}, {3, 6, 1, 708}, {1, 5, 1, 709}, {2, 7, 1, 709}, {3, 8, 1, 709}, {1, 6, 1, 710}, {2, 8, 1, 710}, {3, 9, 1, 710}, {1, 10, 1, 711}, {2, 11, 1, 711}, {3, 12, 1, 711}, {1, 11, 1, 712}, {2, 13, 1, 712}, {3, 14, 1, 712}, {1, 12, 1, 713}, {2, 14, 1, 713}, {3, 15, 1, 713}, {1, 13, 1, 714}, {2, 16, 1, 714}, {3, 17, 1, 714}, {1, 14, 1, 715}, {2, 17, 1, 715}, {3, 18, 1, 715}, {1, 15, 1, 716}, {2, 18, 1, 716}, {3, 19, 1, 716}, {4, 4, 1, 717}, {5, 5, 1, 717}, {6, 6, 1, 717}, {4, 5, 1, 718}, {5, 7, 1, 718}, {6, 8, 1, 718}, {4, 6, 1, 719}, {5, 8, 1, 719}, {6, 9, 1, 719}, {5, 5, 1, 720}, {7, 7, 1, 720}, {8, 8, 1, 720}, {5, 6, 1, 721}, {7, 8, 1, 721}, {8, 9, 1, 721}, {6, 6, 1, 722}, {8, 8, 1, 722}, {9, 9, 1, 722}, {4, 10, 1, 723}, {5, 11, 1, 723}, {6, 12, 1, 723}, {4, 11, 1, 724}, {5, 13, 1, 724}, {6, 14, 1, 724}, {4, 12, 1, 725}, {5, 14, 1, 725}, {6, 15, 1, 725}, {4, 13, 1, 726}, {5, 16, 1, 726}, {6, 17, 1, 726}, {4, 14, 1, 727}, {5, 17, 1, 727}, {6, 18, 1, 727}, {4, 15, 1, 728}, {5, 18, 1, 728}, {6, 19, 1, 728}, {5, 10, 1, 729}, {7, 11, 1, 729}, {8, 12, 1, 729}, {5, 11, 1, 730}, {7, 13, 1, 730}, {8, 14, 1, 730}, {5, 12, 1, 731}, {7, 14, 1, 731}, {8, 15, 1, 731}, {5, 13, 1, 732}, {7, 16, 1, 732}, {8, 17, 1, 732}, {5, 14, 1, 733}, {7, 17, 1, 733}, {8, 18, 1, 733}, {5, 15, 1, 734}, {7, 18, 1, 734}, {8, 19, 1, 734}, {6, 10, 1, 735}, {8, 11, 1, 735}, {9, 12, 1, 735}, {6, 11, 1, 736}, {8, 13, 1, 736}, {9, 14, 1, 736}, {6, 12, 1, 737}, {8, 14, 1, 737}, {9, 15, 1, 737}, {6, 13, 1, 738}, {8, 16, 1, 738}, {9, 17, 1, 738}, {6, 14, 1, 739}, {8, 17, 1, 739}, {9, 18, 1, 739}, {6, 15, 1, 740}, {8, 18, 1, 740}, {9, 19, 1, 740}, {4, 20, 1, 741}, {5, 21, 1, 741}, {6, 22, 1, 741}, {4, 21, 1, 742}, {5, 23, 1, 742}, {6, 24, 1, 742}, {4, 22, 1, 743}, {5, 24, 1, 743}, {6, 25, 1, 743}, {4, 23, 1, 744}, {5, 26, 1, 744}, {6, 27, 1, 744}, {4, 24, 1, 745}, {5, 27, 1, 745}, {6, 28, 1, 745}, {4, 25, 1, 746}, {5, 28, 1, 746}, {6, 29, 1, 746}, {4, 26, 1, 747}, {5, 30, 1, 747}, {6, 31, 1, 747}, {4, 27, 1, 748}, {5, 31, 1, 748}, {6, 32, 1, 748}, {4, 28, 1, 749}, {5, 32, 1, 749}, {6, 33, 1, 749}, {4, 29, 1, 750}, {5, 33, 1, 750}, {6, 34, 1, 750}, {5, 20, 1, 751}, {7, 21, 1, 751}, {8, 22, 1, 751}, {5, 21, 1, 752}, {7, 23, 1, 752}, {8, 24, 1, 752}, {5, 22, 1, 753}, {7, 24, 1, 753}, {8, 25, 1, 753}, {5, 23, 1, 754}, {7, 26, 1, 754}, {8, 27, 1, 754}, {5, 24, 1, 755}, {7, 27, 1, 755}, {8, 28, 1, 755}, {5, 25, 1, 756}, {7, 28, 1, 756}, {8, 29, 1, 756}, {5, 26, 1, 757}, {7, 30, 1, 757}, {8, 31, 1, 757}, {5, 27, 1, 758}, {7, 31, 1, 758}, {8, 32, 1, 758}, {5, 28, 1, 759}, {7, 32, 1, 759}, {8, 33, 1, 759}, {5, 29, 1, 760}, {7, 33, 1, 760}, {8, 34, 1, 760}, {6, 20, 1, 761}, {8, 21, 1, 761}, {9, 22, 1, 761}, {6, 21, 1, 762}, {8, 23, 1, 762}, {9, 24, 1, 762}, {6, 22, 1, 763}, {8, 24, 1, 763}, {9, 25, 1, 763}, {6, 23, 1, 764}, {8, 26, 1, 764}, {9, 27, 1, 764}, {6, 24, 1, 765}, {8, 27, 1, 765}, {9, 28, 1, 765}, {6, 25, 1, 766}, {8, 28, 1, 766}, {9, 29, 1, 766}, {6, 26, 1, 767}, {8, 30, 1, 767}, {9, 31, 1, 767}, {6, 27, 1, 768}, {8, 31, 1, 768}, {9, 32, 1, 768}, {6, 28, 1, 769}, {8, 32, 1, 769}, {9, 33, 1, 769}, {6, 29, 1, 770}, {8, 33, 1, 770}, {9, 34, 1, 770}, {4, 4, 1, 771}, {5, 5, 2, 771}, {6, 6, 2, 771}, {7, 7, 1, 771}, {8, 8, 2, 771}, {9, 9, 1, 771}, {4, 10, 1, 772}, {5, 11, 2, 772}, {6, 12, 2, 772}, {7, 13, 1, 772}, {8, 14, 2, 772}, {9, 15, 1, 772}, {4, 11, 1, 773}, {5, 13, 2, 773}, {6, 14, 2, 773}, {7, 16, 1, 773}, {8, 17, 2, 773}, {9, 18, 1, 773}, {4, 12, 1, 774}, {5, 14, 2, 774}, {6, 15, 2, 774}, {7, 17, 1, 774}, {8, 18, 2, 774}, {9, 19, 1, 774}, {4, 20, 1, 775}, {5, 21, 2, 775}, {6, 22, 2, 775}, {7, 23, 1, 775}, {8, 24, 2, 775}, {9, 25, 1, 775}, {4, 21, 1, 776}, {5, 23, 2, 776}, {6, 24, 2, 776}, {7, 26, 1, 776}, {8, 27, 2, 776}, {9, 28, 1, 776}, {4, 22, 1, 777}, {5, 24, 2, 777}, {6, 25, 2, 777}, {7, 27, 1, 777}, {8, 28, 2, 777}, {9, 29, 1, 777}, {4, 23, 1, 778}, {5, 26, 2, 778}, {6, 27, 2, 778}, {7, 30, 1, 778}, {8, 31, 2, 778}, {9, 32, 1, 778}, {4, 24, 1, 779}, {5, 27, 2, 779}, {6, 28, 2, 779}, {7, 31, 1, 779}, {8, 32, 2, 779}, {9, 33, 1, 779}, {4, 25, 1, 780}, {5, 28, 2, 780}, {6, 29, 2, 780}, {7, 32, 1, 780}, {8, 33, 2, 780}, {9, 34, 1, 780}, {4, 35, 1, 781}, {5, 36, 2, 781}, {6, 37, 2, 781}, {7, 38, 1, 781}, {8, 39, 2, 781}, {9, 40, 1, 781}, {4, 36, 1, 782}, {5, 38, 2, 782}, {6, 39, 2, 782}, {7, 41, 1, 782}, {8, 42, 2, 782}, {9, 43, 1, 782}, {4, 37, 1, 783}, {5, 39, 2, 783}, {6, 40, 2, 783}, {7, 42, 1, 783}, {8, 43, 2, 783}, {9, 44, 1, 783}, {4, 38, 1, 784}, {5, 41, 2, 784}, {6, 42, 2, 784}, {7, 45, 1, 784}, {8, 46, 2, 784}, {9, 47, 1, 784}, {4, 39, 1, 785}, {5, 42, 2, 785}, {6, 43, 2, 785}, {7, 46, 1, 785}, {8, 47, 2, 785}, {9, 48, 1, 785}, {4, 40, 1, 786}, {5, 43, 2, 786}, {6, 44, 2, 786}, {7, 47, 1, 786}, {8, 48, 2, 786}, {9, 49, 1, 786}, {4, 41, 1, 787}, {5, 45, 2, 787}, {6, 46, 2, 787}, {7, 50, 1, 787}, {8, 51, 2, 787}, {9, 52, 1, 787}, {4, 42, 1, 788}, {5, 46, 2, 788}, {6, 47, 2, 788}, {7, 51, 1, 788}, {8, 52, 2, 788}, {9, 53, 1, 788}, {4, 43, 1, 789}, {5, 47, 2, 789}, {6, 48, 2, 789}, {7, 52, 1, 789}, {8, 53, 2, 789}, {9, 54, 1, 789}, {4, 44, 1, 790}, {5, 48, 2, 790}, {6, 49, 2, 790}, {7, 53, 1, 790}, {8, 54, 2, 790}, {9, 55, 1, 790}, {4, 56, 1, 791}, {5, 57, 2, 791}, {6, 58, 2, 791}, {7, 59, 1, 791}, {8, 60, 2, 791}, {9, 61, 1, 791}, {4, 57, 1, 792}, {5, 59, 2, 792}, {6, 60, 2, 792}, {7, 62, 1, 792}, {8, 63, 2, 792}, {9, 64, 1, 792}, {4, 58, 1, 793}, {5, 60, 2, 793}, {6, 61, 2, 793}, {7, 63, 1, 793}, {8, 64, 2, 793}, {9, 65, 1, 793}, {4, 59, 1, 794}, {5, 62, 2, 794}, {6, 63, 2, 794}, {7, 66, 1, 794}, {8, 67, 2, 794}, {9, 68, 1, 794}, {4, 60, 1, 795}, {5, 63, 2, 795}, {6, 64, 2, 795}, {7, 67, 1, 795}, {8, 68, 2, 795}, {9, 69, 1, 795}, {4, 61, 1, 796}, {5, 64, 2, 796}, {6, 65, 2, 796}, {7, 68, 1, 796}, {8, 69, 2, 796}, {9, 70, 1, 796}, {4, 62, 1, 797}, {5, 66, 2, 797}, {6, 67, 2, 797}, {7, 71, 1, 797}, {8, 72, 2, 797}, {9, 73, 1, 797}, {4, 63, 1, 798}, {5, 67, 2, 798}, {6, 68, 2, 798}, {7, 72, 1, 798}, {8, 73, 2, 798}, {9, 74, 1, 798}, {4, 64, 1, 799}, {5, 68, 2, 799}, {6, 69, 2, 799}, {7, 73, 1, 799}, {8, 74, 2, 799}, {9, 75, 1, 799}, {4, 65, 1, 800}, {5, 69, 2, 800}, {6, 70, 2, 800}, {7, 74, 1, 800}, {8, 75, 2, 800}, {9, 76, 1, 800}, {4, 66, 1, 801}, {5, 71, 2, 801}, {6, 72, 2, 801}, {7, 77, 1, 801}, {8, 78, 2, 801}, {9, 79, 1, 801}, {4, 67, 1, 802}, {5, 72, 2, 802}, {6, 73, 2, 802}, {7, 78, 1, 802}, {8, 79, 2, 802}, {9, 80, 1, 802}, {4, 68, 1, 803}, {5, 73, 2, 803}, {6, 74, 2, 803}, {7, 79, 1, 803}, {8, 80, 2, 803}, {9, 81, 1, 803}, {4, 69, 1, 804}, {5, 74, 2, 804}, {6, 75, 2, 804}, {7, 80, 1, 804}, {8, 81, 2, 804}, {9, 82, 1, 804}, {4, 70, 1, 805}, {5, 75, 2, 805}, {6, 76, 2, 805}, {7, 81, 1, 805}, {8, 82, 2, 805}, {9, 83, 1, 805}, {10, 10, 1, 806}, {11, 11, 1, 806}, {12, 12, 1, 806}, {10, 11, 1, 807}, {11, 13, 1, 807}, {12, 14, 1, 807}, {10, 12, 1, 808}, {11, 14, 1, 808}, {12, 15, 1, 808}, {10, 13, 1, 809}, {11, 16, 1, 809}, {12, 17, 1, 809}, {10, 14, 1, 810}, {11, 17, 1, 810}, {12, 18, 1, 810}, {10, 15, 1, 811}, {11, 18, 1, 811}, {12, 19, 1, 811}, {11, 11, 1, 812}, {13, 13, 1, 812}, {14, 14, 1, 812}, {11, 12, 1, 813}, {13, 14, 1, 813}, {14, 15, 1, 813}, {11, 13, 1, 814}, {13, 16, 1, 814}, {14, 17, 1, 814}, {11, 14, 1, 815}, {13, 17, 1, 815}, {14, 18, 1, 815}, {11, 15, 1, 816}, {13, 18, 1, 816}, {14, 19, 1, 816}, {12, 12, 1, 817}, {14, 14, 1, 817}, {15, 15, 1, 817}, {12, 13, 1, 818}, {14, 16, 1, 818}, {15, 17, 1, 818}, {12, 14, 1, 819}, {14, 17, 1, 819}, {15, 18, 1, 819}, {12, 15, 1, 820}, {14, 18, 1, 820}, {15, 19, 1, 820}, {13, 13, 1, 821}, {16, 16, 1, 821}, {17, 17, 1, 821}, {13, 14, 1, 822}, {16, 17, 1, 822}, {17, 18, 1, 822}, {13, 15, 1, 823}, {16, 18, 1, 823}, {17, 19, 1, 823}, {14, 14, 1, 824}, {17, 17, 1, 824}, {18, 18, 1, 824}, {14, 15, 1, 825}, {17, 18, 1, 825}, {18, 19, 1, 825}, {15, 15, 1, 826}, {18, 18, 1, 826}, {19, 19, 1, 826}, {10, 10, 1, 827}, {11, 11, 2, 827}, {12, 12, 2, 827}, {13, 13, 1, 827}, {14, 14, 2, 827}, {15, 15, 1, 827}, {10, 11, 1, 828}, {11, 13, 2, 828}, {12, 14, 2, 828}, {13, 16, 1, 828}, {14, 17, 2, 828}, {15, 18, 1, 828}, {10, 12, 1, 829}, {11, 14, 2, 829}, {12, 15, 2, 829}, {13, 17, 1, 829}, {14, 18, 2, 829}, {15, 19, 1, 829}, {11, 11, 1, 830}, {13, 13, 2, 830}, {14, 14, 2, 830}, {16, 16, 1, 830}, {17, 17, 2, 830}, {18, 18, 1, 830}, {11, 12, 1, 831}, {13, 14, 2, 831}, {14, 15, 2, 831}, {16, 17, 1, 831}, {17, 18, 2, 831}, {18, 19, 1, 831}, {12, 12, 1, 832}, {14, 14, 2, 832}, {15, 15, 2, 832}, {17, 17, 1, 832}, {18, 18, 2, 832}, {19, 19, 1, 832}, {10, 20, 1, 833}, {11, 21, 2, 833}, {12, 22, 2, 833}, {13, 23, 1, 833}, {14, 24, 2, 833}, {15, 25, 1, 833}, {10, 21, 1, 834}, {11, 23, 2, 834}, {12, 24, 2, 834}, {13, 26, 1, 834}, {14, 27, 2, 834}, {15, 28, 1, 834}, {10, 22, 1, 835}, {11, 24, 2, 835}, {12, 25, 2, 835}, {13, 27, 1, 835}, {14, 28, 2, 835}, {15, 29, 1, 835}, {10, 23, 1, 836}, {11, 26, 2, 836}, {12, 27, 2, 836}, {13, 30, 1, 836}, {14, 31, 2, 836}, {15, 32, 1, 836}, {10, 24, 1, 837}, {11, 27, 2, 837}, {12, 28, 2, 837}, {13, 31, 1, 837}, {14, 32, 2, 837}, {15, 33, 1, 837}, {10, 25, 1, 838}, {11, 28, 2, 838}, {12, 29, 2, 838}, {13, 32, 1, 838}, {14, 33, 2, 838}, {15, 34, 1, 838}, {11, 20, 1, 839}, {13, 21, 2, 839}, {14, 22, 2, 839}, {16, 23, 1, 839}, {17, 24, 2, 839}, {18, 25, 1, 839}, {11, 21, 1, 840}, {13, 23, 2, 840}, {14, 24, 2, 840}, {16, 26, 1, 840}, {17, 27, 2, 840}, {18, 28, 1, 840}, {11, 22, 1, 841}, {13, 24, 2, 841}, {14, 25, 2, 841}, {16, 27, 1, 841}, {17, 28, 2, 841}, {18, 29, 1, 841}, {11, 23, 1, 842}, {13, 26, 2, 842}, {14, 27, 2, 842}, {16, 30, 1, 842}, {17, 31, 2, 842}, {18, 32, 1, 842}, {11, 24, 1, 843}, {13, 27, 2, 843}, {14, 28, 2, 843}, {16, 31, 1, 843}, {17, 32, 2, 843}, {18, 33, 1, 843}, {11, 25, 1, 844}, {13, 28, 2, 844}, {14, 29, 2, 844}, {16, 32, 1, 844}, {17, 33, 2, 844}, {18, 34, 1, 844}, {12, 20, 1, 845}, {14, 21, 2, 845}, {15, 22, 2, 845}, {17, 23, 1, 845}, {18, 24, 2, 845}, {19, 25, 1, 845}, {12, 21, 1, 846}, {14, 23, 2, 846}, {15, 24, 2, 846}, {17, 26, 1, 846}, {18, 27, 2, 846}, {19, 28, 1, 846}, {12, 22, 1, 847}, {14, 24, 2, 847}, {15, 25, 2, 847}, {17, 27, 1, 847}, {18, 28, 2, 847}, {19, 29, 1, 847}, {12, 23, 1, 848}, {14, 26, 2, 848}, {15, 27, 2, 848}, {17, 30, 1, 848}, {18, 31, 2, 848}, {19, 32, 1, 848}, {12, 24, 1, 849}, {14, 27, 2, 849}, {15, 28, 2, 849}, {17, 31, 1, 849}, {18, 32, 2, 849}, {19, 33, 1, 849}, {12, 25, 1, 850}, {14, 28, 2, 850}, {15, 29, 2, 850}, {17, 32, 1, 850}, {18, 33, 2, 850}, {19, 34, 1, 850}, {10, 35, 1, 851}, {11, 36, 2, 851}, {12, 37, 2, 851}, {13, 38, 1, 851}, {14, 39, 2, 851}, {15, 40, 1, 851}, {10, 36, 1, 852}, {11, 38, 2, 852}, {12, 39, 2, 852}, {13, 41, 1, 852}, {14, 42, 2, 852}, {15, 43, 1, 852}, {10, 37, 1, 853}, {11, 39, 2, 853}, {12, 40, 2, 853}, {13, 42, 1, 853}, {14, 43, 2, 853}, {15, 44, 1, 853}, {10, 38, 1, 854}, {11, 41, 2, 854}, {12, 42, 2, 854}, {13, 45, 1, 854}, {14, 46, 2, 854}, {15, 47, 1, 854}, {10, 39, 1, 855}, {11, 42, 2, 855}, {12, 43, 2, 855}, {13, 46, 1, 855}, {14, 47, 2, 855}, {15, 48, 1, 855}, {10, 40, 1, 856}, {11, 43, 2, 856}, {12, 44, 2, 856}, {13, 47, 1, 856}, {14, 48, 2, 856}, {15, 49, 1, 856}, {10, 41, 1, 857}, {11, 45, 2, 857}, {12, 46, 2, 857}, {13, 50, 1, 857}, {14, 51, 2, 857}, {15, 52, 1, 857}, {10, 42, 1, 858}, {11, 46, 2, 858}, {12, 47, 2, 858}, {13, 51, 1, 858}, {14, 52, 2, 858}, {15, 53, 1, 858}, {10, 43, 1, 859}, {11, 47, 2, 859}, {12, 48, 2, 859}, {13, 52, 1, 859}, {14, 53, 2, 859}, {15, 54, 1, 859}, {10, 44, 1, 860}, {11, 48, 2, 860}, {12, 49, 2, 860}, {13, 53, 1, 860}, {14, 54, 2, 860}, {15, 55, 1, 860}, {11, 35, 1, 861}, {13, 36, 2, 861}, {14, 37, 2, 861}, {16, 38, 1, 861}, {17, 39, 2, 861}, {18, 40, 1, 861}, {11, 36, 1, 862}, {13, 38, 2, 862}, {14, 39, 2, 862}, {16, 41, 1, 862}, {17, 42, 2, 862}, {18, 43, 1, 862}, {11, 37, 1, 863}, {13, 39, 2, 863}, {14, 40, 2, 863}, {16, 42, 1, 863}, {17, 43, 2, 863}, {18, 44, 1, 863}, {11, 38, 1, 864}, {13, 41, 2, 864}, {14, 42, 2, 864}, {16, 45, 1, 864}, {17, 46, 2, 864}, {18, 47, 1, 864}, {11, 39, 1, 865}, {13, 42, 2, 865}, {14, 43, 2, 865}, {16, 46, 1, 865}, {17, 47, 2, 865}, {18, 48, 1, 865}, {11, 40, 1, 866}, {13, 43, 2, 866}, {14, 44, 2, 866}, {16, 47, 1, 866}, {17, 48, 2, 866}, {18, 49, 1, 866}, {11, 41, 1, 867}, {13, 45, 2, 867}, {14, 46, 2, 867}, {16, 50, 1, 867}, {17, 51, 2, 867}, {18, 52, 1, 867}, {11, 42, 1, 868}, {13, 46, 2, 868}, {14, 47, 2, 868}, {16, 51, 1, 868}, {17, 52, 2, 868}, {18, 53, 1, 868}, {11, 43, 1, 869}, {13, 47, 2, 869}, {14, 48, 2, 869}, {16, 52, 1, 869}, {17, 53, 2, 869}, {18, 54, 1, 869}, {11, 44, 1, 870}, {13, 48, 2, 870}, {14, 49, 2, 870}, {16, 53, 1, 870}, {17, 54, 2, 870}, {18, 55, 1, 870}, {12, 35, 1, 871}, {14, 36, 2, 871}, {15, 37, 2, 871}, {17, 38, 1, 871}, {18, 39, 2, 871}, {19, 40, 1, 871}, {12, 36, 1, 872}, {14, 38, 2, 872}, {15, 39, 2, 872}, {17, 41, 1, 872}, {18, 42, 2, 872}, {19, 43, 1, 872}, {12, 37, 1, 873}, {14, 39, 2, 873}, {15, 40, 2, 873}, {17, 42, 1, 873}, {18, 43, 2, 873}, {19, 44, 1, 873}, {12, 38, 1, 874}, {14, 41, 2, 874}, {15, 42, 2, 874}, {17, 45, 1, 874}, {18, 46, 2, 874}, {19, 47, 1, 874}, {12, 39, 1, 875}, {14, 42, 2, 875}, {15, 43, 2, 875}, {17, 46, 1, 875}, {18, 47, 2, 875}, {19, 48, 1, 875}, {12, 40, 1, 876}, {14, 43, 2, 876}, {15, 44, 2, 876}, {17, 47, 1, 876}, {18, 48, 2, 876}, {19, 49, 1, 876}, {12, 41, 1, 877}, {14, 45, 2, 877}, {15, 46, 2, 877}, {17, 50, 1, 877}, {18, 51, 2, 877}, {19, 52, 1, 877}, {12, 42, 1, 878}, {14, 46, 2, 878}, {15, 47, 2, 878}, {17, 51, 1, 878}, {18, 52, 2, 878}, {19, 53, 1, 878}, {12, 43, 1, 879}, {14, 47, 2, 879}, {15, 48, 2, 879}, {17, 52, 1, 879}, {18, 53, 2, 879}, {19, 54, 1, 879}, {12, 44, 1, 880}, {14, 48, 2, 880}, {15, 49, 2, 880}, {17, 53, 1, 880}, {18, 54, 2, 880}, {19, 55, 1, 880}, {10, 56, 1, 881}, {11, 57, 2, 881}, {12, 58, 2, 881}, {13, 59, 1, 881}, {14, 60, 2, 881}, {15, 61, 1, 881}, {10, 57, 1, 882}, {11, 59, 2, 882}, {12, 60, 2, 882}, {13, 62, 1, 882}, {14, 63, 2, 882}, {15, 64, 1, 882}, {10, 58, 1, 883}, {11, 60, 2, 883}, {12, 61, 2, 883}, {13, 63, 1, 883}, {14, 64, 2, 883}, {15, 65, 1, 883}, {10, 59, 1, 884}, {11, 62, 2, 884}, {12, 63, 2, 884}, {13, 66, 1, 884}, {14, 67, 2, 884}, {15, 68, 1, 884}, {10, 60, 1, 885}, {11, 63, 2, 885}, {12, 64, 2, 885}, {13, 67, 1, 885}, {14, 68, 2, 885}, {15, 69, 1, 885}, {10, 61, 1, 886}, {11, 64, 2, 886}, {12, 65, 2, 886}, {13, 68, 1, 886}, {14, 69, 2, 886}, {15, 70, 1, 886}, {10, 62, 1, 887}, {11, 66, 2, 887}, {12, 67, 2, 887}, {13, 71, 1, 887}, {14, 72, 2, 887}, {15, 73, 1, 887}, {10, 63, 1, 888}, {11, 67, 2, 888}, {12, 68, 2, 888}, {13, 72, 1, 888}, {14, 73, 2, 888}, {15, 74, 1, 888}, {10, 64, 1, 889}, {11, 68, 2, 889}, {12, 69, 2, 889}, {13, 73, 1, 889}, {14, 74, 2, 889}, {15, 75, 1, 889}, {10, 65, 1, 890}, {11, 69, 2, 890}, {12, 70, 2, 890}, {13, 74, 1, 890}, {14, 75, 2, 890}, {15, 76, 1, 890}, {10, 66, 1, 891}, {11, 71, 2, 891}, {12, 72, 2, 891}, {13, 77, 1, 891}, {14, 78, 2, 891}, {15, 79, 1, 891}, {10, 67, 1, 892}, {11, 72, 2, 892}, {12, 73, 2, 892}, {13, 78, 1, 892}, {14, 79, 2, 892}, {15, 80, 1, 892}, {10, 68, 1, 893}, {11, 73, 2, 893}, {12, 74, 2, 893}, {13, 79, 1, 893}, {14, 80, 2, 893}, {15, 81, 1, 893}, {10, 69, 1, 894}, {11, 74, 2, 894}, {12, 75, 2, 894}, {13, 80, 1, 894}, {14, 81, 2, 894}, {15, 82, 1, 894}, {10, 70, 1, 895}, {11, 75, 2, 895}, {12, 76, 2, 895}, {13, 81, 1, 895}, {14, 82, 2, 895}, {15, 83, 1, 895}, {11, 56, 1, 896}, {13, 57, 2, 896}, {14, 58, 2, 896}, {16, 59, 1, 896}, {17, 60, 2, 896}, {18, 61, 1, 896}, {11, 57, 1, 897}, {13, 59, 2, 897}, {14, 60, 2, 897}, {16, 62, 1, 897}, {17, 63, 2, 897}, {18, 64, 1, 897}, {11, 58, 1, 898}, {13, 60, 2, 898}, {14, 61, 2, 898}, {16, 63, 1, 898}, {17, 64, 2, 898}, {18, 65, 1, 898}, {11, 59, 1, 899}, {13, 62, 2, 899}, {14, 63, 2, 899}, {16, 66, 1, 899}, {17, 67, 2, 899}, {18, 68, 1, 899}, {11, 60, 1, 900}, {13, 63, 2, 900}, {14, 64, 2, 900}, {16, 67, 1, 900}, {17, 68, 2, 900}, {18, 69, 1, 900}, {11, 61, 1, 901}, {13, 64, 2, 901}, {14, 65, 2, 901}, {16, 68, 1, 901}, {17, 69, 2, 901}, {18, 70, 1, 901}, {11, 62, 1, 902}, {13, 66, 2, 902}, {14, 67, 2, 902}, {16, 71, 1, 902}, {17, 72, 2, 902}, {18, 73, 1, 902}, {11, 63, 1, 903}, {13, 67, 2, 903}, {14, 68, 2, 903}, {16, 72, 1, 903}, {17, 73, 2, 903}, {18, 74, 1, 903}, {11, 64, 1, 904}, {13, 68, 2, 904}, {14, 69, 2, 904}, {16, 73, 1, 904}, {17, 74, 2, 904}, {18, 75, 1, 904}, {11, 65, 1, 905}, {13, 69, 2, 905}, {14, 70, 2, 905}, {16, 74, 1, 905}, {17, 75, 2, 905}, {18, 76, 1, 905}, {11, 66, 1, 906}, {13, 71, 2, 906}, {14, 72, 2, 906}, {16, 77, 1, 906}, {17, 78, 2, 906}, {18, 79, 1, 906}, {11, 67, 1, 907}, {13, 72, 2, 907}, {14, 73, 2, 907}, {16, 78, 1, 907}, {17, 79, 2, 907}, {18, 80, 1, 907}, {11, 68, 1, 908}, {13, 73, 2, 908}, {14, 74, 2, 908}, {16, 79, 1, 908}, {17, 80, 2, 908}, {18, 81, 1, 908}, {11, 69, 1, 909}, {13, 74, 2, 909}, {14, 75, 2, 909}, {16, 80, 1, 909}, {17, 81, 2, 909}, {18, 82, 1, 909}, {11, 70, 1, 910}, {13, 75, 2, 910}, {14, 76, 2, 910}, {16, 81, 1, 910}, {17, 82, 2, 910}, {18, 83, 1, 910}, {12, 56, 1, 911}, {14, 57, 2, 911}, {15, 58, 2, 911}, {17, 59, 1, 911}, {18, 60, 2, 911}, {19, 61, 1, 911}, {12, 57, 1, 912}, {14, 59, 2, 912}, {15, 60, 2, 912}, {17, 62, 1, 912}, {18, 63, 2, 912}, {19, 64, 1, 912}, {12, 58, 1, 913}, {14, 60, 2, 913}, {15, 61, 2, 913}, {17, 63, 1, 913}, {18, 64, 2, 913}, {19, 65, 1, 913}, {12, 59, 1, 914}, {14, 62, 2, 914}, {15, 63, 2, 914}, {17, 66, 1, 914}, {18, 67, 2, 914}, {19, 68, 1, 914}, {12, 60, 1, 915}, {14, 63, 2, 915}, {15, 64, 2, 915}, {17, 67, 1, 915}, {18, 68, 2, 915}, {19, 69, 1, 915}, {12, 61, 1, 916}, {14, 64, 2, 916}, {15, 65, 2, 916}, {17, 68, 1, 916}, {18, 69, 2, 916}, {19, 70, 1, 916}, {12, 62, 1, 917}, {14, 66, 2, 917}, {15, 67, 2, 917}, {17, 71, 1, 917}, {18, 72, 2, 917}, {19, 73, 1, 917}, {12, 63, 1, 918}, {14, 67, 2, 918}, {15, 68, 2, 918}, {17, 72, 1, 918}, {18, 73, 2, 918}, {19, 74, 1, 918}, {12, 64, 1, 919}, {14, 68, 2, 919}, {15, 69, 2, 919}, {17, 73, 1, 919}, {18, 74, 2, 919}, {19, 75, 1, 919}, {12, 65, 1, 920}, {14, 69, 2, 920}, {15, 70, 2, 920}, {17, 74, 1, 920}, {18, 75, 2, 920}, {19, 76, 1, 920}, {12, 66, 1, 921}, {14, 71, 2, 921}, {15, 72, 2, 921}, {17, 77, 1, 921}, {18, 78, 2, 921}, {19, 79, 1, 921}, {12, 67, 1, 922}, {14, 72, 2, 922}, {15, 73, 2, 922}, {17, 78, 1, 922}, {18, 79, 2, 922}, {19, 80, 1, 922}, {12, 68, 1, 923}, {14, 73, 2, 923}, {15, 74, 2, 923}, {17, 79, 1, 923}, {18, 80, 2, 923}, {19, 81, 1, 923}, {12, 69, 1, 924}, {14, 74, 2, 924}, {15, 75, 2, 924}, {17, 80, 1, 924}, {18, 81, 2, 924}, {19, 82, 1, 924}, {12, 70, 1, 925}, {14, 75, 2, 925}, {15, 76, 2, 925}, {17, 81, 1, 925}, {18, 82, 2, 925}, {19, 83, 1, 925}, {10, 84, 1, 926}, {11, 85, 2, 926}, {12, 86, 2, 926}, {13, 87, 1, 926}, {14, 88, 2, 926}, {15, 89, 1, 926}, {10, 85, 1, 927}, {11, 87, 2, 927}, {12, 88, 2, 927}, {13, 90, 1, 927}, {14, 91, 2, 927}, {15, 92, 1, 927}, {10, 86, 1, 928}, {11, 88, 2, 928}, {12, 89, 2, 928}, {13, 91, 1, 928}, {14, 92, 2, 928}, {15, 93, 1, 928}, {10, 87, 1, 929}, {11, 90, 2, 929}, {12, 91, 2, 929}, {13, 94, 1, 929}, {14, 95, 2, 929}, {15, 96, 1, 929}, {10, 88, 1, 930}, {11, 91, 2, 930}, {12, 92, 2, 930}, {13, 95, 1, 930}, {14, 96, 2, 930}, {15, 97, 1, 930}, {10, 89, 1, 931}, {11, 92, 2, 931}, {12, 93, 2, 931}, {13, 96, 1, 931}, {14, 97, 2, 931}, {15, 98, 1, 931}, {10, 90, 1, 932}, {11, 94, 2, 932}, {12, 95, 2, 932}, {13, 99, 1, 932}, {14, 100, 2, 932}, {15, 101, 1, 932}, {10, 91, 1, 933}, {11, 95, 2, 933}, {12, 96, 2, 933}, {13, 100, 1, 933}, {14, 101, 2, 933}, {15, 102, 1, 933}, {10, 92, 1, 934}, {11, 96, 2, 934}, {12, 97, 2, 934}, {13, 101, 1, 934}, {14, 102, 2, 934}, {15, 103, 1, 934}, {10, 93, 1, 935}, {11, 97, 2, 935}, {12, 98, 2, 935}, {13, 102, 1, 935}, {14, 103, 2, 935}, {15, 104, 1, 935}, {10, 94, 1, 936}, {11, 99, 2, 936}, {12, 100, 2, 936}, {13, 105, 1, 936}, {14, 106, 2, 936}, {15, 107, 1, 936}, {10, 95, 1, 937}, {11, 100, 2, 937}, {12, 101, 2, 937}, {13, 106, 1, 937}, {14, 107, 2, 937}, {15, 108, 1, 937}, {10, 96, 1, 938}, {11, 101, 2, 938}, {12, 102, 2, 938}, {13, 107, 1, 938}, {14, 108, 2, 938}, {15, 109, 1, 938}, {10, 97, 1, 939}, {11, 102, 2, 939}, {12, 103, 2, 939}, {13, 108, 1, 939}, {14, 109, 2, 939}, {15, 110, 1, 939}, {10, 98, 1, 940}, {11, 103, 2, 940}, {12, 104, 2, 940}, {13, 109, 1, 940}, {14, 110, 2, 940}, {15, 111, 1, 940}, {10, 99, 1, 941}, {11, 105, 2, 941}, {12, 106, 2, 941}, {13, 112, 1, 941}, {14, 113, 2, 941}, {15, 114, 1, 941}, {10, 100, 1, 942}, {11, 106, 2, 942}, {12, 107, 2, 942}, {13, 113, 1, 942}, {14, 114, 2, 942}, {15, 115, 1, 942}, {10, 101, 1, 943}, {11, 107, 2, 943}, {12, 108, 2, 943}, {13, 114, 1, 943}, {14, 115, 2, 943}, {15, 116, 1, 943}, {10, 102, 1, 944}, {11, 108, 2, 944}, {12, 109, 2, 944}, {13, 115, 1, 944}, {14, 116, 2, 944}, {15, 117, 1, 944}, {10, 103, 1, 945}, {11, 109, 2, 945}, {12, 110, 2, 945}, {13, 116, 1, 945}, {14, 117, 2, 945}, {15, 118, 1, 945}, {10, 104, 1, 946}, {11, 110, 2, 946}, {12, 111, 2, 946}, {13, 117, 1, 946}, {14, 118, 2, 946}, {15, 119, 1, 946}, {11, 84, 1, 947}, {13, 85, 2, 947}, {14, 86, 2, 947}, {16, 87, 1, 947}, {17, 88, 2, 947}, {18, 89, 1, 947}, {11, 85, 1, 948}, {13, 87, 2, 948}, {14, 88, 2, 948}, {16, 90, 1, 948}, {17, 91, 2, 948}, {18, 92, 1, 948}, {11, 86, 1, 949}, {13, 88, 2, 949}, {14, 89, 2, 949}, {16, 91, 1, 949}, {17, 92, 2, 949}, {18, 93, 1, 949}, {11, 87, 1, 950}, {13, 90, 2, 950}, {14, 91, 2, 950}, {16, 94, 1, 950}, {17, 95, 2, 950}, {18, 96, 1, 950}, {11, 88, 1, 951}, {13, 91, 2, 951}, {14, 92, 2, 951}, {16, 95, 1, 951}, {17, 96, 2, 951}, {18, 97, 1, 951}, {11, 89, 1, 952}, {13, 92, 2, 952}, {14, 93, 2, 952}, {16, 96, 1, 952}, {17, 97, 2, 952}, {18, 98, 1, 952}, {11, 90, 1, 953}, {13, 94, 2, 953}, {14, 95, 2, 953}, {16, 99, 1, 953}, {17, 100, 2, 953}, {18, 101, 1, 953}, {11, 91, 1, 954}, {13, 95, 2, 954}, {14, 96, 2, 954}, {16, 100, 1, 954}, {17, 101, 2, 954}, {18, 102, 1, 954}, {11, 92, 1, 955}, {13, 96, 2, 955}, {14, 97, 2, 955}, {16, 101, 1, 955}, {17, 102, 2, 955}, {18, 103, 1, 955}, {11, 93, 1, 956}, {13, 97, 2, 956}, {14, 98, 2, 956}, {16, 102, 1, 956}, {17, 103, 2, 956}, {18, 104, 1, 956}, {11, 94, 1, 957}, {13, 99, 2, 957}, {14, 100, 2, 957}, {16, 105, 1, 957}, {17, 106, 2, 957}, {18, 107, 1, 957}, {11, 95, 1, 958}, {13, 100, 2, 958}, {14, 101, 2, 958}, {16, 106, 1, 958}, {17, 107, 2, 958}, {18, 108, 1, 958}, {11, 96, 1, 959}, {13, 101, 2, 959}, {14, 102, 2, 959}, {16, 107, 1, 959}, {17, 108, 2, 959}, {18, 109, 1, 959}, {11, 97, 1, 960}, {13, 102, 2, 960}, {14, 103, 2, 960}, {16, 108, 1, 960}, {17, 109, 2, 960}, {18, 110, 1, 960}, {11, 98, 1, 961}, {13, 103, 2, 961}, {14, 104, 2, 961}, {16, 109, 1, 961}, {17, 110, 2, 961}, {18, 111, 1, 961}, {11, 99, 1, 962}, {13, 105, 2, 962}, {14, 106, 2, 962}, {16, 112, 1, 962}, {17, 113, 2, 962}, {18, 114, 1, 962}, {11, 100, 1, 963}, {13, 106, 2, 963}, {14, 107, 2, 963}, {16, 113, 1, 963}, {17, 114, 2, 963}, {18, 115, 1, 963}, {11, 101, 1, 964}, {13, 107, 2, 964}, {14, 108, 2, 964}, {16, 114, 1, 964}, {17, 115, 2, 964}, {18, 116, 1, 964}, {11, 102, 1, 965}, {13, 108, 2, 965}, {14, 109, 2, 965}, {16, 115, 1, 965}, {17, 116, 2, 965}, {18, 117, 1, 965}, {11, 103, 1, 966}, {13, 109, 2, 966}, {14, 110, 2, 966}, {16, 116, 1, 966}, {17, 117, 2, 966}, {18, 118, 1, 966}, {11, 104, 1, 967}, {13, 110, 2, 967}, {14, 111, 2, 967}, {16, 117, 1, 967}, {17, 118, 2, 967}, {18, 119, 1, 967}, {12, 84, 1, 968}, {14, 85, 2, 968}, {15, 86, 2, 968}, {17, 87, 1, 968}, {18, 88, 2, 968}, {19, 89, 1, 968}, {12, 85, 1, 969}, {14, 87, 2, 969}, {15, 88, 2, 969}, {17, 90, 1, 969}, {18, 91, 2, 969}, {19, 92, 1, 969}, {12, 86, 1, 970}, {14, 88, 2, 970}, {15, 89, 2, 970}, {17, 91, 1, 970}, {18, 92, 2, 970}, {19, 93, 1, 970}, {12, 87, 1, 971}, {14, 90, 2, 971}, {15, 91, 2, 971}, {17, 94, 1, 971}, {18, 95, 2, 971}, {19, 96, 1, 971}, {12, 88, 1, 972}, {14, 91, 2, 972}, {15, 92, 2, 972}, {17, 95, 1, 972}, {18, 96, 2, 972}, {19, 97, 1, 972}, {12, 89, 1, 973}, {14, 92, 2, 973}, {15, 93, 2, 973}, {17, 96, 1, 973}, {18, 97, 2, 973}, {19, 98, 1, 973}, {12, 90, 1, 974}, {14, 94, 2, 974}, {15, 95, 2, 974}, {17, 99, 1, 974}, {18, 100, 2, 974}, {19, 101, 1, 974}, {12, 91, 1, 975}, {14, 95, 2, 975}, {15, 96, 2, 975}, {17, 100, 1, 975}, {18, 101, 2, 975}, {19, 102, 1, 975}, {12, 92, 1, 976}, {14, 96, 2, 976}, {15, 97, 2, 976}, {17, 101, 1, 976}, {18, 102, 2, 976}, {19, 103, 1, 976}, {12, 93, 1, 977}, {14, 97, 2, 977}, {15, 98, 2, 977}, {17, 102, 1, 977}, {18, 103, 2, 977}, {19, 104, 1, 977}, {12, 94, 1, 978}, {14, 99, 2, 978}, {15, 100, 2, 978}, {17, 105, 1, 978}, {18, 106, 2, 978}, {19, 107, 1, 978}, {12, 95, 1, 979}, {14, 100, 2, 979}, {15, 101, 2, 979}, {17, 106, 1, 979}, {18, 107, 2, 979}, {19, 108, 1, 979}, {12, 96, 1, 980}, {14, 101, 2, 980}, {15, 102, 2, 980}, {17, 107, 1, 980}, {18, 108, 2, 980}, {19, 109, 1, 980}, {12, 97, 1, 981}, {14, 102, 2, 981}, {15, 103, 2, 981}, {17, 108, 1, 981}, {18, 109, 2, 981}, {19, 110, 1, 981}, {12, 98, 1, 982}, {14, 103, 2, 982}, {15, 104, 2, 982}, {17, 109, 1, 982}, {18, 110, 2, 982}, {19, 111, 1, 982}, {12, 99, 1, 983}, {14, 105, 2, 983}, {15, 106, 2, 983}, {17, 112, 1, 983}, {18, 113, 2, 983}, {19, 114, 1, 983}, {12, 100, 1, 984}, {14, 106, 2, 984}, {15, 107, 2, 984}, {17, 113, 1, 984}, {18, 114, 2, 984}, {19, 115, 1, 984}, {12, 101, 1, 985}, {14, 107, 2, 985}, {15, 108, 2, 985}, {17, 114, 1, 985}, {18, 115, 2, 985}, {19, 116, 1, 985}, {12, 102, 1, 986}, {14, 108, 2, 986}, {15, 109, 2, 986}, {17, 115, 1, 986}, {18, 116, 2, 986}, {19, 117, 1, 986}, {12, 103, 1, 987}, {14, 109, 2, 987}, {15, 110, 2, 987}, {17, 116, 1, 987}, {18, 117, 2, 987}, {19, 118, 1, 987}, {12, 104, 1, 988}, {14, 110, 2, 988}, {15, 111, 2, 988}, {17, 117, 1, 988}, {18, 118, 2, 988}, {19, 119, 1, 988}, {10, 10, 1, 989}, {11, 11, 3, 989}, {12, 12, 3, 989}, {13, 13, 3, 989}, {14, 14, 6, 989}, {15, 15, 3, 989}, {16, 16, 1, 989}, {17, 17, 3, 989}, {18, 18, 3, 989}, {19, 19, 1, 989}, {10, 20, 1, 990}, {11, 21, 3, 990}, {12, 22, 3, 990}, {13, 23, 3, 990}, {14, 24, 6, 990}, {15, 25, 3, 990}, {16, 26, 1, 990}, {17, 27, 3, 990}, {18, 28, 3, 990}, {19, 29, 1, 990}, {10, 21, 1, 991}, {11, 23, 3, 991}, {12, 24, 3, 991}, {13, 26, 3, 991}, {14, 27, 6, 991}, {15, 28, 3, 991}, {16, 30, 1, 991}, {17, 31, 3, 991}, {18, 32, 3, 991}, {19, 33, 1, 991}, {10, 22, 1, 992}, {11, 24, 3, 992}, {12, 25, 3, 992}, {13, 27, 3, 992}, {14, 28, 6, 992}, {15, 29, 3, 992}, {16, 31, 1, 992}, {17, 32, 3, 992}, {18, 33, 3, 992}, {19, 34, 1, 992}, {10, 35, 1, 993}, {11, 36, 3, 993}, {12, 37, 3, 993}, {13, 38, 3, 993}, {14, 39, 6, 993}, {15, 40, 3, 993}, {16, 41, 1, 993}, {17, 42, 3, 993}, {18, 43, 3, 993}, {19, 44, 1, 993}, {10, 36, 1, 994}, {11, 38, 3, 994}, {12, 39, 3, 994}, {13, 41, 3, 994}, {14, 42, 6, 994}, {15, 43, 3, 994}, {16, 45, 1, 994}, {17, 46, 3, 994}, {18, 47, 3, 994}, {19, 48, 1, 994}, {10, 37, 1, 995}, {11, 39, 3, 995}, {12, 40, 3, 995}, {13, 42, 3, 995}, {14, 43, 6, 995}, {15, 44, 3, 995}, {16, 46, 1, 995}, {17, 47, 3, 995}, {18, 48, 3, 995}, {19, 49, 1, 995}, {10, 38, 1, 996}, {11, 41, 3, 996}, {12, 42, 3, 996}, {13, 45, 3, 996}, {14, 46, 6, 996}, {15, 47, 3, 996}, {16, 50, 1, 996}, {17, 51, 3, 996}, {18, 52, 3, 996}, {19, 53, 1, 996}, {10, 39, 1, 997}, {11, 42, 3, 997}, {12, 43, 3, 997}, {13, 46, 3, 997}, {14, 47, 6, 997}, {15, 48, 3, 997}, {16, 51, 1, 997}, {17, 52, 3, 997}, {18, 53, 3, 997}, {19, 54, 1, 997}, {10, 40, 1, 998}, {11, 43, 3, 998}, {12, 44, 3, 998}, {13, 47, 3, 998}, {14, 48, 6, 998}, {15, 49, 3, 998}, {16, 52, 1, 998}, {17, 53, 3, 998}, {18, 54, 3, 998}, {19, 55, 1, 998}, {10, 56, 1, 999}, {11, 57, 3, 999}, {12, 58, 3, 999}, {13, 59, 3, 999}, {14, 60, 6, 999}, {15, 61, 3, 999}, {16, 62, 1, 999}, {17, 63, 3, 999}, {18, 64, 3, 999}, {19, 65, 1, 999}, {10, 57, 1, 1000}, {11, 59, 3, 1000}, {12, 60, 3, 1000}, {13, 62, 3, 1000}, {14, 63, 6, 1000}, {15, 64, 3, 1000}, {16, 66, 1, 1000}, {17, 67, 3, 1000}, {18, 68, 3, 1000}, {19, 69, 1, 1000}, {10, 58, 1, 1001}, {11, 60, 3, 1001}, {12, 61, 3, 1001}, {13, 63, 3, 1001}, {14, 64, 6, 1001}, {15, 65, 3, 1001}, {16, 67, 1, 1001}, {17, 68, 3, 1001}, {18, 69, 3, 1001}, {19, 70, 1, 1001}, {10, 59, 1, 1002}, {11, 62, 3, 1002}, {12, 63, 3, 1002}, {13, 66, 3, 1002}, {14, 67, 6, 1002}, {15, 68, 3, 1002}, {16, 71, 1, 1002}, {17, 72, 3, 1002}, {18, 73, 3, 1002}, {19, 74, 1, 1002}, {10, 60, 1, 1003}, {11, 63, 3, 1003}, {12, 64, 3, 1003}, {13, 67, 3, 1003}, {14, 68, 6, 1003}, {15, 69, 3, 1003}, {16, 72, 1, 1003}, {17, 73, 3, 1003}, {18, 74, 3, 1003}, {19, 75, 1, 1003}, {10, 61, 1, 1004}, {11, 64, 3, 1004}, {12, 65, 3, 1004}, {13, 68, 3, 1004}, {14, 69, 6, 1004}, {15, 70, 3, 1004}, {16, 73, 1, 1004}, {17, 74, 3, 1004}, {18, 75, 3, 1004}, {19, 76, 1, 1004}, {10, 62, 1, 1005}, {11, 66, 3, 1005}, {12, 67, 3, 1005}, {13, 71, 3, 1005}, {14, 72, 6, 1005}, {15, 73, 3, 1005}, {16, 77, 1, 1005}, {17, 78, 3, 1005}, {18, 79, 3, 1005}, {19, 80, 1, 1005}, {10, 63, 1, 1006}, {11, 67, 3, 1006}, {12, 68, 3, 1006}, {13, 72, 3, 1006}, {14, 73, 6, 1006}, {15, 74, 3, 1006}, {16, 78, 1, 1006}, {17, 79, 3, 1006}, {18, 80, 3, 1006}, {19, 81, 1, 1006}, {10, 64, 1, 1007}, {11, 68, 3, 1007}, {12, 69, 3, 1007}, {13, 73, 3, 1007}, {14, 74, 6, 1007}, {15, 75, 3, 1007}, {16, 79, 1, 1007}, {17, 80, 3, 1007}, {18, 81, 3, 1007}, {19, 82, 1, 1007}, {10, 65, 1, 1008}, {11, 69, 3, 1008}, {12, 70, 3, 1008}, {13, 74, 3, 1008}, {14, 75, 6, 1008}, {15, 76, 3, 1008}, {16, 80, 1, 1008}, {17, 81, 3, 1008}, {18, 82, 3, 1008}, {19, 83, 1, 1008}, {10, 84, 1, 1009}, {11, 85, 3, 1009}, {12, 86, 3, 1009}, {13, 87, 3, 1009}, {14, 88, 6, 1009}, {15, 89, 3, 1009}, {16, 90, 1, 1009}, {17, 91, 3, 1009}, {18, 92, 3, 1009}, {19, 93, 1, 1009}, {10, 85, 1, 1010}, {11, 87, 3, 1010}, {12, 88, 3, 1010}, {13, 90, 3, 1010}, {14, 91, 6, 1010}, {15, 92, 3, 1010}, {16, 94, 1, 1010}, {17, 95, 3, 1010}, {18, 96, 3, 1010}, {19, 97, 1, 1010}, {10, 86, 1, 1011}, {11, 88, 3, 1011}, {12, 89, 3, 1011}, {13, 91, 3, 1011}, {14, 92, 6, 1011}, {15, 93, 3, 1011}, {16, 95, 1, 1011}, {17, 96, 3, 1011}, {18, 97, 3, 1011}, {19, 98, 1, 1011}, {10, 87, 1, 1012}, {11, 90, 3, 1012}, {12, 91, 3, 1012}, {13, 94, 3, 1012}, {14, 95, 6, 1012}, {15, 96, 3, 1012}, {16, 99, 1, 1012}, {17, 100, 3, 1012}, {18, 101, 3, 1012}, {19, 102, 1, 1012}, {10, 88, 1, 1013}, {11, 91, 3, 1013}, {12, 92, 3, 1013}, {13, 95, 3, 1013}, {14, 96, 6, 1013}, {15, 97, 3, 1013}, {16, 100, 1, 1013}, {17, 101, 3, 1013}, {18, 102, 3, 1013}, {19, 103, 1, 1013}, {10, 89, 1, 1014}, {11, 92, 3, 1014}, {12, 93, 3, 1014}, {13, 96, 3, 1014}, {14, 97, 6, 1014}, {15, 98, 3, 1014}, {16, 101, 1, 1014}, {17, 102, 3, 1014}, {18, 103, 3, 1014}, {19, 104, 1, 1014}, {10, 90, 1, 1015}, {11, 94, 3, 1015}, {12, 95, 3, 1015}, {13, 99, 3, 1015}, {14, 100, 6, 1015}, {15, 101, 3, 1015}, {16, 105, 1, 1015}, {17, 106, 3, 1015}, {18, 107, 3, 1015}, {19, 108, 1, 1015}, {10, 91, 1, 1016}, {11, 95, 3, 1016}, {12, 96, 3, 1016}, {13, 100, 3, 1016}, {14, 101, 6, 1016}, {15, 102, 3, 1016}, {16, 106, 1, 1016}, {17, 107, 3, 1016}, {18, 108, 3, 1016}, {19, 109, 1, 1016}, {10, 92, 1, 1017}, {11, 96, 3, 1017}, {12, 97, 3, 1017}, {13, 101, 3, 1017}, {14, 102, 6, 1017}, {15, 103, 3, 1017}, {16, 107, 1, 1017}, {17, 108, 3, 1017}, {18, 109, 3, 1017}, {19, 110, 1, 1017}, {10, 93, 1, 1018}, {11, 97, 3, 1018}, {12, 98, 3, 1018}, {13, 102, 3, 1018}, {14, 103, 6, 1018}, {15, 104, 3, 1018}, {16, 108, 1, 1018}, {17, 109, 3, 1018}, {18, 110, 3, 1018}, {19, 111, 1, 1018}, {10, 94, 1, 1019}, {11, 99, 3, 1019}, {12, 100, 3, 1019}, {13, 105, 3, 1019}, {14, 106, 6, 1019}, {15, 107, 3, 1019}, {16, 112, 1, 1019}, {17, 113, 3, 1019}, {18, 114, 3, 1019}, {19, 115, 1, 1019}, {10, 95, 1, 1020}, {11, 100, 3, 1020}, {12, 101, 3, 1020}, {13, 106, 3, 1020}, {14, 107, 6, 1020}, {15, 108, 3, 1020}, {16, 113, 1, 1020}, {17, 114, 3, 1020}, {18, 115, 3, 1020}, {19, 116, 1, 1020}, {10, 96, 1, 1021}, {11, 101, 3, 1021}, {12, 102, 3, 1021}, {13, 107, 3, 1021}, {14, 108, 6, 1021}, {15, 109, 3, 1021}, {16, 114, 1, 1021}, {17, 115, 3, 1021}, {18, 116, 3, 1021}, {19, 117, 1, 1021}, {10, 97, 1, 1022}, {11, 102, 3, 1022}, {12, 103, 3, 1022}, {13, 108, 3, 1022}, {14, 109, 6, 1022}, {15, 110, 3, 1022}, {16, 115, 1, 1022}, {17, 116, 3, 1022}, {18, 117, 3, 1022}, {19, 118, 1, 1022}, {10, 98, 1, 1023}, {11, 103, 3, 1023}, {12, 104, 3, 1023}, {13, 109, 3, 1023}, {14, 110, 6, 1023}, {15, 111, 3, 1023}, {16, 116, 1, 1023}, {17, 117, 3, 1023}, {18, 118, 3, 1023}, {19, 119, 1, 1023}, {10, 120, 1, 1024}, {11, 121, 3, 1024}, {12, 122, 3, 1024}, {13, 123, 3, 1024}, {14, 124, 6, 1024}, {15, 125, 3, 1024}, {16, 126, 1, 1024}, {17, 127, 3, 1024}, {18, 128, 3, 1024}, {19, 129, 1, 1024}, {10, 121, 1, 1025}, {11, 123, 3, 1025}, {12, 124, 3, 1025}, {13, 126, 3, 1025}, {14, 127, 6, 1025}, {15, 128, 3, 1025}, {16, 130, 1, 1025}, {17, 131, 3, 1025}, {18, 132, 3, 1025}, {19, 133, 1, 1025}, {10, 122, 1, 1026}, {11, 124, 3, 1026}, {12, 125, 3, 1026}, {13, 127, 3, 1026}, {14, 128, 6, 1026}, {15, 129, 3, 1026}, {16, 131, 1, 1026}, {17, 132, 3, 1026}, {18, 133, 3, 1026}, {19, 134, 1, 1026}, {10, 123, 1, 1027}, {11, 126, 3, 1027}, {12, 127, 3, 1027}, {13, 130, 3, 1027}, {14, 131, 6, 1027}, {15, 132, 3, 1027}, {16, 135, 1, 1027}, {17, 136, 3, 1027}, {18, 137, 3, 1027}, {19, 138, 1, 1027}, {10, 124, 1, 1028}, {11, 127, 3, 1028}, {12, 128, 3, 1028}, {13, 131, 3, 1028}, {14, 132, 6, 1028}, {15, 133, 3, 1028}, {16, 136, 1, 1028}, {17, 137, 3, 1028}, {18, 138, 3, 1028}, {19, 139, 1, 1028}, {10, 125, 1, 1029}, {11, 128, 3, 1029}, {12, 129, 3, 1029}, {13, 132, 3, 1029}, {14, 133, 6, 1029}, {15, 134, 3, 1029}, {16, 137, 1, 1029}, {17, 138, 3, 1029}, {18, 139, 3, 1029}, {19, 140, 1, 1029}, {10, 126, 1, 1030}, {11, 130, 3, 1030}, {12, 131, 3, 1030}, {13, 135, 3, 1030}, {14, 136, 6, 1030}, {15, 137, 3, 1030}, {16, 141, 1, 1030}, {17, 142, 3, 1030}, {18, 143, 3, 1030}, {19, 144, 1, 1030}, {10, 127, 1, 1031}, {11, 131, 3, 1031}, {12, 132, 3, 1031}, {13, 136, 3, 1031}, {14, 137, 6, 1031}, {15, 138, 3, 1031}, {16, 142, 1, 1031}, {17, 143, 3, 1031}, {18, 144, 3, 1031}, {19, 145, 1, 1031}, {10, 128, 1, 1032}, {11, 132, 3, 1032}, {12, 133, 3, 1032}, {13, 137, 3, 1032}, {14, 138, 6, 1032}, {15, 139, 3, 1032}, {16, 143, 1, 1032}, {17, 144, 3, 1032}, {18, 145, 3, 1032}, {19, 146, 1, 1032}, {10, 129, 1, 1033}, {11, 133, 3, 1033}, {12, 134, 3, 1033}, {13, 138, 3, 1033}, {14, 139, 6, 1033}, {15, 140, 3, 1033}, {16, 144, 1, 1033}, {17, 145, 3, 1033}, {18, 146, 3, 1033}, {19, 147, 1, 1033}, {10, 130, 1, 1034}, {11, 135, 3, 1034}, {12, 136, 3, 1034}, {13, 141, 3, 1034}, {14, 142, 6, 1034}, {15, 143, 3, 1034}, {16, 148, 1, 1034}, {17, 149, 3, 1034}, {18, 150, 3, 1034}, {19, 151, 1, 1034}, {10, 131, 1, 1035}, {11, 136, 3, 1035}, {12, 137, 3, 1035}, {13, 142, 3, 1035}, {14, 143, 6, 1035}, {15, 144, 3, 1035}, {16, 149, 1, 1035}, {17, 150, 3, 1035}, {18, 151, 3, 1035}, {19, 152, 1, 1035}, {10, 132, 1, 1036}, {11, 137, 3, 1036}, {12, 138, 3, 1036}, {13, 143, 3, 1036}, {14, 144, 6, 1036}, {15, 145, 3, 1036}, {16, 150, 1, 1036}, {17, 151, 3, 1036}, {18, 152, 3, 1036}, {19, 153, 1, 1036}, {10, 133, 1, 1037}, {11, 138, 3, 1037}, {12, 139, 3, 1037}, {13, 144, 3, 1037}, {14, 145, 6, 1037}, {15, 146, 3, 1037}, {16, 151, 1, 1037}, {17, 152, 3, 1037}, {18, 153, 3, 1037}, {19, 154, 1, 1037}, {10, 134, 1, 1038}, {11, 139, 3, 1038}, {12, 140, 3, 1038}, {13, 145, 3, 1038}, {14, 146, 6, 1038}, {15, 147, 3, 1038}, {16, 152, 1, 1038}, {17, 153, 3, 1038}, {18, 154, 3, 1038}, {19, 155, 1, 1038}, {10, 135, 1, 1039}, {11, 141, 3, 1039}, {12, 142, 3, 1039}, {13, 148, 3, 1039}, {14, 149, 6, 1039}, {15, 150, 3, 1039}, {16, 156, 1, 1039}, {17, 157, 3, 1039}, {18, 158, 3, 1039}, {19, 159, 1, 1039}, {10, 136, 1, 1040}, {11, 142, 3, 1040}, {12, 143, 3, 1040}, {13, 149, 3, 1040}, {14, 150, 6, 1040}, {15, 151, 3, 1040}, {16, 157, 1, 1040}, {17, 158, 3, 1040}, {18, 159, 3, 1040}, {19, 160, 1, 1040}, {10, 137, 1, 1041}, {11, 143, 3, 1041}, {12, 144, 3, 1041}, {13, 150, 3, 1041}, {14, 151, 6, 1041}, {15, 152, 3, 1041}, {16, 158, 1, 1041}, {17, 159, 3, 1041}, {18, 160, 3, 1041}, {19, 161, 1, 1041}, {10, 138, 1, 1042}, {11, 144, 3, 1042}, {12, 145, 3, 1042}, {13, 151, 3, 1042}, {14, 152, 6, 1042}, {15, 153, 3, 1042}, {16, 159, 1, 1042}, {17, 160, 3, 1042}, {18, 161, 3, 1042}, {19, 162, 1, 1042}, {10, 139, 1, 1043}, {11, 145, 3, 1043}, {12, 146, 3, 1043}, {13, 152, 3, 1043}, {14, 153, 6, 1043}, {15, 154, 3, 1043}, {16, 160, 1, 1043}, {17, 161, 3, 1043}, {18, 162, 3, 1043}, {19, 163, 1, 1043}, {10, 140, 1, 1044}, {11, 146, 3, 1044}, {12, 147, 3, 1044}, {13, 153, 3, 1044}, {14, 154, 6, 1044}, {15, 155, 3, 1044}, {16, 161, 1, 1044}, {17, 162, 3, 1044}, {18, 163, 3, 1044}, {19, 164, 1, 1044}, {10, 165, 1, 1045}, {11, 166, 3, 1045}, {12, 167, 3, 1045}, {13, 168, 3, 1045}, {14, 169, 6, 1045}, {15, 170, 3, 1045}, {16, 171, 1, 1045}, {17, 172, 3, 1045}, {18, 173, 3, 1045}, {19, 174, 1, 1045}, {10, 166, 1, 1046}, {11, 168, 3, 1046}, {12, 169, 3, 1046}, {13, 171, 3, 1046}, {14, 172, 6, 1046}, {15, 173, 3, 1046}, {16, 175, 1, 1046}, {17, 176, 3, 1046}, {18, 177, 3, 1046}, {19, 178, 1, 1046}, {10, 167, 1, 1047}, {11, 169, 3, 1047}, {12, 170, 3, 1047}, {13, 172, 3, 1047}, {14, 173, 6, 1047}, {15, 174, 3, 1047}, {16, 176, 1, 1047}, {17, 177, 3, 1047}, {18, 178, 3, 1047}, {19, 179, 1, 1047}, {10, 168, 1, 1048}, {11, 171, 3, 1048}, {12, 172, 3, 1048}, {13, 175, 3, 1048}, {14, 176, 6, 1048}, {15, 177, 3, 1048}, {16, 180, 1, 1048}, {17, 181, 3, 1048}, {18, 182, 3, 1048}, {19, 183, 1, 1048}, {10, 169, 1, 1049}, {11, 172, 3, 1049}, {12, 173, 3, 1049}, {13, 176, 3, 1049}, {14, 177, 6, 1049}, {15, 178, 3, 1049}, {16, 181, 1, 1049}, {17, 182, 3, 1049}, {18, 183, 3, 1049}, {19, 184, 1, 1049}, {10, 170, 1, 1050}, {11, 173, 3, 1050}, {12, 174, 3, 1050}, {13, 177, 3, 1050}, {14, 178, 6, 1050}, {15, 179, 3, 1050}, {16, 182, 1, 1050}, {17, 183, 3, 1050}, {18, 184, 3, 1050}, {19, 185, 1, 1050}, {10, 171, 1, 1051}, {11, 175, 3, 1051}, {12, 176, 3, 1051}, {13, 180, 3, 1051}, {14, 181, 6, 1051}, {15, 182, 3, 1051}, {16, 186, 1, 1051}, {17, 187, 3, 1051}, {18, 188, 3, 1051}, {19, 189, 1, 1051}, {10, 172, 1, 1052}, {11, 176, 3, 1052}, {12, 177, 3, 1052}, {13, 181, 3, 1052}, {14, 182, 6, 1052}, {15, 183, 3, 1052}, {16, 187, 1, 1052}, {17, 188, 3, 1052}, {18, 189, 3, 1052}, {19, 190, 1, 1052}, {10, 173, 1, 1053}, {11, 177, 3, 1053}, {12, 178, 3, 1053}, {13, 182, 3, 1053}, {14, 183, 6, 1053}, {15, 184, 3, 1053}, {16, 188, 1, 1053}, {17, 189, 3, 1053}, {18, 190, 3, 1053}, {19, 191, 1, 1053}, {10, 174, 1, 1054}, {11, 178, 3, 1054}, {12, 179, 3, 1054}, {13, 183, 3, 1054}, {14, 184, 6, 1054}, {15, 185, 3, 1054}, {16, 189, 1, 1054}, {17, 190, 3, 1054}, {18, 191, 3, 1054}, {19, 192, 1, 1054}, {10, 175, 1, 1055}, {11, 180, 3, 1055}, {12, 181, 3, 1055}, {13, 186, 3, 1055}, {14, 187, 6, 1055}, {15, 188, 3, 1055}, {16, 193, 1, 1055}, {17, 194, 3, 1055}, {18, 195, 3, 1055}, {19, 196, 1, 1055}, {10, 176, 1, 1056}, {11, 181, 3, 1056}, {12, 182, 3, 1056}, {13, 187, 3, 1056}, {14, 188, 6, 1056}, {15, 189, 3, 1056}, {16, 194, 1, 1056}, {17, 195, 3, 1056}, {18, 196, 3, 1056}, {19, 197, 1, 1056}, {10, 177, 1, 1057}, {11, 182, 3, 1057}, {12, 183, 3, 1057}, {13, 188, 3, 1057}, {14, 189, 6, 1057}, {15, 190, 3, 1057}, {16, 195, 1, 1057}, {17, 196, 3, 1057}, {18, 197, 3, 1057}, {19, 198, 1, 1057}, {10, 178, 1, 1058}, {11, 183, 3, 1058}, {12, 184, 3, 1058}, {13, 189, 3, 1058}, {14, 190, 6, 1058}, {15, 191, 3, 1058}, {16, 196, 1, 1058}, {17, 197, 3, 1058}, {18, 198, 3, 1058}, {19, 199, 1, 1058}, {10, 179, 1, 1059}, {11, 184, 3, 1059}, {12, 185, 3, 1059}, {13, 190, 3, 1059}, {14, 191, 6, 1059}, {15, 192, 3, 1059}, {16, 197, 1, 1059}, {17, 198, 3, 1059}, {18, 199, 3, 1059}, {19, 200, 1, 1059}, {10, 180, 1, 1060}, {11, 186, 3, 1060}, {12, 187, 3, 1060}, {13, 193, 3, 1060}, {14, 194, 6, 1060}, {15, 195, 3, 1060}, {16, 201, 1, 1060}, {17, 202, 3, 1060}, {18, 203, 3, 1060}, {19, 204, 1, 1060}, {10, 181, 1, 1061}, {11, 187, 3, 1061}, {12, 188, 3, 1061}, {13, 194, 3, 1061}, {14, 195, 6, 1061}, {15, 196, 3, 1061}, {16, 202, 1, 1061}, {17, 203, 3, 1061}, {18, 204, 3, 1061}, {19, 205, 1, 1061}, {10, 182, 1, 1062}, {11, 188, 3, 1062}, {12, 189, 3, 1062}, {13, 195, 3, 1062}, {14, 196, 6, 1062}, {15, 197, 3, 1062}, {16, 203, 1, 1062}, {17, 204, 3, 1062}, {18, 205, 3, 1062}, {19, 206, 1, 1062}, {10, 183, 1, 1063}, {11, 189, 3, 1063}, {12, 190, 3, 1063}, {13, 196, 3, 1063}, {14, 197, 6, 1063}, {15, 198, 3, 1063}, {16, 204, 1, 1063}, {17, 205, 3, 1063}, {18, 206, 3, 1063}, {19, 207, 1, 1063}, {10, 184, 1, 1064}, {11, 190, 3, 1064}, {12, 191, 3, 1064}, {13, 197, 3, 1064}, {14, 198, 6, 1064}, {15, 199, 3, 1064}, {16, 205, 1, 1064}, {17, 206, 3, 1064}, {18, 207, 3, 1064}, {19, 208, 1, 1064}, {10, 185, 1, 1065}, {11, 191, 3, 1065}, {12, 192, 3, 1065}, {13, 198, 3, 1065}, {14, 199, 6, 1065}, {15, 200, 3, 1065}, {16, 206, 1, 1065}, {17, 207, 3, 1065}, {18, 208, 3, 1065}, {19, 209, 1, 1065}, {10, 186, 1, 1066}, {11, 193, 3, 1066}, {12, 194, 3, 1066}, {13, 201, 3, 1066}, {14, 202, 6, 1066}, {15, 203, 3, 1066}, {16, 210, 1, 1066}, {17, 211, 3, 1066}, {18, 212, 3, 1066}, {19, 213, 1, 1066}, {10, 187, 1, 1067}, {11, 194, 3, 1067}, {12, 195, 3, 1067}, {13, 202, 3, 1067}, {14, 203, 6, 1067}, {15, 204, 3, 1067}, {16, 211, 1, 1067}, {17, 212, 3, 1067}, {18, 213, 3, 1067}, {19, 214, 1, 1067}, {10, 188, 1, 1068}, {11, 195, 3, 1068}, {12, 196, 3, 1068}, {13, 203, 3, 1068}, {14, 204, 6, 1068}, {15, 205, 3, 1068}, {16, 212, 1, 1068}, {17, 213, 3, 1068}, {18, 214, 3, 1068}, {19, 215, 1, 1068}, {10, 189, 1, 1069}, {11, 196, 3, 1069}, {12, 197, 3, 1069}, {13, 204, 3, 1069}, {14, 205, 6, 1069}, {15, 206, 3, 1069}, {16, 213, 1, 1069}, {17, 214, 3, 1069}, {18, 215, 3, 1069}, {19, 216, 1, 1069}, {10, 190, 1, 1070}, {11, 197, 3, 1070}, {12, 198, 3, 1070}, {13, 205, 3, 1070}, {14, 206, 6, 1070}, {15, 207, 3, 1070}, {16, 214, 1, 1070}, {17, 215, 3, 1070}, {18, 216, 3, 1070}, {19, 217, 1, 1070}, {10, 191, 1, 1071}, {11, 198, 3, 1071}, {12, 199, 3, 1071}, {13, 206, 3, 1071}, {14, 207, 6, 1071}, {15, 208, 3, 1071}, {16, 215, 1, 1071}, {17, 216, 3, 1071}, {18, 217, 3, 1071}, {19, 218, 1, 1071}, {10, 192, 1, 1072}, {11, 199, 3, 1072}, {12, 200, 3, 1072}, {13, 207, 3, 1072}, {14, 208, 6, 1072}, {15, 209, 3, 1072}, {16, 216, 1, 1072}, {17, 217, 3, 1072}, {18, 218, 3, 1072}, {19, 219, 1, 1072}, {20, 20, 1, 1073}, {21, 21, 2, 1073}, {22, 22, 2, 1073}, {23, 23, 1, 1073}, {24, 24, 2, 1073}, {25, 25, 1, 1073}, {20, 21, 1, 1074}, {21, 23, 2, 1074}, {22, 24, 2, 1074}, {23, 26, 1, 1074}, {24, 27, 2, 1074}, {25, 28, 1, 1074}, {20, 22, 1, 1075}, {21, 24, 2, 1075}, {22, 25, 2, 1075}, {23, 27, 1, 1075}, {24, 28, 2, 1075}, {25, 29, 1, 1075}, {20, 23, 1, 1076}, {21, 26, 2, 1076}, {22, 27, 2, 1076}, {23, 30, 1, 1076}, {24, 31, 2, 1076}, {25, 32, 1, 1076}, {20, 24, 1, 1077}, {21, 27, 2, 1077}, {22, 28, 2, 1077}, {23, 31, 1, 1077}, {24, 32, 2, 1077}, {25, 33, 1, 1077}, {20, 25, 1, 1078}, {21, 28, 2, 1078}, {22, 29, 2, 1078}, {23, 32, 1, 1078}, {24, 33, 2, 1078}, {25, 34, 1, 1078}, {21, 21, 1, 1079}, {23, 23, 2, 1079}, {24, 24, 2, 1079}, {26, 26, 1, 1079}, {27, 27, 2, 1079}, {28, 28, 1, 1079}, {21, 22, 1, 1080}, {23, 24, 2, 1080}, {24, 25, 2, 1080}, {26, 27, 1, 1080}, {27, 28, 2, 1080}, {28, 29, 1, 1080}, {21, 23, 1, 1081}, {23, 26, 2, 1081}, {24, 27, 2, 1081}, {26, 30, 1, 1081}, {27, 31, 2, 1081}, {28, 32, 1, 1081}, {21, 24, 1, 1082}, {23, 27, 2, 1082}, {24, 28, 2, 1082}, {26, 31, 1, 1082}, {27, 32, 2, 1082}, {28, 33, 1, 1082}, {21, 25, 1, 1083}, {23, 28, 2, 1083}, {24, 29, 2, 1083}, {26, 32, 1, 1083}, {27, 33, 2, 1083}, {28, 34, 1, 1083}, {22, 22, 1, 1084}, {24, 24, 2, 1084}, {25, 25, 2, 1084}, {27, 27, 1, 1084}, {28, 28, 2, 1084}, {29, 29, 1, 1084}, {22, 23, 1, 1085}, {24, 26, 2, 1085}, {25, 27, 2, 1085}, {27, 30, 1, 1085}, {28, 31, 2, 1085}, {29, 32, 1, 1085}, {22, 24, 1, 1086}, {24, 27, 2, 1086}, {25, 28, 2, 1086}, {27, 31, 1, 1086}, {28, 32, 2, 1086}, {29, 33, 1, 1086}, {22, 25, 1, 1087}, {24, 28, 2, 1087}, {25, 29, 2, 1087}, {27, 32, 1, 1087}, {28, 33, 2, 1087}, {29, 34, 1, 1087}, {23, 23, 1, 1088}, {26, 26, 2, 1088}, {27, 27, 2, 1088}, {30, 30, 1, 1088}, {31, 31, 2, 1088}, {32, 32, 1, 1088}, {23, 24, 1, 1089}, {26, 27, 2, 1089}, {27, 28, 2, 1089}, {30, 31, 1, 1089}, {31, 32, 2, 1089}, {32, 33, 1, 1089}, {23, 25, 1, 1090}, {26, 28, 2, 1090}, {27, 29, 2, 1090}, {30, 32, 1, 1090}, {31, 33, 2, 1090}, {32, 34, 1, 1090}, {24, 24, 1, 1091}, {27, 27, 2, 1091}, {28, 28, 2, 1091}, {31, 31, 1, 1091}, {32, 32, 2, 1091}, {33, 33, 1, 1091}, {24, 25, 1, 1092}, {27, 28, 2, 1092}, {28, 29, 2, 1092}, {31, 32, 1, 1092}, {32, 33, 2, 1092}, {33, 34, 1, 1092}, {25, 25, 1, 1093}, {28, 28, 2, 1093}, {29, 29, 2, 1093}, {32, 32, 1, 1093}, {33, 33, 2, 1093}, {34, 34, 1, 1093}, {20, 35, 1, 1094}, {21, 36, 2, 1094}, {22, 37, 2, 1094}, {23, 38, 1, 1094}, {24, 39, 2, 1094}, {25, 40, 1, 1094}, {20, 36, 1, 1095}, {21, 38, 2, 1095}, {22, 39, 2, 1095}, {23, 41, 1, 1095}, {24, 42, 2, 1095}, {25, 43, 1, 1095}, {20, 37, 1, 1096}, {21, 39, 2, 1096}, {22, 40, 2, 1096}, {23, 42, 1, 1096}, {24, 43, 2, 1096}, {25, 44, 1, 1096}, {20, 38, 1, 1097}, {21, 41, 2, 1097}, {22, 42, 2, 1097}, {23, 45, 1, 1097}, {24, 46, 2, 1097}, {25, 47, 1, 1097}, {20, 39, 1, 1098}, {21, 42, 2, 1098}, {22, 43, 2, 1098}, {23, 46, 1, 1098}, {24, 47, 2, 1098}, {25, 48, 1, 1098}, {20, 40, 1, 1099}, {21, 43, 2, 1099}, {22, 44, 2, 1099}, {23, 47, 1, 1099}, {24, 48, 2, 1099}, {25, 49, 1, 1099}, {20, 41, 1, 1100}, {21, 45, 2, 1100}, {22, 46, 2, 1100}, {23, 50, 1, 1100}, {24, 51, 2, 1100}, {25, 52, 1, 1100}, {20, 42, 1, 1101}, {21, 46, 2, 1101}, {22, 47, 2, 1101}, {23, 51, 1, 1101}, {24, 52, 2, 1101}, {25, 53, 1, 1101}, {20, 43, 1, 1102}, {21, 47, 2, 1102}, {22, 48, 2, 1102}, {23, 52, 1, 1102}, {24, 53, 2, 1102}, {25, 54, 1, 1102}, {20, 44, 1, 1103}, {21, 48, 2, 1103}, {22, 49, 2, 1103}, {23, 53, 1, 1103}, {24, 54, 2, 1103}, {25, 55, 1, 1103}, {21, 35, 1, 1104}, {23, 36, 2, 1104}, {24, 37, 2, 1104}, {26, 38, 1, 1104}, {27, 39, 2, 1104}, {28, 40, 1, 1104}, {21, 36, 1, 1105}, {23, 38, 2, 1105}, {24, 39, 2, 1105}, {26, 41, 1, 1105}, {27, 42, 2, 1105}, {28, 43, 1, 1105}, {21, 37, 1, 1106}, {23, 39, 2, 1106}, {24, 40, 2, 1106}, {26, 42, 1, 1106}, {27, 43, 2, 1106}, {28, 44, 1, 1106}, {21, 38, 1, 1107}, {23, 41, 2, 1107}, {24, 42, 2, 1107}, {26, 45, 1, 1107}, {27, 46, 2, 1107}, {28, 47, 1, 1107}, {21, 39, 1, 1108}, {23, 42, 2, 1108}, {24, 43, 2, 1108}, {26, 46, 1, 1108}, {27, 47, 2, 1108}, {28, 48, 1, 1108}, {21, 40, 1, 1109}, {23, 43, 2, 1109}, {24, 44, 2, 1109}, {26, 47, 1, 1109}, {27, 48, 2, 1109}, {28, 49, 1, 1109}, {21, 41, 1, 1110}, {23, 45, 2, 1110}, {24, 46, 2, 1110}, {26, 50, 1, 1110}, {27, 51, 2, 1110}, {28, 52, 1, 1110}, {21, 42, 1, 1111}, {23, 46, 2, 1111}, {24, 47, 2, 1111}, {26, 51, 1, 1111}, {27, 52, 2, 1111}, {28, 53, 1, 1111}, {21, 43, 1, 1112}, {23, 47, 2, 1112}, {24, 48, 2, 1112}, {26, 52, 1, 1112}, {27, 53, 2, 1112}, {28, 54, 1, 1112}, {21, 44, 1, 1113}, {23, 48, 2, 1113}, {24, 49, 2, 1113}, {26, 53, 1, 1113}, {27, 54, 2, 1113}, {28, 55, 1, 1113}, {22, 35, 1, 1114}, {24, 36, 2, 1114}, {25, 37, 2, 1114}, {27, 38, 1, 1114}, {28, 39, 2, 1114}, {29, 40, 1, 1114}, {22, 36, 1, 1115}, {24, 38, 2, 1115}, {25, 39, 2, 1115}, {27, 41, 1, 1115}, {28, 42, 2, 1115}, {29, 43, 1, 1115}, {22, 37, 1, 1116}, {24, 39, 2, 1116}, {25, 40, 2, 1116}, {27, 42, 1, 1116}, {28, 43, 2, 1116}, {29, 44, 1, 1116}, {22, 38, 1, 1117}, {24, 41, 2, 1117}, {25, 42, 2, 1117}, {27, 45, 1, 1117}, {28, 46, 2, 1117}, {29, 47, 1, 1117}, {22, 39, 1, 1118}, {24, 42, 2, 1118}, {25, 43, 2, 1118}, {27, 46, 1, 1118}, {28, 47, 2, 1118}, {29, 48, 1, 1118}, {22, 40, 1, 1119}, {24, 43, 2, 1119}, {25, 44, 2, 1119}, {27, 47, 1, 1119}, {28, 48, 2, 1119}, {29, 49, 1, 1119}, {22, 41, 1, 1120}, {24, 45, 2, 1120}, {25, 46, 2, 1120}, {27, 50, 1, 1120}, {28, 51, 2, 1120}, {29, 52, 1, 1120}, {22, 42, 1, 1121}, {24, 46, 2, 1121}, {25, 47, 2, 1121}, {27, 51, 1, 1121}, {28, 52, 2, 1121}, {29, 53, 1, 1121}, {22, 43, 1, 1122}, {24, 47, 2, 1122}, {25, 48, 2, 1122}, {27, 52, 1, 1122}, {28, 53, 2, 1122}, {29, 54, 1, 1122}, {22, 44, 1, 1123}, {24, 48, 2, 1123}, {25, 49, 2, 1123}, {27, 53, 1, 1123}, {28, 54, 2, 1123}, {29, 55, 1, 1123}, {23, 35, 1, 1124}, {26, 36, 2, 1124}, {27, 37, 2, 1124}, {30, 38, 1, 1124}, {31, 39, 2, 1124}, {32, 40, 1, 1124}, {23, 36, 1, 1125}, {26, 38, 2, 1125}, {27, 39, 2, 1125}, {30, 41, 1, 1125}, {31, 42, 2, 1125}, {32, 43, 1, 1125}, {23, 37, 1, 1126}, {26, 39, 2, 1126}, {27, 40, 2, 1126}, {30, 42, 1, 1126}, {31, 43, 2, 1126}, {32, 44, 1, 1126}, {23, 38, 1, 1127}, {26, 41, 2, 1127}, {27, 42, 2, 1127}, {30, 45, 1, 1127}, {31, 46, 2, 1127}, {32, 47, 1, 1127}, {23, 39, 1, 1128}, {26, 42, 2, 1128}, {27, 43, 2, 1128}, {30, 46, 1, 1128}, {31, 47, 2, 1128}, {32, 48, 1, 1128}, {23, 40, 1, 1129}, {26, 43, 2, 1129}, {27, 44, 2, 1129}, {30, 47, 1, 1129}, {31, 48, 2, 1129}, {32, 49, 1, 1129}, {23, 41, 1, 1130}, {26, 45, 2, 1130}, {27, 46, 2, 1130}, {30, 50, 1, 1130}, {31, 51, 2, 1130}, {32, 52, 1, 1130}, {23, 42, 1, 1131}, {26, 46, 2, 1131}, {27, 47, 2, 1131}, {30, 51, 1, 1131}, {31, 52, 2, 1131}, {32, 53, 1, 1131}, {23, 43, 1, 1132}, {26, 47, 2, 1132}, {27, 48, 2, 1132}, {30, 52, 1, 1132}, {31, 53, 2, 1132}, {32, 54, 1, 1132}, {23, 44, 1, 1133}, {26, 48, 2, 1133}, {27, 49, 2, 1133}, {30, 53, 1, 1133}, {31, 54, 2, 1133}, {32, 55, 1, 1133}, {24, 35, 1, 1134}, {27, 36, 2, 1134}, {28, 37, 2, 1134}, {31, 38, 1, 1134}, {32, 39, 2, 1134}, {33, 40, 1, 1134}, {24, 36, 1, 1135}, {27, 38, 2, 1135}, {28, 39, 2, 1135}, {31, 41, 1, 1135}, {32, 42, 2, 1135}, {33, 43, 1, 1135}, {24, 37, 1, 1136}, {27, 39, 2, 1136}, {28, 40, 2, 1136}, {31, 42, 1, 1136}, {32, 43, 2, 1136}, {33, 44, 1, 1136}, {24, 38, 1, 1137}, {27, 41, 2, 1137}, {28, 42, 2, 1137}, {31, 45, 1, 1137}, {32, 46, 2, 1137}, {33, 47, 1, 1137}, {24, 39, 1, 1138}, {27, 42, 2, 1138}, {28, 43, 2, 1138}, {31, 46, 1, 1138}, {32, 47, 2, 1138}, {33, 48, 1, 1138}, {24, 40, 1, 1139}, {27, 43, 2, 1139}, {28, 44, 2, 1139}, {31, 47, 1, 1139}, {32, 48, 2, 1139}, {33, 49, 1, 1139}, {24, 41, 1, 1140}, {27, 45, 2, 1140}, {28, 46, 2, 1140}, {31, 50, 1, 1140}, {32, 51, 2, 1140}, {33, 52, 1, 1140}, {24, 42, 1, 1141}, {27, 46, 2, 1141}, {28, 47, 2, 1141}, {31, 51, 1, 1141}, {32, 52, 2, 1141}, {33, 53, 1, 1141}, {24, 43, 1, 1142}, {27, 47, 2, 1142}, {28, 48, 2, 1142}, {31, 52, 1, 1142}, {32, 53, 2, 1142}, {33, 54, 1, 1142}, {24, 44, 1, 1143}, {27, 48, 2, 1143}, {28, 49, 2, 1143}, {31, 53, 1, 1143}, {32, 54, 2, 1143}, {33, 55, 1, 1143}, {25, 35, 1, 1144}, {28, 36, 2, 1144}, {29, 37, 2, 1144}, {32, 38, 1, 1144}, {33, 39, 2, 1144}, {34, 40, 1, 1144}, {25, 36, 1, 1145}, {28, 38, 2, 1145}, {29, 39, 2, 1145}, {32, 41, 1, 1145}, {33, 42, 2, 1145}, {34, 43, 1, 1145}, {25, 37, 1, 1146}, {28, 39, 2, 1146}, {29, 40, 2, 1146}, {32, 42, 1, 1146}, {33, 43, 2, 1146}, {34, 44, 1, 1146}, {25, 38, 1, 1147}, {28, 41, 2, 1147}, {29, 42, 2, 1147}, {32, 45, 1, 1147}, {33, 46, 2, 1147}, {34, 47, 1, 1147}, {25, 39, 1, 1148}, {28, 42, 2, 1148}, {29, 43, 2, 1148}, {32, 46, 1, 1148}, {33, 47, 2, 1148}, {34, 48, 1, 1148}, {25, 40, 1, 1149}, {28, 43, 2, 1149}, {29, 44, 2, 1149}, {32, 47, 1, 1149}, {33, 48, 2, 1149}, {34, 49, 1, 1149}, {25, 41, 1, 1150}, {28, 45, 2, 1150}, {29, 46, 2, 1150}, {32, 50, 1, 1150}, {33, 51, 2, 1150}, {34, 52, 1, 1150}, {25, 42, 1, 1151}, {28, 46, 2, 1151}, {29, 47, 2, 1151}, {32, 51, 1, 1151}, {33, 52, 2, 1151}, {34, 53, 1, 1151}, {25, 43, 1, 1152}, {28, 47, 2, 1152}, {29, 48, 2, 1152}, {32, 52, 1, 1152}, {33, 53, 2, 1152}, {34, 54, 1, 1152}, {25, 44, 1, 1153}, {28, 48, 2, 1153}, {29, 49, 2, 1153}, {32, 53, 1, 1153}, {33, 54, 2, 1153}, {34, 55, 1, 1153}, {20, 56, 1, 1154}, {21, 57, 2, 1154}, {22, 58, 2, 1154}, {23, 59, 1, 1154}, {24, 60, 2, 1154}, {25, 61, 1, 1154}, {20, 57, 1, 1155}, {21, 59, 2, 1155}, {22, 60, 2, 1155}, {23, 62, 1, 1155}, {24, 63, 2, 1155}, {25, 64, 1, 1155}, {20, 58, 1, 1156}, {21, 60, 2, 1156}, {22, 61, 2, 1156}, {23, 63, 1, 1156}, {24, 64, 2, 1156}, {25, 65, 1, 1156}, {20, 59, 1, 1157}, {21, 62, 2, 1157}, {22, 63, 2, 1157}, {23, 66, 1, 1157}, {24, 67, 2, 1157}, {25, 68, 1, 1157}, {20, 60, 1, 1158}, {21, 63, 2, 1158}, {22, 64, 2, 1158}, {23, 67, 1, 1158}, {24, 68, 2, 1158}, {25, 69, 1, 1158}, {20, 61, 1, 1159}, {21, 64, 2, 1159}, {22, 65, 2, 1159}, {23, 68, 1, 1159}, {24, 69, 2, 1159}, {25, 70, 1, 1159}, {20, 62, 1, 1160}, {21, 66, 2, 1160}, {22, 67, 2, 1160}, {23, 71, 1, 1160}, {24, 72, 2, 1160}, {25, 73, 1, 1160}, {20, 63, 1, 1161}, {21, 67, 2, 1161}, {22, 68, 2, 1161}, {23, 72, 1, 1161}, {24, 73, 2, 1161}, {25, 74, 1, 1161}, {20, 64, 1, 1162}, {21, 68, 2, 1162}, {22, 69, 2, 1162}, {23, 73, 1, 1162}, {24, 74, 2, 1162}, {25, 75, 1, 1162}, {20, 65, 1, 1163}, {21, 69, 2, 1163}, {22, 70, 2, 1163}, {23, 74, 1, 1163}, {24, 75, 2, 1163}, {25, 76, 1, 1163}, {20, 66, 1, 1164}, {21, 71, 2, 1164}, {22, 72, 2, 1164}, {23, 77, 1, 1164}, {24, 78, 2, 1164}, {25, 79, 1, 1164}, {20, 67, 1, 1165}, {21, 72, 2, 1165}, {22, 73, 2, 1165}, {23, 78, 1, 1165}, {24, 79, 2, 1165}, {25, 80, 1, 1165}, {20, 68, 1, 1166}, {21, 73, 2, 1166}, {22, 74, 2, 1166}, {23, 79, 1, 1166}, {24, 80, 2, 1166}, {25, 81, 1, 1166}, {20, 69, 1, 1167}, {21, 74, 2, 1167}, {22, 75, 2, 1167}, {23, 80, 1, 1167}, {24, 81, 2, 1167}, {25, 82, 1, 1167}, {20, 70, 1, 1168}, {21, 75, 2, 1168}, {22, 76, 2, 1168}, {23, 81, 1, 1168}, {24, 82, 2, 1168}, {25, 83, 1, 1168}, {21, 56, 1, 1169}, {23, 57, 2, 1169}, {24, 58, 2, 1169}, {26, 59, 1, 1169}, {27, 60, 2, 1169}, {28, 61, 1, 1169}, {21, 57, 1, 1170}, {23, 59, 2, 1170}, {24, 60, 2, 1170}, {26, 62, 1, 1170}, {27, 63, 2, 1170}, {28, 64, 1, 1170}, {21, 58, 1, 1171}, {23, 60, 2, 1171}, {24, 61, 2, 1171}, {26, 63, 1, 1171}, {27, 64, 2, 1171}, {28, 65, 1, 1171}, {21, 59, 1, 1172}, {23, 62, 2, 1172}, {24, 63, 2, 1172}, {26, 66, 1, 1172}, {27, 67, 2, 1172}, {28, 68, 1, 1172}, {21, 60, 1, 1173}, {23, 63, 2, 1173}, {24, 64, 2, 1173}, {26, 67, 1, 1173}, {27, 68, 2, 1173}, {28, 69, 1, 1173}, {21, 61, 1, 1174}, {23, 64, 2, 1174}, {24, 65, 2, 1174}, {26, 68, 1, 1174}, {27, 69, 2, 1174}, {28, 70, 1, 1174}, {21, 62, 1, 1175}, {23, 66, 2, 1175}, {24, 67, 2, 1175}, {26, 71, 1, 1175}, {27, 72, 2, 1175}, {28, 73, 1, 1175}, {21, 63, 1, 1176}, {23, 67, 2, 1176}, {24, 68, 2, 1176}, {26, 72, 1, 1176}, {27, 73, 2, 1176}, {28, 74, 1, 1176}, {21, 64, 1, 1177}, {23, 68, 2, 1177}, {24, 69, 2, 1177}, {26, 73, 1, 1177}, {27, 74, 2, 1177}, {28, 75, 1, 1177}, {21, 65, 1, 1178}, {23, 69, 2, 1178}, {24, 70, 2, 1178}, {26, 74, 1, 1178}, {27, 75, 2, 1178}, {28, 76, 1, 1178}, {21, 66, 1, 1179}, {23, 71, 2, 1179}, {24, 72, 2, 1179}, {26, 77, 1, 1179}, {27, 78, 2, 1179}, {28, 79, 1, 1179}, {21, 67, 1, 1180}, {23, 72, 2, 1180}, {24, 73, 2, 1180}, {26, 78, 1, 1180}, {27, 79, 2, 1180}, {28, 80, 1, 1180}, {21, 68, 1, 1181}, {23, 73, 2, 1181}, {24, 74, 2, 1181}, {26, 79, 1, 1181}, {27, 80, 2, 1181}, {28, 81, 1, 1181}, {21, 69, 1, 1182}, {23, 74, 2, 1182}, {24, 75, 2, 1182}, {26, 80, 1, 1182}, {27, 81, 2, 1182}, {28, 82, 1, 1182}, {21, 70, 1, 1183}, {23, 75, 2, 1183}, {24, 76, 2, 1183}, {26, 81, 1, 1183}, {27, 82, 2, 1183}, {28, 83, 1, 1183}, {22, 56, 1, 1184}, {24, 57, 2, 1184}, {25, 58, 2, 1184}, {27, 59, 1, 1184}, {28, 60, 2, 1184}, {29, 61, 1, 1184}, {22, 57, 1, 1185}, {24, 59, 2, 1185}, {25, 60, 2, 1185}, {27, 62, 1, 1185}, {28, 63, 2, 1185}, {29, 64, 1, 1185}, {22, 58, 1, 1186}, {24, 60, 2, 1186}, {25, 61, 2, 1186}, {27, 63, 1, 1186}, {28, 64, 2, 1186}, {29, 65, 1, 1186}, {22, 59, 1, 1187}, {24, 62, 2, 1187}, {25, 63, 2, 1187}, {27, 66, 1, 1187}, {28, 67, 2, 1187}, {29, 68, 1, 1187}, {22, 60, 1, 1188}, {24, 63, 2, 1188}, {25, 64, 2, 1188}, {27, 67, 1, 1188}, {28, 68, 2, 1188}, {29, 69, 1, 1188}, {22, 61, 1, 1189}, {24, 64, 2, 1189}, {25, 65, 2, 1189}, {27, 68, 1, 1189}, {28, 69, 2, 1189}, {29, 70, 1, 1189}, {22, 62, 1, 1190}, {24, 66, 2, 1190}, {25, 67, 2, 1190}, {27, 71, 1, 1190}, {28, 72, 2, 1190}, {29, 73, 1, 1190}, {22, 63, 1, 1191}, {24, 67, 2, 1191}, {25, 68, 2, 1191}, {27, 72, 1, 1191}, {28, 73, 2, 1191}, {29, 74, 1, 1191}, {22, 64, 1, 1192}, {24, 68, 2, 1192}, {25, 69, 2, 1192}, {27, 73, 1, 1192}, {28, 74, 2, 1192}, {29, 75, 1, 1192}, {22, 65, 1, 1193}, {24, 69, 2, 1193}, {25, 70, 2, 1193}, {27, 74, 1, 1193}, {28, 75, 2, 1193}, {29, 76, 1, 1193}, {22, 66, 1, 1194}, {24, 71, 2, 1194}, {25, 72, 2, 1194}, {27, 77, 1, 1194}, {28, 78, 2, 1194}, {29, 79, 1, 1194}, {22, 67, 1, 1195}, {24, 72, 2, 1195}, {25, 73, 2, 1195}, {27, 78, 1, 1195}, {28, 79, 2, 1195}, {29, 80, 1, 1195}, {22, 68, 1, 1196}, {24, 73, 2, 1196}, {25, 74, 2, 1196}, {27, 79, 1, 1196}, {28, 80, 2, 1196}, {29, 81, 1, 1196}, {22, 69, 1, 1197}, {24, 74, 2, 1197}, {25, 75, 2, 1197}, {27, 80, 1, 1197}, {28, 81, 2, 1197}, {29, 82, 1, 1197}, {22, 70, 1, 1198}, {24, 75, 2, 1198}, {25, 76, 2, 1198}, {27, 81, 1, 1198}, {28, 82, 2, 1198}, {29, 83, 1, 1198}, {23, 56, 1, 1199}, {26, 57, 2, 1199}, {27, 58, 2, 1199}, {30, 59, 1, 1199}, {31, 60, 2, 1199}, {32, 61, 1, 1199}, {23, 57, 1, 1200}, {26, 59, 2, 1200}, {27, 60, 2, 1200}, {30, 62, 1, 1200}, {31, 63, 2, 1200}, {32, 64, 1, 1200}, {23, 58, 1, 1201}, {26, 60, 2, 1201}, {27, 61, 2, 1201}, {30, 63, 1, 1201}, {31, 64, 2, 1201}, {32, 65, 1, 1201}, {23, 59, 1, 1202}, {26, 62, 2, 1202}, {27, 63, 2, 1202}, {30, 66, 1, 1202}, {31, 67, 2, 1202}, {32, 68, 1, 1202}, {23, 60, 1, 1203}, {26, 63, 2, 1203}, {27, 64, 2, 1203}, {30, 67, 1, 1203}, {31, 68, 2, 1203}, {32, 69, 1, 1203}, {23, 61, 1, 1204}, {26, 64, 2, 1204}, {27, 65, 2, 1204}, {30, 68, 1, 1204}, {31, 69, 2, 1204}, {32, 70, 1, 1204}, {23, 62, 1, 1205}, {26, 66, 2, 1205}, {27, 67, 2, 1205}, {30, 71, 1, 1205}, {31, 72, 2, 1205}, {32, 73, 1, 1205}, {23, 63, 1, 1206}, {26, 67, 2, 1206}, {27, 68, 2, 1206}, {30, 72, 1, 1206}, {31, 73, 2, 1206}, {32, 74, 1, 1206}, {23, 64, 1, 1207}, {26, 68, 2, 1207}, {27, 69, 2, 1207}, {30, 73, 1, 1207}, {31, 74, 2, 1207}, {32, 75, 1, 1207}, {23, 65, 1, 1208}, {26, 69, 2, 1208}, {27, 70, 2, 1208}, {30, 74, 1, 1208}, {31, 75, 2, 1208}, {32, 76, 1, 1208}, {23, 66, 1, 1209}, {26, 71, 2, 1209}, {27, 72, 2, 1209}, {30, 77, 1, 1209}, {31, 78, 2, 1209}, {32, 79, 1, 1209}, {23, 67, 1, 1210}, {26, 72, 2, 1210}, {27, 73, 2, 1210}, {30, 78, 1, 1210}, {31, 79, 2, 1210}, {32, 80, 1, 1210}, {23, 68, 1, 1211}, {26, 73, 2, 1211}, {27, 74, 2, 1211}, {30, 79, 1, 1211}, {31, 80, 2, 1211}, {32, 81, 1, 1211}, {23, 69, 1, 1212}, {26, 74, 2, 1212}, {27, 75, 2, 1212}, {30, 80, 1, 1212}, {31, 81, 2, 1212}, {32, 82, 1, 1212}, {23, 70, 1, 1213}, {26, 75, 2, 1213}, {27, 76, 2, 1213}, {30, 81, 1, 1213}, {31, 82, 2, 1213}, {32, 83, 1, 1213}, {24, 56, 1, 1214}, {27, 57, 2, 1214}, {28, 58, 2, 1214}, {31, 59, 1, 1214}, {32, 60, 2, 1214}, {33, 61, 1, 1214}, {24, 57, 1, 1215}, {27, 59, 2, 1215}, {28, 60, 2, 1215}, {31, 62, 1, 1215}, {32, 63, 2, 1215}, {33, 64, 1, 1215}, {24, 58, 1, 1216}, {27, 60, 2, 1216}, {28, 61, 2, 1216}, {31, 63, 1, 1216}, {32, 64, 2, 1216}, {33, 65, 1, 1216}, {24, 59, 1, 1217}, {27, 62, 2, 1217}, {28, 63, 2, 1217}, {31, 66, 1, 1217}, {32, 67, 2, 1217}, {33, 68, 1, 1217}, {24, 60, 1, 1218}, {27, 63, 2, 1218}, {28, 64, 2, 1218}, {31, 67, 1, 1218}, {32, 68, 2, 1218}, {33, 69, 1, 1218}, {24, 61, 1, 1219}, {27, 64, 2, 1219}, {28, 65, 2, 1219}, {31, 68, 1, 1219}, {32, 69, 2, 1219}, {33, 70, 1, 1219}, {24, 62, 1, 1220}, {27, 66, 2, 1220}, {28, 67, 2, 1220}, {31, 71, 1, 1220}, {32, 72, 2, 1220}, {33, 73, 1, 1220}, {24, 63, 1, 1221}, {27, 67, 2, 1221}, {28, 68, 2, 1221}, {31, 72, 1, 1221}, {32, 73, 2, 1221}, {33, 74, 1, 1221}, {24, 64, 1, 1222}, {27, 68, 2, 1222}, {28, 69, 2, 1222}, {31, 73, 1, 1222}, {32, 74, 2, 1222}, {33, 75, 1, 1222}, {24, 65, 1, 1223}, {27, 69, 2, 1223}, {28, 70, 2, 1223}, {31, 74, 1, 1223}, {32, 75, 2, 1223}, {33, 76, 1, 1223}, {24, 66, 1, 1224}, {27, 71, 2, 1224}, {28, 72, 2, 1224}, {31, 77, 1, 1224}, {32, 78, 2, 1224}, {33, 79, 1, 1224}, {24, 67, 1, 1225}, {27, 72, 2, 1225}, {28, 73, 2, 1225}, {31, 78, 1, 1225}, {32, 79, 2, 1225}, {33, 80, 1, 1225}, {24, 68, 1, 1226}, {27, 73, 2, 1226}, {28, 74, 2, 1226}, {31, 79, 1, 1226}, {32, 80, 2, 1226}, {33, 81, 1, 1226}, {24, 69, 1, 1227}, {27, 74, 2, 1227}, {28, 75, 2, 1227}, {31, 80, 1, 1227}, {32, 81, 2, 1227}, {33, 82, 1, 1227}, {24, 70, 1, 1228}, {27, 75, 2, 1228}, {28, 76, 2, 1228}, {31, 81, 1, 1228}, {32, 82, 2, 1228}, {33, 83, 1, 1228}, {25, 56, 1, 1229}, {28, 57, 2, 1229}, {29, 58, 2, 1229}, {32, 59, 1, 1229}, {33, 60, 2, 1229}, {34, 61, 1, 1229}, {25, 57, 1, 1230}, {28, 59, 2, 1230}, {29, 60, 2, 1230}, {32, 62, 1, 1230}, {33, 63, 2, 1230}, {34, 64, 1, 1230}, {25, 58, 1, 1231}, {28, 60, 2, 1231}, {29, 61, 2, 1231}, {32, 63, 1, 1231}, {33, 64, 2, 1231}, {34, 65, 1, 1231}, {25, 59, 1, 1232}, {28, 62, 2, 1232}, {29, 63, 2, 1232}, {32, 66, 1, 1232}, {33, 67, 2, 1232}, {34, 68, 1, 1232}, {25, 60, 1, 1233}, {28, 63, 2, 1233}, {29, 64, 2, 1233}, {32, 67, 1, 1233}, {33, 68, 2, 1233}, {34, 69, 1, 1233}, {25, 61, 1, 1234}, {28, 64, 2, 1234}, {29, 65, 2, 1234}, {32, 68, 1, 1234}, {33, 69, 2, 1234}, {34, 70, 1, 1234}, {25, 62, 1, 1235}, {28, 66, 2, 1235}, {29, 67, 2, 1235}, {32, 71, 1, 1235}, {33, 72, 2, 1235}, {34, 73, 1, 1235}, {25, 63, 1, 1236}, {28, 67, 2, 1236}, {29, 68, 2, 1236}, {32, 72, 1, 1236}, {33, 73, 2, 1236}, {34, 74, 1, 1236}, {25, 64, 1, 1237}, {28, 68, 2, 1237}, {29, 69, 2, 1237}, {32, 73, 1, 1237}, {33, 74, 2, 1237}, {34, 75, 1, 1237}, {25, 65, 1, 1238}, {28, 69, 2, 1238}, {29, 70, 2, 1238}, {32, 74, 1, 1238}, {33, 75, 2, 1238}, {34, 76, 1, 1238}, {25, 66, 1, 1239}, {28, 71, 2, 1239}, {29, 72, 2, 1239}, {32, 77, 1, 1239}, {33, 78, 2, 1239}, {34, 79, 1, 1239}, {25, 67, 1, 1240}, {28, 72, 2, 1240}, {29, 73, 2, 1240}, {32, 78, 1, 1240}, {33, 79, 2, 1240}, {34, 80, 1, 1240}, {25, 68, 1, 1241}, {28, 73, 2, 1241}, {29, 74, 2, 1241}, {32, 79, 1, 1241}, {33, 80, 2, 1241}, {34, 81, 1, 1241}, {25, 69, 1, 1242}, {28, 74, 2, 1242}, {29, 75, 2, 1242}, {32, 80, 1, 1242}, {33, 81, 2, 1242}, {34, 82, 1, 1242}, {25, 70, 1, 1243}, {28, 75, 2, 1243}, {29, 76, 2, 1243}, {32, 81, 1, 1243}, {33, 82, 2, 1243}, {34, 83, 1, 1243}, {20, 84, 1, 1244}, {21, 85, 2, 1244}, {22, 86, 2, 1244}, {23, 87, 1, 1244}, {24, 88, 2, 1244}, {25, 89, 1, 1244}, {20, 85, 1, 1245}, {21, 87, 2, 1245}, {22, 88, 2, 1245}, {23, 90, 1, 1245}, {24, 91, 2, 1245}, {25, 92, 1, 1245}, {20, 86, 1, 1246}, {21, 88, 2, 1246}, {22, 89, 2, 1246}, {23, 91, 1, 1246}, {24, 92, 2, 1246}, {25, 93, 1, 1246}, {20, 87, 1, 1247}, {21, 90, 2, 1247}, {22, 91, 2, 1247}, {23, 94, 1, 1247}, {24, 95, 2, 1247}, {25, 96, 1, 1247}, {20, 88, 1, 1248}, {21, 91, 2, 1248}, {22, 92, 2, 1248}, {23, 95, 1, 1248}, {24, 96, 2, 1248}, {25, 97, 1, 1248}, {20, 89, 1, 1249}, {21, 92, 2, 1249}, {22, 93, 2, 1249}, {23, 96, 1, 1249}, {24, 97, 2, 1249}, {25, 98, 1, 1249}, {20, 90, 1, 1250}, {21, 94, 2, 1250}, {22, 95, 2, 1250}, {23, 99, 1, 1250}, {24, 100, 2, 1250}, {25, 101, 1, 1250}, {20, 91, 1, 1251}, {21, 95, 2, 1251}, {22, 96, 2, 1251}, {23, 100, 1, 1251}, {24, 101, 2, 1251}, {25, 102, 1, 1251}, {20, 92, 1, 1252}, {21, 96, 2, 1252}, {22, 97, 2, 1252}, {23, 101, 1, 1252}, {24, 102, 2, 1252}, {25, 103, 1, 1252}, {20, 93, 1, 1253}, {21, 97, 2, 1253}, {22, 98, 2, 1253}, {23, 102, 1, 1253}, {24, 103, 2, 1253}, {25, 104, 1, 1253}, {20, 94, 1, 1254}, {21, 99, 2, 1254}, {22, 100, 2, 1254}, {23, 105, 1, 1254}, {24, 106, 2, 1254}, {25, 107, 1, 1254}, {20, 95, 1, 1255}, {21, 100, 2, 1255}, {22, 101, 2, 1255}, {23, 106, 1, 1255}, {24, 107, 2, 1255}, {25, 108, 1, 1255}, {20, 96, 1, 1256}, {21, 101, 2, 1256}, {22, 102, 2, 1256}, {23, 107, 1, 1256}, {24, 108, 2, 1256}, {25, 109, 1, 1256}, {20, 97, 1, 1257}, {21, 102, 2, 1257}, {22, 103, 2, 1257}, {23, 108, 1, 1257}, {24, 109, 2, 1257}, {25, 110, 1, 1257}, {20, 98, 1, 1258}, {21, 103, 2, 1258}, {22, 104, 2, 1258}, {23, 109, 1, 1258}, {24, 110, 2, 1258}, {25, 111, 1, 1258}, {20, 99, 1, 1259}, {21, 105, 2, 1259}, {22, 106, 2, 1259}, {23, 112, 1, 1259}, {24, 113, 2, 1259}, {25, 114, 1, 1259}, {20, 100, 1, 1260}, {21, 106, 2, 1260}, {22, 107, 2, 1260}, {23, 113, 1, 1260}, {24, 114, 2, 1260}, {25, 115, 1, 1260}, {20, 101, 1, 1261}, {21, 107, 2, 1261}, {22, 108, 2, 1261}, {23, 114, 1, 1261}, {24, 115, 2, 1261}, {25, 116, 1, 1261}, {20, 102, 1, 1262}, {21, 108, 2, 1262}, {22, 109, 2, 1262}, {23, 115, 1, 1262}, {24, 116, 2, 1262}, {25, 117, 1, 1262}, {20, 103, 1, 1263}, {21, 109, 2, 1263}, {22, 110, 2, 1263}, {23, 116, 1, 1263}, {24, 117, 2, 1263}, {25, 118, 1, 1263}, {20, 104, 1, 1264}, {21, 110, 2, 1264}, {22, 111, 2, 1264}, {23, 117, 1, 1264}, {24, 118, 2, 1264}, {25, 119, 1, 1264}, {21, 84, 1, 1265}, {23, 85, 2, 1265}, {24, 86, 2, 1265}, {26, 87, 1, 1265}, {27, 88, 2, 1265}, {28, 89, 1, 1265}, {21, 85, 1, 1266}, {23, 87, 2, 1266}, {24, 88, 2, 1266}, {26, 90, 1, 1266}, {27, 91, 2, 1266}, {28, 92, 1, 1266}, {21, 86, 1, 1267}, {23, 88, 2, 1267}, {24, 89, 2, 1267}, {26, 91, 1, 1267}, {27, 92, 2, 1267}, {28, 93, 1, 1267}, {21, 87, 1, 1268}, {23, 90, 2, 1268}, {24, 91, 2, 1268}, {26, 94, 1, 1268}, {27, 95, 2, 1268}, {28, 96, 1, 1268}, {21, 88, 1, 1269}, {23, 91, 2, 1269}, {24, 92, 2, 1269}, {26, 95, 1, 1269}, {27, 96, 2, 1269}, {28, 97, 1, 1269}, {21, 89, 1, 1270}, {23, 92, 2, 1270}, {24, 93, 2, 1270}, {26, 96, 1, 1270}, {27, 97, 2, 1270}, {28, 98, 1, 1270}, {21, 90, 1, 1271}, {23, 94, 2, 1271}, {24, 95, 2, 1271}, {26, 99, 1, 1271}, {27, 100, 2, 1271}, {28, 101, 1, 1271}, {21, 91, 1, 1272}, {23, 95, 2, 1272}, {24, 96, 2, 1272}, {26, 100, 1, 1272}, {27, 101, 2, 1272}, {28, 102, 1, 1272}, {21, 92, 1, 1273}, {23, 96, 2, 1273}, {24, 97, 2, 1273}, {26, 101, 1, 1273}, {27, 102, 2, 1273}, {28, 103, 1, 1273}, {21, 93, 1, 1274}, {23, 97, 2, 1274}, {24, 98, 2, 1274}, {26, 102, 1, 1274}, {27, 103, 2, 1274}, {28, 104, 1, 1274}, {21, 94, 1, 1275}, {23, 99, 2, 1275}, {24, 100, 2, 1275}, {26, 105, 1, 1275}, {27, 106, 2, 1275}, {28, 107, 1, 1275}, {21, 95, 1, 1276}, {23, 100, 2, 1276}, {24, 101, 2, 1276}, {26, 106, 1, 1276}, {27, 107, 2, 1276}, {28, 108, 1, 1276}, {21, 96, 1, 1277}, {23, 101, 2, 1277}, {24, 102, 2, 1277}, {26, 107, 1, 1277}, {27, 108, 2, 1277}, {28, 109, 1, 1277}, {21, 97, 1, 1278}, {23, 102, 2, 1278}, {24, 103, 2, 1278}, {26, 108, 1, 1278}, {27, 109, 2, 1278}, {28, 110, 1, 1278}, {21, 98, 1, 1279}, {23, 103, 2, 1279}, {24, 104, 2, 1279}, {26, 109, 1, 1279}, {27, 110, 2, 1279}, {28, 111, 1, 1279}, {21, 99, 1, 1280}, {23, 105, 2, 1280}, {24, 106, 2, 1280}, {26, 112, 1, 1280}, {27, 113, 2, 1280}, {28, 114, 1, 1280}, {21, 100, 1, 1281}, {23, 106, 2, 1281}, {24, 107, 2, 1281}, {26, 113, 1, 1281}, {27, 114, 2, 1281}, {28, 115, 1, 1281}, {21, 101, 1, 1282}, {23, 107, 2, 1282}, {24, 108, 2, 1282}, {26, 114, 1, 1282}, {27, 115, 2, 1282}, {28, 116, 1, 1282}, {21, 102, 1, 1283}, {23, 108, 2, 1283}, {24, 109, 2, 1283}, {26, 115, 1, 1283}, {27, 116, 2, 1283}, {28, 117, 1, 1283}, {21, 103, 1, 1284}, {23, 109, 2, 1284}, {24, 110, 2, 1284}, {26, 116, 1, 1284}, {27, 117, 2, 1284}, {28, 118, 1, 1284}, {21, 104, 1, 1285}, {23, 110, 2, 1285}, {24, 111, 2, 1285}, {26, 117, 1, 1285}, {27, 118, 2, 1285}, {28, 119, 1, 1285}, {22, 84, 1, 1286}, {24, 85, 2, 1286}, {25, 86, 2, 1286}, {27, 87, 1, 1286}, {28, 88, 2, 1286}, {29, 89, 1, 1286}, {22, 85, 1, 1287}, {24, 87, 2, 1287}, {25, 88, 2, 1287}, {27, 90, 1, 1287}, {28, 91, 2, 1287}, {29, 92, 1, 1287}, {22, 86, 1, 1288}, {24, 88, 2, 1288}, {25, 89, 2, 1288}, {27, 91, 1, 1288}, {28, 92, 2, 1288}, {29, 93, 1, 1288}, {22, 87, 1, 1289}, {24, 90, 2, 1289}, {25, 91, 2, 1289}, {27, 94, 1, 1289}, {28, 95, 2, 1289}, {29, 96, 1, 1289}, {22, 88, 1, 1290}, {24, 91, 2, 1290}, {25, 92, 2, 1290}, {27, 95, 1, 1290}, {28, 96, 2, 1290}, {29, 97, 1, 1290}, {22, 89, 1, 1291}, {24, 92, 2, 1291}, {25, 93, 2, 1291}, {27, 96, 1, 1291}, {28, 97, 2, 1291}, {29, 98, 1, 1291}, {22, 90, 1, 1292}, {24, 94, 2, 1292}, {25, 95, 2, 1292}, {27, 99, 1, 1292}, {28, 100, 2, 1292}, {29, 101, 1, 1292}, {22, 91, 1, 1293}, {24, 95, 2, 1293}, {25, 96, 2, 1293}, {27, 100, 1, 1293}, {28, 101, 2, 1293}, {29, 102, 1, 1293}, {22, 92, 1, 1294}, {24, 96, 2, 1294}, {25, 97, 2, 1294}, {27, 101, 1, 1294}, {28, 102, 2, 1294}, {29, 103, 1, 1294}, {22, 93, 1, 1295}, {24, 97, 2, 1295}, {25, 98, 2, 1295}, {27, 102, 1, 1295}, {28, 103, 2, 1295}, {29, 104, 1, 1295}, {22, 94, 1, 1296}, {24, 99, 2, 1296}, {25, 100, 2, 1296}, {27, 105, 1, 1296}, {28, 106, 2, 1296}, {29, 107, 1, 1296}, {22, 95, 1, 1297}, {24, 100, 2, 1297}, {25, 101, 2, 1297}, {27, 106, 1, 1297}, {28, 107, 2, 1297}, {29, 108, 1, 1297}, {22, 96, 1, 1298}, {24, 101, 2, 1298}, {25, 102, 2, 1298}, {27, 107, 1, 1298}, {28, 108, 2, 1298}, {29, 109, 1, 1298}, {22, 97, 1, 1299}, {24, 102, 2, 1299}, {25, 103, 2, 1299}, {27, 108, 1, 1299}, {28, 109, 2, 1299}, {29, 110, 1, 1299}, {22, 98, 1, 1300}, {24, 103, 2, 1300}, {25, 104, 2, 1300}, {27, 109, 1, 1300}, {28, 110, 2, 1300}, {29, 111, 1, 1300}, {22, 99, 1, 1301}, {24, 105, 2, 1301}, {25, 106, 2, 1301}, {27, 112, 1, 1301}, {28, 113, 2, 1301}, {29, 114, 1, 1301}, {22, 100, 1, 1302}, {24, 106, 2, 1302}, {25, 107, 2, 1302}, {27, 113, 1, 1302}, {28, 114, 2, 1302}, {29, 115, 1, 1302}, {22, 101, 1, 1303}, {24, 107, 2, 1303}, {25, 108, 2, 1303}, {27, 114, 1, 1303}, {28, 115, 2, 1303}, {29, 116, 1, 1303}, {22, 102, 1, 1304}, {24, 108, 2, 1304}, {25, 109, 2, 1304}, {27, 115, 1, 1304}, {28, 116, 2, 1304}, {29, 117, 1, 1304}, {22, 103, 1, 1305}, {24, 109, 2, 1305}, {25, 110, 2, 1305}, {27, 116, 1, 1305}, {28, 117, 2, 1305}, {29, 118, 1, 1305}, {22, 104, 1, 1306}, {24, 110, 2, 1306}, {25, 111, 2, 1306}, {27, 117, 1, 1306}, {28, 118, 2, 1306}, {29, 119, 1, 1306}, {23, 84, 1, 1307}, {26, 85, 2, 1307}, {27, 86, 2, 1307}, {30, 87, 1, 1307}, {31, 88, 2, 1307}, {32, 89, 1, 1307}, {23, 85, 1, 1308}, {26, 87, 2, 1308}, {27, 88, 2, 1308}, {30, 90, 1, 1308}, {31, 91, 2, 1308}, {32, 92, 1, 1308}, {23, 86, 1, 1309}, {26, 88, 2, 1309}, {27, 89, 2, 1309}, {30, 91, 1, 1309}, {31, 92, 2, 1309}, {32, 93, 1, 1309}, {23, 87, 1, 1310}, {26, 90, 2, 1310}, {27, 91, 2, 1310}, {30, 94, 1, 1310}, {31, 95, 2, 1310}, {32, 96, 1, 1310}, {23, 88, 1, 1311}, {26, 91, 2, 1311}, {27, 92, 2, 1311}, {30, 95, 1, 1311}, {31, 96, 2, 1311}, {32, 97, 1, 1311}, {23, 89, 1, 1312}, {26, 92, 2, 1312}, {27, 93, 2, 1312}, {30, 96, 1, 1312}, {31, 97, 2, 1312}, {32, 98, 1, 1312}, {23, 90, 1, 1313}, {26, 94, 2, 1313}, {27, 95, 2, 1313}, {30, 99, 1, 1313}, {31, 100, 2, 1313}, {32, 101, 1, 1313}, {23, 91, 1, 1314}, {26, 95, 2, 1314}, {27, 96, 2, 1314}, {30, 100, 1, 1314}, {31, 101, 2, 1314}, {32, 102, 1, 1314}, {23, 92, 1, 1315}, {26, 96, 2, 1315}, {27, 97, 2, 1315}, {30, 101, 1, 1315}, {31, 102, 2, 1315}, {32, 103, 1, 1315}, {23, 93, 1, 1316}, {26, 97, 2, 1316}, {27, 98, 2, 1316}, {30, 102, 1, 1316}, {31, 103, 2, 1316}, {32, 104, 1, 1316}, {23, 94, 1, 1317}, {26, 99, 2, 1317}, {27, 100, 2, 1317}, {30, 105, 1, 1317}, {31, 106, 2, 1317}, {32, 107, 1, 1317}, {23, 95, 1, 1318}, {26, 100, 2, 1318}, {27, 101, 2, 1318}, {30, 106, 1, 1318}, {31, 107, 2, 1318}, {32, 108, 1, 1318}, {23, 96, 1, 1319}, {26, 101, 2, 1319}, {27, 102, 2, 1319}, {30, 107, 1, 1319}, {31, 108, 2, 1319}, {32, 109, 1, 1319}, {23, 97, 1, 1320}, {26, 102, 2, 1320}, {27, 103, 2, 1320}, {30, 108, 1, 1320}, {31, 109, 2, 1320}, {32, 110, 1, 1320}, {23, 98, 1, 1321}, {26, 103, 2, 1321}, {27, 104, 2, 1321}, {30, 109, 1, 1321}, {31, 110, 2, 1321}, {32, 111, 1, 1321}, {23, 99, 1, 1322}, {26, 105, 2, 1322}, {27, 106, 2, 1322}, {30, 112, 1, 1322}, {31, 113, 2, 1322}, {32, 114, 1, 1322}, {23, 100, 1, 1323}, {26, 106, 2, 1323}, {27, 107, 2, 1323}, {30, 113, 1, 1323}, {31, 114, 2, 1323}, {32, 115, 1, 1323}, {23, 101, 1, 1324}, {26, 107, 2, 1324}, {27, 108, 2, 1324}, {30, 114, 1, 1324}, {31, 115, 2, 1324}, {32, 116, 1, 1324}, {23, 102, 1, 1325}, {26, 108, 2, 1325}, {27, 109, 2, 1325}, {30, 115, 1, 1325}, {31, 116, 2, 1325}, {32, 117, 1, 1325}, {23, 103, 1, 1326}, {26, 109, 2, 1326}, {27, 110, 2, 1326}, {30, 116, 1, 1326}, {31, 117, 2, 1326}, {32, 118, 1, 1326}, {23, 104, 1, 1327}, {26, 110, 2, 1327}, {27, 111, 2, 1327}, {30, 117, 1, 1327}, {31, 118, 2, 1327}, {32, 119, 1, 1327}, {24, 84, 1, 1328}, {27, 85, 2, 1328}, {28, 86, 2, 1328}, {31, 87, 1, 1328}, {32, 88, 2, 1328}, {33, 89, 1, 1328}, {24, 85, 1, 1329}, {27, 87, 2, 1329}, {28, 88, 2, 1329}, {31, 90, 1, 1329}, {32, 91, 2, 1329}, {33, 92, 1, 1329}, {24, 86, 1, 1330}, {27, 88, 2, 1330}, {28, 89, 2, 1330}, {31, 91, 1, 1330}, {32, 92, 2, 1330}, {33, 93, 1, 1330}, {24, 87, 1, 1331}, {27, 90, 2, 1331}, {28, 91, 2, 1331}, {31, 94, 1, 1331}, {32, 95, 2, 1331}, {33, 96, 1, 1331}, {24, 88, 1, 1332}, {27, 91, 2, 1332}, {28, 92, 2, 1332}, {31, 95, 1, 1332}, {32, 96, 2, 1332}, {33, 97, 1, 1332}, {24, 89, 1, 1333}, {27, 92, 2, 1333}, {28, 93, 2, 1333}, {31, 96, 1, 1333}, {32, 97, 2, 1333}, {33, 98, 1, 1333}, {24, 90, 1, 1334}, {27, 94, 2, 1334}, {28, 95, 2, 1334}, {31, 99, 1, 1334}, {32, 100, 2, 1334}, {33, 101, 1, 1334}, {24, 91, 1, 1335}, {27, 95, 2, 1335}, {28, 96, 2, 1335}, {31, 100, 1, 1335}, {32, 101, 2, 1335}, {33, 102, 1, 1335}, {24, 92, 1, 1336}, {27, 96, 2, 1336}, {28, 97, 2, 1336}, {31, 101, 1, 1336}, {32, 102, 2, 1336}, {33, 103, 1, 1336}, {24, 93, 1, 1337}, {27, 97, 2, 1337}, {28, 98, 2, 1337}, {31, 102, 1, 1337}, {32, 103, 2, 1337}, {33, 104, 1, 1337}, {24, 94, 1, 1338}, {27, 99, 2, 1338}, {28, 100, 2, 1338}, {31, 105, 1, 1338}, {32, 106, 2, 1338}, {33, 107, 1, 1338}, {24, 95, 1, 1339}, {27, 100, 2, 1339}, {28, 101, 2, 1339}, {31, 106, 1, 1339}, {32, 107, 2, 1339}, {33, 108, 1, 1339}, {24, 96, 1, 1340}, {27, 101, 2, 1340}, {28, 102, 2, 1340}, {31, 107, 1, 1340}, {32, 108, 2, 1340}, {33, 109, 1, 1340}, {24, 97, 1, 1341}, {27, 102, 2, 1341}, {28, 103, 2, 1341}, {31, 108, 1, 1341}, {32, 109, 2, 1341}, {33, 110, 1, 1341}, {24, 98, 1, 1342}, {27, 103, 2, 1342}, {28, 104, 2, 1342}, {31, 109, 1, 1342}, {32, 110, 2, 1342}, {33, 111, 1, 1342}, {24, 99, 1, 1343}, {27, 105, 2, 1343}, {28, 106, 2, 1343}, {31, 112, 1, 1343}, {32, 113, 2, 1343}, {33, 114, 1, 1343}, {24, 100, 1, 1344}, {27, 106, 2, 1344}, {28, 107, 2, 1344}, {31, 113, 1, 1344}, {32, 114, 2, 1344}, {33, 115, 1, 1344}, {24, 101, 1, 1345}, {27, 107, 2, 1345}, {28, 108, 2, 1345}, {31, 114, 1, 1345}, {32, 115, 2, 1345}, {33, 116, 1, 1345}, {24, 102, 1, 1346}, {27, 108, 2, 1346}, {28, 109, 2, 1346}, {31, 115, 1, 1346}, {32, 116, 2, 1346}, {33, 117, 1, 1346}, {24, 103, 1, 1347}, {27, 109, 2, 1347}, {28, 110, 2, 1347}, {31, 116, 1, 1347}, {32, 117, 2, 1347}, {33, 118, 1, 1347}, {24, 104, 1, 1348}, {27, 110, 2, 1348}, {28, 111, 2, 1348}, {31, 117, 1, 1348}, {32, 118, 2, 1348}, {33, 119, 1, 1348}, {25, 84, 1, 1349}, {28, 85, 2, 1349}, {29, 86, 2, 1349}, {32, 87, 1, 1349}, {33, 88, 2, 1349}, {34, 89, 1, 1349}, {25, 85, 1, 1350}, {28, 87, 2, 1350}, {29, 88, 2, 1350}, {32, 90, 1, 1350}, {33, 91, 2, 1350}, {34, 92, 1, 1350}, {25, 86, 1, 1351}, {28, 88, 2, 1351}, {29, 89, 2, 1351}, {32, 91, 1, 1351}, {33, 92, 2, 1351}, {34, 93, 1, 1351}, {25, 87, 1, 1352}, {28, 90, 2, 1352}, {29, 91, 2, 1352}, {32, 94, 1, 1352}, {33, 95, 2, 1352}, {34, 96, 1, 1352}, {25, 88, 1, 1353}, {28, 91, 2, 1353}, {29, 92, 2, 1353}, {32, 95, 1, 1353}, {33, 96, 2, 1353}, {34, 97, 1, 1353}, {25, 89, 1, 1354}, {28, 92, 2, 1354}, {29, 93, 2, 1354}, {32, 96, 1, 1354}, {33, 97, 2, 1354}, {34, 98, 1, 1354}, {25, 90, 1, 1355}, {28, 94, 2, 1355}, {29, 95, 2, 1355}, {32, 99, 1, 1355}, {33, 100, 2, 1355}, {34, 101, 1, 1355}, {25, 91, 1, 1356}, {28, 95, 2, 1356}, {29, 96, 2, 1356}, {32, 100, 1, 1356}, {33, 101, 2, 1356}, {34, 102, 1, 1356}, {25, 92, 1, 1357}, {28, 96, 2, 1357}, {29, 97, 2, 1357}, {32, 101, 1, 1357}, {33, 102, 2, 1357}, {34, 103, 1, 1357}, {25, 93, 1, 1358}, {28, 97, 2, 1358}, {29, 98, 2, 1358}, {32, 102, 1, 1358}, {33, 103, 2, 1358}, {34, 104, 1, 1358}, {25, 94, 1, 1359}, {28, 99, 2, 1359}, {29, 100, 2, 1359}, {32, 105, 1, 1359}, {33, 106, 2, 1359}, {34, 107, 1, 1359}, {25, 95, 1, 1360}, {28, 100, 2, 1360}, {29, 101, 2, 1360}, {32, 106, 1, 1360}, {33, 107, 2, 1360}, {34, 108, 1, 1360}, {25, 96, 1, 1361}, {28, 101, 2, 1361}, {29, 102, 2, 1361}, {32, 107, 1, 1361}, {33, 108, 2, 1361}, {34, 109, 1, 1361}, {25, 97, 1, 1362}, {28, 102, 2, 1362}, {29, 103, 2, 1362}, {32, 108, 1, 1362}, {33, 109, 2, 1362}, {34, 110, 1, 1362}, {25, 98, 1, 1363}, {28, 103, 2, 1363}, {29, 104, 2, 1363}, {32, 109, 1, 1363}, {33, 110, 2, 1363}, {34, 111, 1, 1363}, {25, 99, 1, 1364}, {28, 105, 2, 1364}, {29, 106, 2, 1364}, {32, 112, 1, 1364}, {33, 113, 2, 1364}, {34, 114, 1, 1364}, {25, 100, 1, 1365}, {28, 106, 2, 1365}, {29, 107, 2, 1365}, {32, 113, 1, 1365}, {33, 114, 2, 1365}, {34, 115, 1, 1365}, {25, 101, 1, 1366}, {28, 107, 2, 1366}, {29, 108, 2, 1366}, {32, 114, 1, 1366}, {33, 115, 2, 1366}, {34, 116, 1, 1366}, {25, 102, 1, 1367}, {28, 108, 2, 1367}, {29, 109, 2, 1367}, {32, 115, 1, 1367}, {33, 116, 2, 1367}, {34, 117, 1, 1367}, {25, 103, 1, 1368}, {28, 109, 2, 1368}, {29, 110, 2, 1368}, {32, 116, 1, 1368}, {33, 117, 2, 1368}, {34, 118, 1, 1368}, {25, 104, 1, 1369}, {28, 110, 2, 1369}, {29, 111, 2, 1369}, {32, 117, 1, 1369}, {33, 118, 2, 1369}, {34, 119, 1, 1369}, {20, 20, 1, 1370}, {21, 21, 3, 1370}, {22, 22, 3, 1370}, {23, 23, 3, 1370}, {24, 24, 6, 1370}, {25, 25, 3, 1370}, {26, 26, 1, 1370}, {27, 27, 3, 1370}, {28, 28, 3, 1370}, {29, 29, 1, 1370}, {20, 21, 1, 1371}, {21, 23, 3, 1371}, {22, 24, 3, 1371}, {23, 26, 3, 1371}, {24, 27, 6, 1371}, {25, 28, 3, 1371}, {26, 30, 1, 1371}, {27, 31, 3, 1371}, {28, 32, 3, 1371}, {29, 33, 1, 1371}, {20, 22, 1, 1372}, {21, 24, 3, 1372}, {22, 25, 3, 1372}, {23, 27, 3, 1372}, {24, 28, 6, 1372}, {25, 29, 3, 1372}, {26, 31, 1, 1372}, {27, 32, 3, 1372}, {28, 33, 3, 1372}, {29, 34, 1, 1372}, {21, 21, 1, 1373}, {23, 23, 3, 1373}, {24, 24, 3, 1373}, {26, 26, 3, 1373}, {27, 27, 6, 1373}, {28, 28, 3, 1373}, {30, 30, 1, 1373}, {31, 31, 3, 1373}, {32, 32, 3, 1373}, {33, 33, 1, 1373}, {21, 22, 1, 1374}, {23, 24, 3, 1374}, {24, 25, 3, 1374}, {26, 27, 3, 1374}, {27, 28, 6, 1374}, {28, 29, 3, 1374}, {30, 31, 1, 1374}, {31, 32, 3, 1374}, {32, 33, 3, 1374}, {33, 34, 1, 1374}, {22, 22, 1, 1375}, {24, 24, 3, 1375}, {25, 25, 3, 1375}, {27, 27, 3, 1375}, {28, 28, 6, 1375}, {29, 29, 3, 1375}, {31, 31, 1, 1375}, {32, 32, 3, 1375}, {33, 33, 3, 1375}, {34, 34, 1, 1375}, {20, 35, 1, 1376}, {21, 36, 3, 1376}, {22, 37, 3, 1376}, {23, 38, 3, 1376}, {24, 39, 6, 1376}, {25, 40, 3, 1376}, {26, 41, 1, 1376}, {27, 42, 3, 1376}, {28, 43, 3, 1376}, {29, 44, 1, 1376}, {20, 36, 1, 1377}, {21, 38, 3, 1377}, {22, 39, 3, 1377}, {23, 41, 3, 1377}, {24, 42, 6, 1377}, {25, 43, 3, 1377}, {26, 45, 1, 1377}, {27, 46, 3, 1377}, {28, 47, 3, 1377}, {29, 48, 1, 1377}, {20, 37, 1, 1378}, {21, 39, 3, 1378}, {22, 40, 3, 1378}, {23, 42, 3, 1378}, {24, 43, 6, 1378}, {25, 44, 3, 1378}, {26, 46, 1, 1378}, {27, 47, 3, 1378}, {28, 48, 3, 1378}, {29, 49, 1, 1378}, {20, 38, 1, 1379}, {21, 41, 3, 1379}, {22, 42, 3, 1379}, {23, 45, 3, 1379}, {24, 46, 6, 1379}, {25, 47, 3, 1379}, {26, 50, 1, 1379}, {27, 51, 3, 1379}, {28, 52, 3, 1379}, {29, 53, 1, 1379}, {20, 39, 1, 1380}, {21, 42, 3, 1380}, {22, 43, 3, 1380}, {23, 46, 3, 1380}, {24, 47, 6, 1380}, {25, 48, 3, 1380}, {26, 51, 1, 1380}, {27, 52, 3, 1380}, {28, 53, 3, 1380}, {29, 54, 1, 1380}, {20, 40, 1, 1381}, {21, 43, 3, 1381}, {22, 44, 3, 1381}, {23, 47, 3, 1381}, {24, 48, 6, 1381}, {25, 49, 3, 1381}, {26, 52, 1, 1381}, {27, 53, 3, 1381}, {28, 54, 3, 1381}, {29, 55, 1, 1381}, {21, 35, 1, 1382}, {23, 36, 3, 1382}, {24, 37, 3, 1382}, {26, 38, 3, 1382}, {27, 39, 6, 1382}, {28, 40, 3, 1382}, {30, 41, 1, 1382}, {31, 42, 3, 1382}, {32, 43, 3, 1382}, {33, 44, 1, 1382}, {21, 36, 1, 1383}, {23, 38, 3, 1383}, {24, 39, 3, 1383}, {26, 41, 3, 1383}, {27, 42, 6, 1383}, {28, 43, 3, 1383}, {30, 45, 1, 1383}, {31, 46, 3, 1383}, {32, 47, 3, 1383}, {33, 48, 1, 1383}, {21, 37, 1, 1384}, {23, 39, 3, 1384}, {24, 40, 3, 1384}, {26, 42, 3, 1384}, {27, 43, 6, 1384}, {28, 44, 3, 1384}, {30, 46, 1, 1384}, {31, 47, 3, 1384}, {32, 48, 3, 1384}, {33, 49, 1, 1384}, {21, 38, 1, 1385}, {23, 41, 3, 1385}, {24, 42, 3, 1385}, {26, 45, 3, 1385}, {27, 46, 6, 1385}, {28, 47, 3, 1385}, {30, 50, 1, 1385}, {31, 51, 3, 1385}, {32, 52, 3, 1385}, {33, 53, 1, 1385}, {21, 39, 1, 1386}, {23, 42, 3, 1386}, {24, 43, 3, 1386}, {26, 46, 3, 1386}, {27, 47, 6, 1386}, {28, 48, 3, 1386}, {30, 51, 1, 1386}, {31, 52, 3, 1386}, {32, 53, 3, 1386}, {33, 54, 1, 1386}, {21, 40, 1, 1387}, {23, 43, 3, 1387}, {24, 44, 3, 1387}, {26, 47, 3, 1387}, {27, 48, 6, 1387}, {28, 49, 3, 1387}, {30, 52, 1, 1387}, {31, 53, 3, 1387}, {32, 54, 3, 1387}, {33, 55, 1, 1387}, {22, 35, 1, 1388}, {24, 36, 3, 1388}, {25, 37, 3, 1388}, {27, 38, 3, 1388}, {28, 39, 6, 1388}, {29, 40, 3, 1388}, {31, 41, 1, 1388}, {32, 42, 3, 1388}, {33, 43, 3, 1388}, {34, 44, 1, 1388}, {22, 36, 1, 1389}, {24, 38, 3, 1389}, {25, 39, 3, 1389}, {27, 41, 3, 1389}, {28, 42, 6, 1389}, {29, 43, 3, 1389}, {31, 45, 1, 1389}, {32, 46, 3, 1389}, {33, 47, 3, 1389}, {34, 48, 1, 1389}, {22, 37, 1, 1390}, {24, 39, 3, 1390}, {25, 40, 3, 1390}, {27, 42, 3, 1390}, {28, 43, 6, 1390}, {29, 44, 3, 1390}, {31, 46, 1, 1390}, {32, 47, 3, 1390}, {33, 48, 3, 1390}, {34, 49, 1, 1390}, {22, 38, 1, 1391}, {24, 41, 3, 1391}, {25, 42, 3, 1391}, {27, 45, 3, 1391}, {28, 46, 6, 1391}, {29, 47, 3, 1391}, {31, 50, 1, 1391}, {32, 51, 3, 1391}, {33, 52, 3, 1391}, {34, 53, 1, 1391}, {22, 39, 1, 1392}, {24, 42, 3, 1392}, {25, 43, 3, 1392}, {27, 46, 3, 1392}, {28, 47, 6, 1392}, {29, 48, 3, 1392}, {31, 51, 1, 1392}, {32, 52, 3, 1392}, {33, 53, 3, 1392}, {34, 54, 1, 1392}, {22, 40, 1, 1393}, {24, 43, 3, 1393}, {25, 44, 3, 1393}, {27, 47, 3, 1393}, {28, 48, 6, 1393}, {29, 49, 3, 1393}, {31, 52, 1, 1393}, {32, 53, 3, 1393}, {33, 54, 3, 1393}, {34, 55, 1, 1393}, {20, 56, 1, 1394}, {21, 57, 3, 1394}, {22, 58, 3, 1394}, {23, 59, 3, 1394}, {24, 60, 6, 1394}, {25, 61, 3, 1394}, {26, 62, 1, 1394}, {27, 63, 3, 1394}, {28, 64, 3, 1394}, {29, 65, 1, 1394}, {20, 57, 1, 1395}, {21, 59, 3, 1395}, {22, 60, 3, 1395}, {23, 62, 3, 1395}, {24, 63, 6, 1395}, {25, 64, 3, 1395}, {26, 66, 1, 1395}, {27, 67, 3, 1395}, {28, 68, 3, 1395}, {29, 69, 1, 1395}, {20, 58, 1, 1396}, {21, 60, 3, 1396}, {22, 61, 3, 1396}, {23, 63, 3, 1396}, {24, 64, 6, 1396}, {25, 65, 3, 1396}, {26, 67, 1, 1396}, {27, 68, 3, 1396}, {28, 69, 3, 1396}, {29, 70, 1, 1396}, {20, 59, 1, 1397}, {21, 62, 3, 1397}, {22, 63, 3, 1397}, {23, 66, 3, 1397}, {24, 67, 6, 1397}, {25, 68, 3, 1397}, {26, 71, 1, 1397}, {27, 72, 3, 1397}, {28, 73, 3, 1397}, {29, 74, 1, 1397}, {20, 60, 1, 1398}, {21, 63, 3, 1398}, {22, 64, 3, 1398}, {23, 67, 3, 1398}, {24, 68, 6, 1398}, {25, 69, 3, 1398}, {26, 72, 1, 1398}, {27, 73, 3, 1398}, {28, 74, 3, 1398}, {29, 75, 1, 1398}, {20, 61, 1, 1399}, {21, 64, 3, 1399}, {22, 65, 3, 1399}, {23, 68, 3, 1399}, {24, 69, 6, 1399}, {25, 70, 3, 1399}, {26, 73, 1, 1399}, {27, 74, 3, 1399}, {28, 75, 3, 1399}, {29, 76, 1, 1399}, {20, 62, 1, 1400}, {21, 66, 3, 1400}, {22, 67, 3, 1400}, {23, 71, 3, 1400}, {24, 72, 6, 1400}, {25, 73, 3, 1400}, {26, 77, 1, 1400}, {27, 78, 3, 1400}, {28, 79, 3, 1400}, {29, 80, 1, 1400}, {20, 63, 1, 1401}, {21, 67, 3, 1401}, {22, 68, 3, 1401}, {23, 72, 3, 1401}, {24, 73, 6, 1401}, {25, 74, 3, 1401}, {26, 78, 1, 1401}, {27, 79, 3, 1401}, {28, 80, 3, 1401}, {29, 81, 1, 1401}, {20, 64, 1, 1402}, {21, 68, 3, 1402}, {22, 69, 3, 1402}, {23, 73, 3, 1402}, {24, 74, 6, 1402}, {25, 75, 3, 1402}, {26, 79, 1, 1402}, {27, 80, 3, 1402}, {28, 81, 3, 1402}, {29, 82, 1, 1402}, {20, 65, 1, 1403}, {21, 69, 3, 1403}, {22, 70, 3, 1403}, {23, 74, 3, 1403}, {24, 75, 6, 1403}, {25, 76, 3, 1403}, {26, 80, 1, 1403}, {27, 81, 3, 1403}, {28, 82, 3, 1403}, {29, 83, 1, 1403}, {21, 56, 1, 1404}, {23, 57, 3, 1404}, {24, 58, 3, 1404}, {26, 59, 3, 1404}, {27, 60, 6, 1404}, {28, 61, 3, 1404}, {30, 62, 1, 1404}, {31, 63, 3, 1404}, {32, 64, 3, 1404}, {33, 65, 1, 1404}, {21, 57, 1, 1405}, {23, 59, 3, 1405}, {24, 60, 3, 1405}, {26, 62, 3, 1405}, {27, 63, 6, 1405}, {28, 64, 3, 1405}, {30, 66, 1, 1405}, {31, 67, 3, 1405}, {32, 68, 3, 1405}, {33, 69, 1, 1405}, {21, 58, 1, 1406}, {23, 60, 3, 1406}, {24, 61, 3, 1406}, {26, 63, 3, 1406}, {27, 64, 6, 1406}, {28, 65, 3, 1406}, {30, 67, 1, 1406}, {31, 68, 3, 1406}, {32, 69, 3, 1406}, {33, 70, 1, 1406}, {21, 59, 1, 1407}, {23, 62, 3, 1407}, {24, 63, 3, 1407}, {26, 66, 3, 1407}, {27, 67, 6, 1407}, {28, 68, 3, 1407}, {30, 71, 1, 1407}, {31, 72, 3, 1407}, {32, 73, 3, 1407}, {33, 74, 1, 1407}, {21, 60, 1, 1408}, {23, 63, 3, 1408}, {24, 64, 3, 1408}, {26, 67, 3, 1408}, {27, 68, 6, 1408}, {28, 69, 3, 1408}, {30, 72, 1, 1408}, {31, 73, 3, 1408}, {32, 74, 3, 1408}, {33, 75, 1, 1408}, {21, 61, 1, 1409}, {23, 64, 3, 1409}, {24, 65, 3, 1409}, {26, 68, 3, 1409}, {27, 69, 6, 1409}, {28, 70, 3, 1409}, {30, 73, 1, 1409}, {31, 74, 3, 1409}, {32, 75, 3, 1409}, {33, 76, 1, 1409}, {21, 62, 1, 1410}, {23, 66, 3, 1410}, {24, 67, 3, 1410}, {26, 71, 3, 1410}, {27, 72, 6, 1410}, {28, 73, 3, 1410}, {30, 77, 1, 1410}, {31, 78, 3, 1410}, {32, 79, 3, 1410}, {33, 80, 1, 1410}, {21, 63, 1, 1411}, {23, 67, 3, 1411}, {24, 68, 3, 1411}, {26, 72, 3, 1411}, {27, 73, 6, 1411}, {28, 74, 3, 1411}, {30, 78, 1, 1411}, {31, 79, 3, 1411}, {32, 80, 3, 1411}, {33, 81, 1, 1411}, {21, 64, 1, 1412}, {23, 68, 3, 1412}, {24, 69, 3, 1412}, {26, 73, 3, 1412}, {27, 74, 6, 1412}, {28, 75, 3, 1412}, {30, 79, 1, 1412}, {31, 80, 3, 1412}, {32, 81, 3, 1412}, {33, 82, 1, 1412}, {21, 65, 1, 1413}, {23, 69, 3, 1413}, {24, 70, 3, 1413}, {26, 74, 3, 1413}, {27, 75, 6, 1413}, {28, 76, 3, 1413}, {30, 80, 1, 1413}, {31, 81, 3, 1413}, {32, 82, 3, 1413}, {33, 83, 1, 1413}, {22, 56, 1, 1414}, {24, 57, 3, 1414}, {25, 58, 3, 1414}, {27, 59, 3, 1414}, {28, 60, 6, 1414}, {29, 61, 3, 1414}, {31, 62, 1, 1414}, {32, 63, 3, 1414}, {33, 64, 3, 1414}, {34, 65, 1, 1414}, {22, 57, 1, 1415}, {24, 59, 3, 1415}, {25, 60, 3, 1415}, {27, 62, 3, 1415}, {28, 63, 6, 1415}, {29, 64, 3, 1415}, {31, 66, 1, 1415}, {32, 67, 3, 1415}, {33, 68, 3, 1415}, {34, 69, 1, 1415}, {22, 58, 1, 1416}, {24, 60, 3, 1416}, {25, 61, 3, 1416}, {27, 63, 3, 1416}, {28, 64, 6, 1416}, {29, 65, 3, 1416}, {31, 67, 1, 1416}, {32, 68, 3, 1416}, {33, 69, 3, 1416}, {34, 70, 1, 1416}, {22, 59, 1, 1417}, {24, 62, 3, 1417}, {25, 63, 3, 1417}, {27, 66, 3, 1417}, {28, 67, 6, 1417}, {29, 68, 3, 1417}, {31, 71, 1, 1417}, {32, 72, 3, 1417}, {33, 73, 3, 1417}, {34, 74, 1, 1417}, {22, 60, 1, 1418}, {24, 63, 3, 1418}, {25, 64, 3, 1418}, {27, 67, 3, 1418}, {28, 68, 6, 1418}, {29, 69, 3, 1418}, {31, 72, 1, 1418}, {32, 73, 3, 1418}, {33, 74, 3, 1418}, {34, 75, 1, 1418}, {22, 61, 1, 1419}, {24, 64, 3, 1419}, {25, 65, 3, 1419}, {27, 68, 3, 1419}, {28, 69, 6, 1419}, {29, 70, 3, 1419}, {31, 73, 1, 1419}, {32, 74, 3, 1419}, {33, 75, 3, 1419}, {34, 76, 1, 1419}, {22, 62, 1, 1420}, {24, 66, 3, 1420}, {25, 67, 3, 1420}, {27, 71, 3, 1420}, {28, 72, 6, 1420}, {29, 73, 3, 1420}, {31, 77, 1, 1420}, {32, 78, 3, 1420}, {33, 79, 3, 1420}, {34, 80, 1, 1420}, {22, 63, 1, 1421}, {24, 67, 3, 1421}, {25, 68, 3, 1421}, {27, 72, 3, 1421}, {28, 73, 6, 1421}, {29, 74, 3, 1421}, {31, 78, 1, 1421}, {32, 79, 3, 1421}, {33, 80, 3, 1421}, {34, 81, 1, 1421}, {22, 64, 1, 1422}, {24, 68, 3, 1422}, {25, 69, 3, 1422}, {27, 73, 3, 1422}, {28, 74, 6, 1422}, {29, 75, 3, 1422}, {31, 79, 1, 1422}, {32, 80, 3, 1422}, {33, 81, 3, 1422}, {34, 82, 1, 1422}, {22, 65, 1, 1423}, {24, 69, 3, 1423}, {25, 70, 3, 1423}, {27, 74, 3, 1423}, {28, 75, 6, 1423}, {29, 76, 3, 1423}, {31, 80, 1, 1423}, {32, 81, 3, 1423}, {33, 82, 3, 1423}, {34, 83, 1, 1423}, {20, 84, 1, 1424}, {21, 85, 3, 1424}, {22, 86, 3, 1424}, {23, 87, 3, 1424}, {24, 88, 6, 1424}, {25, 89, 3, 1424}, {26, 90, 1, 1424}, {27, 91, 3, 1424}, {28, 92, 3, 1424}, {29, 93, 1, 1424}, {20, 85, 1, 1425}, {21, 87, 3, 1425}, {22, 88, 3, 1425}, {23, 90, 3, 1425}, {24, 91, 6, 1425}, {25, 92, 3, 1425}, {26, 94, 1, 1425}, {27, 95, 3, 1425}, {28, 96, 3, 1425}, {29, 97, 1, 1425}, {20, 86, 1, 1426}, {21, 88, 3, 1426}, {22, 89, 3, 1426}, {23, 91, 3, 1426}, {24, 92, 6, 1426}, {25, 93, 3, 1426}, {26, 95, 1, 1426}, {27, 96, 3, 1426}, {28, 97, 3, 1426}, {29, 98, 1, 1426}, {20, 87, 1, 1427}, {21, 90, 3, 1427}, {22, 91, 3, 1427}, {23, 94, 3, 1427}, {24, 95, 6, 1427}, {25, 96, 3, 1427}, {26, 99, 1, 1427}, {27, 100, 3, 1427}, {28, 101, 3, 1427}, {29, 102, 1, 1427}, {20, 88, 1, 1428}, {21, 91, 3, 1428}, {22, 92, 3, 1428}, {23, 95, 3, 1428}, {24, 96, 6, 1428}, {25, 97, 3, 1428}, {26, 100, 1, 1428}, {27, 101, 3, 1428}, {28, 102, 3, 1428}, {29, 103, 1, 1428}, {20, 89, 1, 1429}, {21, 92, 3, 1429}, {22, 93, 3, 1429}, {23, 96, 3, 1429}, {24, 97, 6, 1429}, {25, 98, 3, 1429}, {26, 101, 1, 1429}, {27, 102, 3, 1429}, {28, 103, 3, 1429}, {29, 104, 1, 1429}, {20, 90, 1, 1430}, {21, 94, 3, 1430}, {22, 95, 3, 1430}, {23, 99, 3, 1430}, {24, 100, 6, 1430}, {25, 101, 3, 1430}, {26, 105, 1, 1430}, {27, 106, 3, 1430}, {28, 107, 3, 1430}, {29, 108, 1, 1430}, {20, 91, 1, 1431}, {21, 95, 3, 1431}, {22, 96, 3, 1431}, {23, 100, 3, 1431}, {24, 101, 6, 1431}, {25, 102, 3, 1431}, {26, 106, 1, 1431}, {27, 107, 3, 1431}, {28, 108, 3, 1431}, {29, 109, 1, 1431}, {20, 92, 1, 1432}, {21, 96, 3, 1432}, {22, 97, 3, 1432}, {23, 101, 3, 1432}, {24, 102, 6, 1432}, {25, 103, 3, 1432}, {26, 107, 1, 1432}, {27, 108, 3, 1432}, {28, 109, 3, 1432}, {29, 110, 1, 1432}, {20, 93, 1, 1433}, {21, 97, 3, 1433}, {22, 98, 3, 1433}, {23, 102, 3, 1433}, {24, 103, 6, 1433}, {25, 104, 3, 1433}, {26, 108, 1, 1433}, {27, 109, 3, 1433}, {28, 110, 3, 1433}, {29, 111, 1, 1433}, {20, 94, 1, 1434}, {21, 99, 3, 1434}, {22, 100, 3, 1434}, {23, 105, 3, 1434}, {24, 106, 6, 1434}, {25, 107, 3, 1434}, {26, 112, 1, 1434}, {27, 113, 3, 1434}, {28, 114, 3, 1434}, {29, 115, 1, 1434}, {20, 95, 1, 1435}, {21, 100, 3, 1435}, {22, 101, 3, 1435}, {23, 106, 3, 1435}, {24, 107, 6, 1435}, {25, 108, 3, 1435}, {26, 113, 1, 1435}, {27, 114, 3, 1435}, {28, 115, 3, 1435}, {29, 116, 1, 1435}, {20, 96, 1, 1436}, {21, 101, 3, 1436}, {22, 102, 3, 1436}, {23, 107, 3, 1436}, {24, 108, 6, 1436}, {25, 109, 3, 1436}, {26, 114, 1, 1436}, {27, 115, 3, 1436}, {28, 116, 3, 1436}, {29, 117, 1, 1436}, {20, 97, 1, 1437}, {21, 102, 3, 1437}, {22, 103, 3, 1437}, {23, 108, 3, 1437}, {24, 109, 6, 1437}, {25, 110, 3, 1437}, {26, 115, 1, 1437}, {27, 116, 3, 1437}, {28, 117, 3, 1437}, {29, 118, 1, 1437}, {20, 98, 1, 1438}, {21, 103, 3, 1438}, {22, 104, 3, 1438}, {23, 109, 3, 1438}, {24, 110, 6, 1438}, {25, 111, 3, 1438}, {26, 116, 1, 1438}, {27, 117, 3, 1438}, {28, 118, 3, 1438}, {29, 119, 1, 1438}, {21, 84, 1, 1439}, {23, 85, 3, 1439}, {24, 86, 3, 1439}, {26, 87, 3, 1439}, {27, 88, 6, 1439}, {28, 89, 3, 1439}, {30, 90, 1, 1439}, {31, 91, 3, 1439}, {32, 92, 3, 1439}, {33, 93, 1, 1439}, {21, 85, 1, 1440}, {23, 87, 3, 1440}, {24, 88, 3, 1440}, 