MTP
version = 1.1.0
potential_name = MTP1m
species_count = 1
potential_tag = 
radial_basis_type = RBChebyshev
	min_dist = 2
	max_dist = 5
	radial_basis_size = 8
	radial_funcs_count = 6
	alpha_moments_count = 17366
alpha_index_basic_count = 866
alpha_index_basic = {{0, 0, 0, 0}, {0, 1, 0, 0}, {0, 0, 1, 0}, {0, 0, 0, 1}, {0, 2, 0, 0}, {0, 1, 1, 0}, {0, 1, 0, 1}, {0, 0, 2, 0}, {0, 0, 1, 1}, {0, 0, 0, 2}, {0, 3, 0, 0}, {0, 2, 1, 0}, {0, 2, 0, 1}, {0, 1, 2, 0}, {0, 1, 1, 1}, {0, 1, 0, 2}, {0, 0, 3, 0}, {0, 0, 2, 1}, {0, 0, 1, 2}, {0, 0, 0, 3}, {0, 4, 0, 0}, {0, 3, 1, 0}, {0, 3, 0, 1}, {0, 2, 2, 0}, {0, 2, 1, 1}, {0, 2, 0, 2}, {0, 1, 3, 0}, {0, 1, 2, 1}, {0, 1, 1, 2}, {0, 1, 0, 3}, {0, 0, 4, 0}, {0, 0, 3, 1}, {0, 0, 2, 2}, {0, 0, 1, 3}, {0, 0, 0, 4}, {0, 5, 0, 0}, {0, 4, 1, 0}, {0, 4, 0, 1}, {0, 3, 2, 0}, {0, 3, 1, 1}, {0, 3, 0, 2}, {0, 2, 3, 0}, {0, 2, 2, 1}, {0, 2, 1, 2}, {0, 2, 0, 3}, {0, 1, 4, 0}, {0, 1, 3, 1}, {0, 1, 2, 2}, {0, 1, 1, 3}, {0, 1, 0, 4}, {0, 0, 5, 0}, {0, 0, 4, 1}, {0, 0, 3, 2}, {0, 0, 2, 3}, {0, 0, 1, 4}, {0, 0, 0, 5}, {0, 6, 0, 0}, {0, 5, 1, 0}, {0, 5, 0, 1}, {0, 4, 2, 0}, {0, 4, 1, 1}, {0, 4, 0, 2}, {0, 3, 3, 0}, {0, 3, 2, 1}, {0, 3, 1, 2}, {0, 3, 0, 3}, {0, 2, 4, 0}, {0, 2, 3, 1}, {0, 2, 2, 2}, {0, 2, 1, 3}, {0, 2, 0, 4}, {0, 1, 5, 0}, {0, 1, 4, 1}, {0, 1, 3, 2}, {0, 1, 2, 3}, {0, 1, 1, 4}, {0, 1, 0, 5}, {0, 0, 6, 0}, {0, 0, 5, 1}, {0, 0, 4, 2}, {0, 0, 3, 3}, {0, 0, 2, 4}, {0, 0, 1, 5}, {0, 0, 0, 6}, {0, 7, 0, 0}, {0, 6, 1, 0}, {0, 6, 0, 1}, {0, 5, 2, 0}, {0, 5, 1, 1}, {0, 5, 0, 2}, {0, 4, 3, 0}, {0, 4, 2, 1}, {0, 4, 1, 2}, {0, 4, 0, 3}, {0, 3, 4, 0}, {0, 3, 3, 1}, {0, 3, 2, 2}, {0, 3, 1, 3}, {0, 3, 0, 4}, {0, 2, 5, 0}, {0, 2, 4, 1}, {0, 2, 3, 2}, {0, 2, 2, 3}, {0, 2, 1, 4}, {0, 2, 0, 5}, {0, 1, 6, 0}, {0, 1, 5, 1}, {0, 1, 4, 2}, {0, 1, 3, 3}, {0, 1, 2, 4}, {0, 1, 1, 5}, {0, 1, 0, 6}, {0, 0, 7, 0}, {0, 0, 6, 1}, {0, 0, 5, 2}, {0, 0, 4, 3}, {0, 0, 3, 4}, {0, 0, 2, 5}, {0, 0, 1, 6}, {0, 0, 0, 7}, {0, 8, 0, 0}, {0, 7, 1, 0}, {0, 7, 0, 1}, {0, 6, 2, 0}, {0, 6, 1, 1}, {0, 6, 0, 2}, {0, 5, 3, 0}, {0, 5, 2, 1}, {0, 5, 1, 2}, {0, 5, 0, 3}, {0, 4, 4, 0}, {0, 4, 3, 1}, {0, 4, 2, 2}, {0, 4, 1, 3}, {0, 4, 0, 4}, {0, 3, 5, 0}, {0, 3, 4, 1}, {0, 3, 3, 2}, {0, 3, 2, 3}, {0, 3, 1, 4}, {0, 3, 0, 5}, {0, 2, 6, 0}, {0, 2, 5, 1}, {0, 2, 4, 2}, {0, 2, 3, 3}, {0, 2, 2, 4}, {0, 2, 1, 5}, {0, 2, 0, 6}, {0, 1, 7, 0}, {0, 1, 6, 1}, {0, 1, 5, 2}, {0, 1, 4, 3}, {0, 1, 3, 4}, {0, 1, 2, 5}, {0, 1, 1, 6}, {0, 1, 0, 7}, {0, 0, 8, 0}, {0, 0, 7, 1}, {0, 0, 6, 2}, {0, 0, 5, 3}, {0, 0, 4, 4}, {0, 0, 3, 5}, {0, 0, 2, 6}, {0, 0, 1, 7}, {0, 0, 0, 8}, {0, 9, 0, 0}, {0, 8, 1, 0}, {0, 8, 0, 1}, {0, 7, 2, 0}, {0, 7, 1, 1}, {0, 7, 0, 2}, {0, 6, 3, 0}, {0, 6, 2, 1}, {0, 6, 1, 2}, {0, 6, 0, 3}, {0, 5, 4, 0}, {0, 5, 3, 1}, {0, 5, 2, 2}, {0, 5, 1, 3}, {0, 5, 0, 4}, {0, 4, 5, 0}, {0, 4, 4, 1}, {0, 4, 3, 2}, {0, 4, 2, 3}, {0, 4, 1, 4}, {0, 4, 0, 5}, {0, 3, 6, 0}, {0, 3, 5, 1}, {0, 3, 4, 2}, {0, 3, 3, 3}, {0, 3, 2, 4}, {0, 3, 1, 5}, {0, 3, 0, 6}, {0, 2, 7, 0}, {0, 2, 6, 1}, {0, 2, 5, 2}, {0, 2, 4, 3}, {0, 2, 3, 4}, {0, 2, 2, 5}, {0, 2, 1, 6}, {0, 2, 0, 7}, {0, 1, 8, 0}, {0, 1, 7, 1}, {0, 1, 6, 2}, {0, 1, 5, 3}, {0, 1, 4, 4}, {0, 1, 3, 5}, {0, 1, 2, 6}, {0, 1, 1, 7}, {0, 1, 0, 8}, {0, 0, 9, 0}, {0, 0, 8, 1}, {0, 0, 7, 2}, {0, 0, 6, 3}, {0, 0, 5, 4}, {0, 0, 4, 5}, {0, 0, 3, 6}, {0, 0, 2, 7}, {0, 0, 1, 8}, {0, 0, 0, 9}, {0, 10, 0, 0}, {0, 9, 1, 0}, {0, 9, 0, 1}, {0, 8, 2, 0}, {0, 8, 1, 1}, {0, 8, 0, 2}, {0, 7, 3, 0}, {0, 7, 2, 1}, {0, 7, 1, 2}, {0, 7, 0, 3}, {0, 6, 4, 0}, {0, 6, 3, 1}, {0, 6, 2, 2}, {0, 6, 1, 3}, {0, 6, 0, 4}, {0, 5, 5, 0}, {0, 5, 4, 1}, {0, 5, 3, 2}, {0, 5, 2, 3}, {0, 5, 1, 4}, {0, 5, 0, 5}, {0, 4, 6, 0}, {0, 4, 5, 1}, {0, 4, 4, 2}, {0, 4, 3, 3}, {0, 4, 2, 4}, {0, 4, 1, 5}, {0, 4, 0, 6}, {0, 3, 7, 0}, {0, 3, 6, 1}, {0, 3, 5, 2}, {0, 3, 4, 3}, {0, 3, 3, 4}, {0, 3, 2, 5}, {0, 3, 1, 6}, {0, 3, 0, 7}, {0, 2, 8, 0}, {0, 2, 7, 1}, {0, 2, 6, 2}, {0, 2, 5, 3}, {0, 2, 4, 4}, {0, 2, 3, 5}, {0, 2, 2, 6}, {0, 2, 1, 7}, {0, 2, 0, 8}, {0, 1, 9, 0}, {0, 1, 8, 1}, {0, 1, 7, 2}, {0, 1, 6, 3}, {0, 1, 5, 4}, {0, 1, 4, 5}, {0, 1, 3, 6}, {0, 1, 2, 7}, {0, 1, 1, 8}, {0, 1, 0, 9}, {0, 0, 10, 0}, {0, 0, 9, 1}, {0, 0, 8, 2}, {0, 0, 7, 3}, {0, 0, 6, 4}, {0, 0, 5, 5}, {0, 0, 4, 6}, {0, 0, 3, 7}, {0, 0, 2, 8}, {0, 0, 1, 9}, {0, 0, 0, 10}, {1, 0, 0, 0}, {1, 1, 0, 0}, {1, 0, 1, 0}, {1, 0, 0, 1}, {1, 2, 0, 0}, {1, 1, 1, 0}, {1, 1, 0, 1}, {1, 0, 2, 0}, {1, 0, 1, 1}, {1, 0, 0, 2}, {1, 3, 0, 0}, {1, 2, 1, 0}, {1, 2, 0, 1}, {1, 1, 2, 0}, {1, 1, 1, 1}, {1, 1, 0, 2}, {1, 0, 3, 0}, {1, 0, 2, 1}, {1, 0, 1, 2}, {1, 0, 0, 3}, {1, 4, 0, 0}, {1, 3, 1, 0}, {1, 3, 0, 1}, {1, 2, 2, 0}, {1, 2, 1, 1}, {1, 2, 0, 2}, {1, 1, 3, 0}, {1, 1, 2, 1}, {1, 1, 1, 2}, {1, 1, 0, 3}, {1, 0, 4, 0}, {1, 0, 3, 1}, {1, 0, 2, 2}, {1, 0, 1, 3}, {1, 0, 0, 4}, {1, 5, 0, 0}, {1, 4, 1, 0}, {1, 4, 0, 1}, {1, 3, 2, 0}, {1, 3, 1, 1}, {1, 3, 0, 2}, {1, 2, 3, 0}, {1, 2, 2, 1}, {1, 2, 1, 2}, {1, 2, 0, 3}, {1, 1, 4, 0}, {1, 1, 3, 1}, {1, 1, 2, 2}, {1, 1, 1, 3}, {1, 1, 0, 4}, {1, 0, 5, 0}, {1, 0, 4, 1}, {1, 0, 3, 2}, {1, 0, 2, 3}, {1, 0, 1, 4}, {1, 0, 0, 5}, {1, 6, 0, 0}, {1, 5, 1, 0}, {1, 5, 0, 1}, {1, 4, 2, 0}, {1, 4, 1, 1}, {1, 4, 0, 2}, {1, 3, 3, 0}, {1, 3, 2, 1}, {1, 3, 1, 2}, {1, 3, 0, 3}, {1, 2, 4, 0}, {1, 2, 3, 1}, {1, 2, 2, 2}, {1, 2, 1, 3}, {1, 2, 0, 4}, {1, 1, 5, 0}, {1, 1, 4, 1}, {1, 1, 3, 2}, {1, 1, 2, 3}, {1, 1, 1, 4}, {1, 1, 0, 5}, {1, 0, 6, 0}, {1, 0, 5, 1}, {1, 0, 4, 2}, {1, 0, 3, 3}, {1, 0, 2, 4}, {1, 0, 1, 5}, {1, 0, 0, 6}, {1, 7, 0, 0}, {1, 6, 1, 0}, {1, 6, 0, 1}, {1, 5, 2, 0}, {1, 5, 1, 1}, {1, 5, 0, 2}, {1, 4, 3, 0}, {1, 4, 2, 1}, {1, 4, 1, 2}, {1, 4, 0, 3}, {1, 3, 4, 0}, {1, 3, 3, 1}, {1, 3, 2, 2}, {1, 3, 1, 3}, {1, 3, 0, 4}, {1, 2, 5, 0}, {1, 2, 4, 1}, {1, 2, 3, 2}, {1, 2, 2, 3}, {1, 2, 1, 4}, {1, 2, 0, 5}, {1, 1, 6, 0}, {1, 1, 5, 1}, {1, 1, 4, 2}, {1, 1, 3, 3}, {1, 1, 2, 4}, {1, 1, 1, 5}, {1, 1, 0, 6}, {1, 0, 7, 0}, {1, 0, 6, 1}, {1, 0, 5, 2}, {1, 0, 4, 3}, {1, 0, 3, 4}, {1, 0, 2, 5}, {1, 0, 1, 6}, {1, 0, 0, 7}, {1, 8, 0, 0}, {1, 7, 1, 0}, {1, 7, 0, 1}, {1, 6, 2, 0}, {1, 6, 1, 1}, {1, 6, 0, 2}, {1, 5, 3, 0}, {1, 5, 2, 1}, {1, 5, 1, 2}, {1, 5, 0, 3}, {1, 4, 4, 0}, {1, 4, 3, 1}, {1, 4, 2, 2}, {1, 4, 1, 3}, {1, 4, 0, 4}, {1, 3, 5, 0}, {1, 3, 4, 1}, {1, 3, 3, 2}, {1, 3, 2, 3}, {1, 3, 1, 4}, {1, 3, 0, 5}, {1, 2, 6, 0}, {1, 2, 5, 1}, {1, 2, 4, 2}, {1, 2, 3, 3}, {1, 2, 2, 4}, {1, 2, 1, 5}, {1, 2, 0, 6}, {1, 1, 7, 0}, {1, 1, 6, 1}, {1, 1, 5, 2}, {1, 1, 4, 3}, {1, 1, 3, 4}, {1, 1, 2, 5}, {1, 1, 1, 6}, {1, 1, 0, 7}, {1, 0, 8, 0}, {1, 0, 7, 1}, {1, 0, 6, 2}, {1, 0, 5, 3}, {1, 0, 4, 4}, {1, 0, 3, 5}, {1, 0, 2, 6}, {1, 0, 1, 7}, {1, 0, 0, 8}, {1, 9, 0, 0}, {1, 8, 1, 0}, {1, 8, 0, 1}, {1, 7, 2, 0}, {1, 7, 1, 1}, {1, 7, 0, 2}, {1, 6, 3, 0}, {1, 6, 2, 1}, {1, 6, 1, 2}, {1, 6, 0, 3}, {1, 5, 4, 0}, {1, 5, 3, 1}, {1, 5, 2, 2}, {1, 5, 1, 3}, {1, 5, 0, 4}, {1, 4, 5, 0}, {1, 4, 4, 1}, {1, 4, 3, 2}, {1, 4, 2, 3}, {1, 4, 1, 4}, {1, 4, 0, 5}, {1, 3, 6, 0}, {1, 3, 5, 1}, {1, 3, 4, 2}, {1, 3, 3, 3}, {1, 3, 2, 4}, {1, 3, 1, 5}, {1, 3, 0, 6}, {1, 2, 7, 0}, {1, 2, 6, 1}, {1, 2, 5, 2}, {1, 2, 4, 3}, {1, 2, 3, 4}, {1, 2, 2, 5}, {1, 2, 1, 6}, {1, 2, 0, 7}, {1, 1, 8, 0}, {1, 1, 7, 1}, {1, 1, 6, 2}, {1, 1, 5, 3}, {1, 1, 4, 4}, {1, 1, 3, 5}, {1, 1, 2, 6}, {1, 1, 1, 7}, {1, 1, 0, 8}, {1, 0, 9, 0}, {1, 0, 8, 1}, {1, 0, 7, 2}, {1, 0, 6, 3}, {1, 0, 5, 4}, {1, 0, 4, 5}, {1, 0, 3, 6}, {1, 0, 2, 7}, {1, 0, 1, 8}, {1, 0, 0, 9}, {1, 10, 0, 0}, {1, 9, 1, 0}, {1, 9, 0, 1}, {1, 8, 2, 0}, {1, 8, 1, 1}, {1, 8, 0, 2}, {1, 7, 3, 0}, {1, 7, 2, 1}, {1, 7, 1, 2}, {1, 7, 0, 3}, {1, 6, 4, 0}, {1, 6, 3, 1}, {1, 6, 2, 2}, {1, 6, 1, 3}, {1, 6, 0, 4}, {1, 5, 5, 0}, {1, 5, 4, 1}, {1, 5, 3, 2}, {1, 5, 2, 3}, {1, 5, 1, 4}, {1, 5, 0, 5}, {1, 4, 6, 0}, {1, 4, 5, 1}, {1, 4, 4, 2}, {1, 4, 3, 3}, {1, 4, 2, 4}, {1, 4, 1, 5}, {1, 4, 0, 6}, {1, 3, 7, 0}, {1, 3, 6, 1}, {1, 3, 5, 2}, {1, 3, 4, 3}, {1, 3, 3, 4}, {1, 3, 2, 5}, {1, 3, 1, 6}, {1, 3, 0, 7}, {1, 2, 8, 0}, {1, 2, 7, 1}, {1, 2, 6, 2}, {1, 2, 5, 3}, {1, 2, 4, 4}, {1, 2, 3, 5}, {1, 2, 2, 6}, {1, 2, 1, 7}, {1, 2, 0, 8}, {1, 1, 9, 0}, {1, 1, 8, 1}, {1, 1, 7, 2}, {1, 1, 6, 3}, {1, 1, 5, 4}, {1, 1, 4, 5}, {1, 1, 3, 6}, {1, 1, 2, 7}, {1, 1, 1, 8}, {1, 1, 0, 9}, {1, 0, 10, 0}, {1, 0, 9, 1}, {1, 0, 8, 2}, {1, 0, 7, 3}, {1, 0, 6, 4}, {1, 0, 5, 5}, {1, 0, 4, 6}, {1, 0, 3, 7}, {1, 0, 2, 8}, {1, 0, 1, 9}, {1, 0, 0, 10}, {2, 0, 0, 0}, {2, 1, 0, 0}, {2, 0, 1, 0}, {2, 0, 0, 1}, {2, 2, 0, 0}, {2, 1, 1, 0}, {2, 1, 0, 1}, {2, 0, 2, 0}, {2, 0, 1, 1}, {2, 0, 0, 2}, {2, 3, 0, 0}, {2, 2, 1, 0}, {2, 2, 0, 1}, {2, 1, 2, 0}, {2, 1, 1, 1}, {2, 1, 0, 2}, {2, 0, 3, 0}, {2, 0, 2, 1}, {2, 0, 1, 2}, {2, 0, 0, 3}, {2, 4, 0, 0}, {2, 3, 1, 0}, {2, 3, 0, 1}, {2, 2, 2, 0}, {2, 2, 1, 1}, {2, 2, 0, 2}, {2, 1, 3, 0}, {2, 1, 2, 1}, {2, 1, 1, 2}, {2, 1, 0, 3}, {2, 0, 4, 0}, {2, 0, 3, 1}, {2, 0, 2, 2}, {2, 0, 1, 3}, {2, 0, 0, 4}, {2, 5, 0, 0}, {2, 4, 1, 0}, {2, 4, 0, 1}, {2, 3, 2, 0}, {2, 3, 1, 1}, {2, 3, 0, 2}, {2, 2, 3, 0}, {2, 2, 2, 1}, {2, 2, 1, 2}, {2, 2, 0, 3}, {2, 1, 4, 0}, {2, 1, 3, 1}, {2, 1, 2, 2}, {2, 1, 1, 3}, {2, 1, 0, 4}, {2, 0, 5, 0}, {2, 0, 4, 1}, {2, 0, 3, 2}, {2, 0, 2, 3}, {2, 0, 1, 4}, {2, 0, 0, 5}, {2, 6, 0, 0}, {2, 5, 1, 0}, {2, 5, 0, 1}, {2, 4, 2, 0}, {2, 4, 1, 1}, {2, 4, 0, 2}, {2, 3, 3, 0}, {2, 3, 2, 1}, {2, 3, 1, 2}, {2, 3, 0, 3}, {2, 2, 4, 0}, {2, 2, 3, 1}, {2, 2, 2, 2}, {2, 2, 1, 3}, {2, 2, 0, 4}, {2, 1, 5, 0}, {2, 1, 4, 1}, {2, 1, 3, 2}, {2, 1, 2, 3}, {2, 1, 1, 4}, {2, 1, 0, 5}, {2, 0, 6, 0}, {2, 0, 5, 1}, {2, 0, 4, 2}, {2, 0, 3, 3}, {2, 0, 2, 4}, {2, 0, 1, 5}, {2, 0, 0, 6}, {2, 7, 0, 0}, {2, 6, 1, 0}, {2, 6, 0, 1}, {2, 5, 2, 0}, {2, 5, 1, 1}, {2, 5, 0, 2}, {2, 4, 3, 0}, {2, 4, 2, 1}, {2, 4, 1, 2}, {2, 4, 0, 3}, {2, 3, 4, 0}, {2, 3, 3, 1}, {2, 3, 2, 2}, {2, 3, 1, 3}, {2, 3, 0, 4}, {2, 2, 5, 0}, {2, 2, 4, 1}, {2, 2, 3, 2}, {2, 2, 2, 3}, {2, 2, 1, 4}, {2, 2, 0, 5}, {2, 1, 6, 0}, {2, 1, 5, 1}, {2, 1, 4, 2}, {2, 1, 3, 3}, {2, 1, 2, 4}, {2, 1, 1, 5}, {2, 1, 0, 6}, {2, 0, 7, 0}, {2, 0, 6, 1}, {2, 0, 5, 2}, {2, 0, 4, 3}, {2, 0, 3, 4}, {2, 0, 2, 5}, {2, 0, 1, 6}, {2, 0, 0, 7}, {2, 8, 0, 0}, {2, 7, 1, 0}, {2, 7, 0, 1}, {2, 6, 2, 0}, {2, 6, 1, 1}, {2, 6, 0, 2}, {2, 5, 3, 0}, {2, 5, 2, 1}, {2, 5, 1, 2}, {2, 5, 0, 3}, {2, 4, 4, 0}, {2, 4, 3, 1}, {2, 4, 2, 2}, {2, 4, 1, 3}, {2, 4, 0, 4}, {2, 3, 5, 0}, {2, 3, 4, 1}, {2, 3, 3, 2}, {2, 3, 2, 3}, {2, 3, 1, 4}, {2, 3, 0, 5}, {2, 2, 6, 0}, {2, 2, 5, 1}, {2, 2, 4, 2}, {2, 2, 3, 3}, {2, 2, 2, 4}, {2, 2, 1, 5}, {2, 2, 0, 6}, {2, 1, 7, 0}, {2, 1, 6, 1}, {2, 1, 5, 2}, {2, 1, 4, 3}, {2, 1, 3, 4}, {2, 1, 2, 5}, {2, 1, 1, 6}, {2, 1, 0, 7}, {2, 0, 8, 0}, {2, 0, 7, 1}, {2, 0, 6, 2}, {2, 0, 5, 3}, {2, 0, 4, 4}, {2, 0, 3, 5}, {2, 0, 2, 6}, {2, 0, 1, 7}, {2, 0, 0, 8}, {3, 0, 0, 0}, {3, 1, 0, 0}, {3, 0, 1, 0}, {3, 0, 0, 1}, {3, 2, 0, 0}, {3, 1, 1, 0}, {3, 1, 0, 1}, {3, 0, 2, 0}, {3, 0, 1, 1}, {3, 0, 0, 2}, {3, 3, 0, 0}, {3, 2, 1, 0}, {3, 2, 0, 1}, {3, 1, 2, 0}, {3, 1, 1, 1}, {3, 1, 0, 2}, {3, 0, 3, 0}, {3, 0, 2, 1}, {3, 0, 1, 2}, {3, 0, 0, 3}, {3, 4, 0, 0}, {3, 3, 1, 0}, {3, 3, 0, 1}, {3, 2, 2, 0}, {3, 2, 1, 1}, {3, 2, 0, 2}, {3, 1, 3, 0}, {3, 1, 2, 1}, {3, 1, 1, 2}, {3, 1, 0, 3}, {3, 0, 4, 0}, {3, 0, 3, 1}, {3, 0, 2, 2}, {3, 0, 1, 3}, {3, 0, 0, 4}, {3, 5, 0, 0}, {3, 4, 1, 0}, {3, 4, 0, 1}, {3, 3, 2, 0}, {3, 3, 1, 1}, {3, 3, 0, 2}, {3, 2, 3, 0}, {3, 2, 2, 1}, {3, 2, 1, 2}, {3, 2, 0, 3}, {3, 1, 4, 0}, {3, 1, 3, 1}, {3, 1, 2, 2}, {3, 1, 1, 3}, {3, 1, 0, 4}, {3, 0, 5, 0}, {3, 0, 4, 1}, {3, 0, 3, 2}, {3, 0, 2, 3}, {3, 0, 1, 4}, {3, 0, 0, 5}, {3, 6, 0, 0}, {3, 5, 1, 0}, {3, 5, 0, 1}, {3, 4, 2, 0}, {3, 4, 1, 1}, {3, 4, 0, 2}, {3, 3, 3, 0}, {3, 3, 2, 1}, {3, 3, 1, 2}, {3, 3, 0, 3}, {3, 2, 4, 0}, {3, 2, 3, 1}, {3, 2, 2, 2}, {3, 2, 1, 3}, {3, 2, 0, 4}, {3, 1, 5, 0}, {3, 1, 4, 1}, {3, 1, 3, 2}, {3, 1, 2, 3}, {3, 1, 1, 4}, {3, 1, 0, 5}, {3, 0, 6, 0}, {3, 0, 5, 1}, {3, 0, 4, 2}, {3, 0, 3, 3}, {3, 0, 2, 4}, {3, 0, 1, 5}, {3, 0, 0, 6}, {4, 0, 0, 0}, {4, 1, 0, 0}, {4, 0, 1, 0}, {4, 0, 0, 1}, {4, 2, 0, 0}, {4, 1, 1, 0}, {4, 1, 0, 1}, {4, 0, 2, 0}, {4, 0, 1, 1}, {4, 0, 0, 2}, {4, 3, 0, 0}, {4, 2, 1, 0}, {4, 2, 0, 1}, {4, 1, 2, 0}, {4, 1, 1, 1}, {4, 1, 0, 2}, {4, 0, 3, 0}, {4, 0, 2, 1}, {4, 0, 1, 2}, {4, 0, 0, 3}, {4, 4, 0, 0}, {4, 3, 1, 0}, {4, 3, 0, 1}, {4, 2, 2, 0}, {4, 2, 1, 1}, {4, 2, 0, 2}, {4, 1, 3, 0}, {4, 1, 2, 1}, {4, 1, 1, 2}, {4, 1, 0, 3}, {4, 0, 4, 0}, {4, 0, 3, 1}, {4, 0, 2, 2}, {4, 0, 1, 3}, {4, 0, 0, 4}, {5, 0, 0, 0}, {5, 1, 0, 0}, {5, 0, 1, 0}, {5, 0, 0, 1}, {5, 2, 0, 0}, {5, 1, 1, 0}, {5, 1, 0, 1}, {5, 0, 2, 0}, {5, 0, 1, 1}, {5, 0, 0, 2}}
alpha_index_times_count = 180069
alpha_index_times = {{0, 0, 1, 866}, {1, 1, 1, 867}, {2, 2, 1, 867}, {3, 3, 1, 867}, {1, 4, 1, 868}, {2, 5, 1, 868}, {3, 6, 1, 868}, {1, 5, 1, 869}, {2, 7, 1, 869}, {3, 8, 1, 869}, {1, 6, 1, 870}, {2, 8, 1, 870}, {3, 9, 1, 870}, {1, 10, 1, 871}, {2, 11, 1, 871}, {3, 12, 1, 871}, {1, 11, 1, 872}, {2, 13, 1, 872}, {3, 14, 1, 872}, {1, 12, 1, 873}, {2, 14, 1, 873}, {3, 15, 1, 873}, {1, 13, 1, 874}, {2, 16, 1, 874}, {3, 17, 1, 874}, {1, 14, 1, 875}, {2, 17, 1, 875}, {3, 18, 1, 875}, {1, 15, 1, 876}, {2, 18, 1, 876}, {3, 19, 1, 876}, {4, 4, 1, 877}, {5, 5, 1, 877}, {6, 6, 1, 877}, {4, 5, 1, 878}, {5, 7, 1, 878}, {6, 8, 1, 878}, {4, 6, 1, 879}, {5, 8, 1, 879}, {6, 9, 1, 879}, {5, 5, 1, 880}, {7, 7, 1, 880}, {8, 8, 1, 880}, {5, 6, 1, 881}, {7, 8, 1, 881}, {8, 9, 1, 881}, {6, 6, 1, 882}, {8, 8, 1, 882}, {9, 9, 1, 882}, {4, 10, 1, 883}, {5, 11, 1, 883}, {6, 12, 1, 883}, {4, 11, 1, 884}, {5, 13, 1, 884}, {6, 14, 1, 884}, {4, 12, 1, 885}, {5, 14, 1, 885}, {6, 15, 1, 885}, {4, 13, 1, 886}, {5, 16, 1, 886}, {6, 17, 1, 886}, {4, 14, 1, 887}, {5, 17, 1, 887}, {6, 18, 1, 887}, {4, 15, 1, 888}, {5, 18, 1, 888}, {6, 19, 1, 888}, {5, 10, 1, 889}, {7, 11, 1, 889}, {8, 12, 1, 889}, {5, 11, 1, 890}, {7, 13, 1, 890}, {8, 14, 1, 890}, {5, 12, 1, 891}, {7, 14, 1, 891}, {8, 15, 1, 891}, {5, 13, 1, 892}, {7, 16, 1, 892}, {8, 17, 1, 892}, {5, 14, 1, 893}, {7, 17, 1, 893}, {8, 18, 1, 893}, {5, 15, 1, 894}, {7, 18, 1, 894}, {8, 19, 1, 894}, {6, 10, 1, 895}, {8, 11, 1, 895}, {9, 12, 1, 895}, {6, 11, 1, 896}, {8, 13, 1, 896}, {9, 14, 1, 896}, {6, 12, 1, 897}, {8, 14, 1, 897}, {9, 15, 1, 897}, {6, 13, 1, 898}, {8, 16, 1, 898}, {9, 17, 1, 898}, {6, 14, 1, 899}, {8, 17, 1, 899}, {9, 18, 1, 899}, {6, 15, 1, 900}, {8, 18, 1, 900}, {9, 19, 1, 900}, {4, 20, 1, 901}, {5, 21, 1, 901}, {6, 22, 1, 901}, {4, 21, 1, 902}, {5, 23, 1, 902}, {6, 24, 1, 902}, {4, 22, 1, 903}, {5, 24, 1, 903}, {6, 25, 1, 903}, {4, 23, 1, 904}, {5, 26, 1, 904}, {6, 27, 1, 904}, {4, 24, 1, 905}, {5, 27, 1, 905}, {6, 28, 1, 905}, {4, 25, 1, 906}, {5, 28, 1, 906}, {6, 29, 1, 906}, {4, 26, 1, 907}, {5, 30, 1, 907}, {6, 31, 1, 907}, {4, 27, 1, 908}, {5, 31, 1, 908}, {6, 32, 1, 908}, {4, 28, 1, 909}, {5, 32, 1, 909}, {6, 33, 1, 909}, {4, 29, 1, 910}, {5, 33, 1, 910}, {6, 34, 1, 910}, {5, 20, 1, 911}, {7, 21, 1, 911}, {8, 22, 1, 911}, {5, 21, 1, 912}, {7, 23, 1, 912}, {8, 24, 1, 912}, {5, 22, 1, 913}, {7, 24, 1, 913}, {8, 25, 1, 913}, {5, 23, 1, 914}, {7, 26, 1, 914}, {8, 27, 1, 914}, {5, 24, 1, 915}, {7, 27, 1, 915}, {8, 28, 1, 915}, {5, 25, 1, 916}, {7, 28, 1, 916}, {8, 29, 1, 916}, {5, 26, 1, 917}, {7, 30, 1, 917}, {8, 31, 1, 917}, {5, 27, 1, 918}, {7, 31, 1, 918}, {8, 32, 1, 918}, {5, 28, 1, 919}, {7, 32, 1, 919}, {8, 33, 1, 919}, {5, 29, 1, 920}, {7, 33, 1, 920}, {8, 34, 1, 920}, {6, 20, 1, 921}, {8, 21, 1, 921}, {9, 22, 1, 921}, {6, 21, 1, 922}, {8, 23, 1, 922}, {9, 24, 1, 922}, {6, 22, 1, 923}, {8, 24, 1, 923}, {9, 25, 1, 923}, {6, 23, 1, 924}, {8, 26, 1, 924}, {9, 27, 1, 924}, {6, 24, 1, 925}, {8, 27, 1, 925}, {9, 28, 1, 925}, {6, 25, 1, 926}, {8, 28, 1, 926}, {9, 29, 1, 926}, {6, 26, 1, 927}, {8, 30, 1, 927}, {9, 31, 1, 927}, {6, 27, 1, 928}, {8, 31, 1, 928}, {9, 32, 1, 928}, {6, 28, 1, 929}, {8, 32, 1, 929}, {9, 33, 1, 929}, {6, 29, 1, 930}, {8, 33, 1, 930}, {9, 34, 1, 930}, {4, 4, 1, 931}, {5, 5, 2, 931}, {6, 6, 2, 931}, {7, 7, 1, 931}, {8, 8, 2, 931}, {9, 9, 1, 931}, {4, 10, 1, 932}, {5, 11, 2, 932}, {6, 12, 2, 932}, {7, 13, 1, 932}, {8, 14, 2, 932}, {9, 15, 1, 932}, {4, 11, 1, 933}, {5, 13, 2, 933}, {6, 14, 2, 933}, {7, 16, 1, 933}, {8, 17, 2, 933}, {9, 18, 1, 933}, {4, 12, 1, 934}, {5, 14, 2, 934}, {6, 15, 2, 934}, {7, 17, 1, 934}, {8, 18, 2, 934}, {9, 19, 1, 934}, {4, 20, 1, 935}, {5, 21, 2, 935}, {6, 22, 2, 935}, {7, 23, 1, 935}, {8, 24, 2, 935}, {9, 25, 1, 935}, {4, 21, 1, 936}, {5, 23, 2, 936}, {6, 24, 2, 936}, {7, 26, 1, 936}, {8, 27, 2, 936}, {9, 28, 1, 936}, {4, 22, 1, 937}, {5, 24, 2, 937}, {6, 25, 2, 937}, {7, 27, 1, 937}, {8, 28, 2, 937}, {9, 29, 1, 937}, {4, 23, 1, 938}, {5, 26, 2, 938}, {6, 27, 2, 938}, {7, 30, 1, 938}, {8, 31, 2, 938}, {9, 32, 1, 938}, {4, 24, 1, 939}, {5, 27, 2, 939}, {6, 28, 2, 939}, {7, 31, 1, 939}, {8, 32, 2, 939}, {9, 33, 1, 939}, {4, 25, 1, 940}, {5, 28, 2, 940}, {6, 29, 2, 940}, {7, 32, 1, 940}, {8, 33, 2, 940}, {9, 34, 1, 940}, {4, 35, 1, 941}, {5, 36, 2, 941}, {6, 37, 2, 941}, {7, 38, 1, 941}, {8, 39, 2, 941}, {9, 40, 1, 941}, {4, 36, 1, 942}, {5, 38, 2, 942}, {6, 39, 2, 942}, {7, 41, 1, 942}, {8, 42, 2, 942}, {9, 43, 1, 942}, {4, 37, 1, 943}, {5, 39, 2, 943}, {6, 40, 2, 943}, {7, 42, 1, 943}, {8, 43, 2, 943}, {9, 44, 1, 943}, {4, 38, 1, 944}, {5, 41, 2, 944}, {6, 42, 2, 944}, {7, 45, 1, 944}, {8, 46, 2, 944}, {9, 47, 1, 944}, {4, 39, 1, 945}, {5, 42, 2, 945}, {6, 43, 2, 945}, {7, 46, 1, 945}, {8, 47, 2, 945}, {9, 48, 1, 945}, {4, 40, 1, 946}, {5, 43, 2, 946}, {6, 44, 2, 946}, {7, 47, 1, 946}, {8, 48, 2, 946}, {9, 49, 1, 946}, {4, 41, 1, 947}, {5, 45, 2, 947}, {6, 46, 2, 947}, {7, 50, 1, 947}, {8, 51, 2, 947}, {9, 52, 1, 947}, {4, 42, 1, 948}, {5, 46, 2, 948}, {6, 47, 2, 948}, {7, 51, 1, 948}, {8, 52, 2, 948}, {9, 53, 1, 948}, {4, 43, 1, 949}, {5, 47, 2, 949}, {6, 48, 2, 949}, {7, 52, 1, 949}, {8, 53, 2, 949}, {9, 54, 1, 949}, {4, 44, 1, 950}, {5, 48, 2, 950}, {6, 49, 2, 950}, {7, 53, 1, 950}, {8, 54, 2, 950}, {9, 55, 1, 950}, {4, 56, 1, 951}, {5, 57, 2, 951}, {6, 58, 2, 951}, {7, 59, 1, 951}, {8, 60, 2, 951}, {9, 61, 1, 951}, {4, 57, 1, 952}, {5, 59, 2, 952}, {6, 60, 2, 952}, {7, 62, 1, 952}, {8, 63, 2, 952}, {9, 64, 1, 952}, {4, 58, 1, 953}, {5, 60, 2, 953}, {6, 61, 2, 953}, {7, 63, 1, 953}, {8, 64, 2, 953}, {9, 65, 1, 953}, {4, 59, 1, 954}, {5, 62, 2, 954}, {6, 63, 2, 954}, {7, 66, 1, 954}, {8, 67, 2, 954}, {9, 68, 1, 954}, {4, 60, 1, 955}, {5, 63, 2, 955}, {6, 64, 2, 955}, {7, 67, 1, 955}, {8, 68, 2, 955}, {9, 69, 1, 955}, {4, 61, 1, 956}, {5, 64, 2, 956}, {6, 65, 2, 956}, {7, 68, 1, 956}, {8, 69, 2, 956}, {9, 70, 1, 956}, {4, 62, 1, 957}, {5, 66, 2, 957}, {6, 67, 2, 957}, {7, 71, 1, 957}, {8, 72, 2, 957}, {9, 73, 1, 957}, {4, 63, 1, 958}, {5, 67, 2, 958}, {6, 68, 2, 958}, {7, 72, 1, 958}, {8, 73, 2, 958}, {9, 74, 1, 958}, {4, 64, 1, 959}, {5, 68, 2, 959}, {6, 69, 2, 959}, {7, 73, 1, 959}, {8, 74, 2, 959}, {9, 75, 1, 959}, {4, 65, 1, 960}, {5, 69, 2, 960}, {6, 70, 2, 960}, {7, 74, 1, 960}, {8, 75, 2, 960}, {9, 76, 1, 960}, {4, 66, 1, 961}, {5, 71, 2, 961}, {6, 72, 2, 961}, {7, 77, 1, 961}, {8, 78, 2, 961}, {9, 79, 1, 961}, {4, 67, 1, 962}, {5, 72, 2, 962}, {6, 73, 2, 962}, {7, 78, 1, 962}, {8, 79, 2, 962}, {9, 80, 1, 962}, {4, 68, 1, 963}, {5, 73, 2, 963}, {6, 74, 2, 963}, {7, 79, 1, 963}, {8, 80, 2, 963}, {9, 81, 1, 963}, {4, 69, 1, 964}, {5, 74, 2, 964}, {6, 75, 2, 964}, {7, 80, 1, 964}, {8, 81, 2, 964}, {9, 82, 1, 964}, {4, 70, 1, 965}, {5, 75, 2, 965}, {6, 76, 2, 965}, {7, 81, 1, 965}, {8, 82, 2, 965}, {9, 83, 1, 965}, {10, 10, 1, 966}, {11, 11, 1, 966}, {12, 12, 1, 966}, {10, 11, 1, 967}, {11, 13, 1, 967}, {12, 14, 1, 967}, {10, 12, 1, 968}, {11, 14, 1, 968}, {12, 15, 1, 968}, {10, 13, 1, 969}, {11, 16, 1, 969}, {12, 17, 1, 969}, {10, 14, 1, 970}, {11, 17, 1, 970}, {12, 18, 1, 970}, {10, 15, 1, 971}, {11, 18, 1, 971}, {12, 19, 1, 971}, {11, 11, 1, 972}, {13, 13, 1, 972}, {14, 14, 1, 972}, {11, 12, 1, 973}, {13, 14, 1, 973}, {14, 15, 1, 973}, {11, 13, 1, 974}, {13, 16, 1, 974}, {14, 17, 1, 974}, {11, 14, 1, 975}, {13, 17, 1, 975}, {14, 18, 1, 975}, {11, 15, 1, 976}, {13, 18, 1, 976}, {14, 19, 1, 976}, {12, 12, 1, 977}, {14, 14, 1, 977}, {15, 15, 1, 977}, {12, 13, 1, 978}, {14, 16, 1, 978}, {15, 17, 1, 978}, {12, 14, 1, 979}, {14, 17, 1, 979}, {15, 18, 1, 979}, {12, 15, 1, 980}, {14, 18, 1, 980}, {15, 19, 1, 980}, {13, 13, 1, 981}, {16, 16, 1, 981}, {17, 17, 1, 981}, {13, 14, 1, 982}, {16, 17, 1, 982}, {17, 18, 1, 982}, {13, 15, 1, 983}, {16, 18, 1, 983}, {17, 19, 1, 983}, {14, 14, 1, 984}, {17, 17, 1, 984}, {18, 18, 1, 984}, {14, 15, 1, 985}, {17, 18, 1, 985}, {18, 19, 1, 985}, {15, 15, 1, 986}, {18, 18, 1, 986}, {19, 19, 1, 986}, {10, 10, 1, 987}, {11, 11, 2, 987}, {12, 12, 2, 987}, {13, 13, 1, 987}, {14, 14, 2, 987}, {15, 15, 1, 987}, {10, 11, 1, 988}, {11, 13, 2, 988}, {12, 14, 2, 988}, {13, 16, 1, 988}, {14, 17, 2, 988}, {15, 18, 1, 988}, {10, 12, 1, 989}, {11, 14, 2, 989}, {12, 15, 2, 989}, {13, 17, 1, 989}, {14, 18, 2, 989}, {15, 19, 1, 989}, {11, 11, 1, 990}, {13, 13, 2, 990}, {14, 14, 2, 990}, {16, 16, 1, 990}, {17, 17, 2, 990}, {18, 18, 1, 990}, {11, 12, 1, 991}, {13, 14, 2, 991}, {14, 15, 2, 991}, {16, 17, 1, 991}, {17, 18, 2, 991}, {18, 19, 1, 991}, {12, 12, 1, 992}, {14, 14, 2, 992}, {15, 15, 2, 992}, {17, 17, 1, 992}, {18, 18, 2, 992}, {19, 19, 1, 992}, {10, 20, 1, 993}, {11, 21, 2, 993}, {12, 22, 2, 993}, {13, 23, 1, 993}, {14, 24, 2, 993}, {15, 25, 1, 993}, {10, 21, 1, 994}, {11, 23, 2, 994}, {12, 24, 2, 994}, {13, 26, 1, 994}, {14, 27, 2, 994}, {15, 28, 1, 994}, {10, 22, 1, 995}, {11, 24, 2, 995}, {12, 25, 2, 995}, {13, 27, 1, 995}, {14, 28, 2, 995}, {15, 29, 1, 995}, {10, 23, 1, 996}, {11, 26, 2, 996}, {12, 27, 2, 996}, {13, 30, 1, 996}, {14, 31, 2, 996}, {15, 32, 1, 996}, {10, 24, 1, 997}, {11, 27, 2, 997}, {12, 28, 2, 997}, {13, 31, 1, 997}, {14, 32, 2, 997}, {15, 33, 1, 997}, {10, 25, 1, 998}, {11, 28, 2, 998}, {12, 29, 2, 998}, {13, 32, 1, 998}, {14, 33, 2, 998}, {15, 34, 1, 998}, {11, 20, 1, 999}, {13, 21, 2, 999}, {14, 22, 2, 999}, {16, 23, 1, 999}, {17, 24, 2, 999}, {18, 25, 1, 999}, {11, 21, 1, 1000}, {13, 23, 2, 1000}, {14, 24, 2, 1000}, {16, 26, 1, 1000}, {17, 27, 2, 1000}, {18, 28, 1, 1000}, {11, 22, 1, 1001}, {13, 24, 2, 1001}, {14, 25, 2, 1001}, {16, 27, 1, 1001}, {17, 28, 2, 1001}, {18, 29, 1, 1001}, {11, 23, 1, 1002}, {13, 26, 2, 1002}, {14, 27, 2, 1002}, {16, 30, 1, 1002}, {17, 31, 2, 1002}, {18, 32, 1, 1002}, {11, 24, 1, 1003}, {13, 27, 2, 1003}, {14, 28, 2, 1003}, {16, 31, 1, 1003}, {17, 32, 2, 1003}, {18, 33, 1, 1003}, {11, 25, 1, 1004}, {13, 28, 2, 1004}, {14, 29, 2, 1004}, {16, 32, 1, 1004}, {17, 33, 2, 1004}, {18, 34, 1, 1004}, {12, 20, 1, 1005}, {14, 21, 2, 1005}, {15, 22, 2, 1005}, {17, 23, 1, 1005}, {18, 24, 2, 1005}, {19, 25, 1, 1005}, {12, 21, 1, 1006}, {14, 23, 2, 1006}, {15, 24, 2, 1006}, {17, 26, 1, 1006}, {18, 27, 2, 1006}, {19, 28, 1, 1006}, {12, 22, 1, 1007}, {14, 24, 2, 1007}, {15, 25, 2, 1007}, {17, 27, 1, 1007}, {18, 28, 2, 1007}, {19, 29, 1, 1007}, {12, 23, 1, 1008}, {14, 26, 2, 1008}, {15, 27, 2, 1008}, {17, 30, 1, 1008}, {18, 31, 2, 1008}, {19, 32, 1, 1008}, {12, 24, 1, 1009}, {14, 27, 2, 1009}, {15, 28, 2, 1009}, {17, 31, 1, 1009}, {18, 32, 2, 1009}, {19, 33, 1, 1009}, {12, 25, 1, 1010}, {14, 28, 2, 1010}, {15, 29, 2, 1010}, {17, 32, 1, 1010}, {18, 33, 2, 1010}, {19, 34, 1, 1010}, {10, 35, 1, 1011}, {11, 36, 2, 1011}, {12, 37, 2, 1011}, {13, 38, 1, 1011}, {14, 39, 2, 1011}, {15, 40, 1, 1011}, {10, 36, 1, 1012}, {11, 38, 2, 1012}, {12, 39, 2, 1012}, {13, 41, 1, 1012}, {14, 42, 2, 1012}, {15, 43, 1, 1012}, {10, 37, 1, 1013}, {11, 39, 2, 1013}, {12, 40, 2, 1013}, {13, 42, 1, 1013}, {14, 43, 2, 1013}, {15, 44, 1, 1013}, {10, 38, 1, 1014}, {11, 41, 2, 1014}, {12, 42, 2, 1014}, {13, 45, 1, 1014}, {14, 46, 2, 1014}, {15, 47, 1, 1014}, {10, 39, 1, 1015}, {11, 42, 2, 1015}, {12, 43, 2, 1015}, {13, 46, 1, 1015}, {14, 47, 2, 1015}, {15, 48, 1, 1015}, {10, 40, 1, 1016}, {11, 43, 2, 1016}, {12, 44, 2, 1016}, {13, 47, 1, 1016}, {14, 48, 2, 1016}, {15, 49, 1, 1016}, {10, 41, 1, 1017}, {11, 45, 2, 1017}, {12, 46, 2, 1017}, {13, 50, 1, 1017}, {14, 51, 2, 1017}, {15, 52, 1, 1017}, {10, 42, 1, 1018}, {11, 46, 2, 1018}, {12, 47, 2, 1018}, {13, 51, 1, 1018}, {14, 52, 2, 1018}, {15, 53, 1, 1018}, {10, 43, 1, 1019}, {11, 47, 2, 1019}, {12, 48, 2, 1019}, {13, 52, 1, 1019}, {14, 53, 2, 1019}, {15, 54, 1, 1019}, {10, 44, 1, 1020}, {11, 48, 2, 1020}, {12, 49, 2, 1020}, {13, 53, 1, 1020}, {14, 54, 2, 1020}, {15, 55, 1, 1020}, {11, 35, 1, 1021}, {13, 36, 2, 1021}, {14, 37, 2, 1021}, {16, 38, 1, 1021}, {17, 39, 2, 1021}, {18, 40, 1, 1021}, {11, 36, 1, 1022}, {13, 38, 2, 1022}, {14, 39, 2, 1022}, {16, 41, 1, 1022}, {17, 42, 2, 1022}, {18, 43, 1, 1022}, {11, 37, 1, 1023}, {13, 39, 2, 1023}, {14, 40, 2, 1023}, {16, 42, 1, 1023}, {17, 43, 2, 1023}, {18, 44, 1, 1023}, {11, 38, 1, 1024}, {13, 41, 2, 1024}, {14, 42, 2, 1024}, {16, 45, 1, 1024}, {17, 46, 2, 1024}, {18, 47, 1, 1024}, {11, 39, 1, 1025}, {13, 42, 2, 1025}, {14, 43, 2, 1025}, {16, 46, 1, 1025}, {17, 47, 2, 1025}, {18, 48, 1, 1025}, {11, 40, 1, 1026}, {13, 43, 2, 1026}, {14, 44, 2, 1026}, {16, 47, 1, 1026}, {17, 48, 2, 1026}, {18, 49, 1, 1026}, {11, 41, 1, 1027}, {13, 45, 2, 1027}, {14, 46, 2, 1027}, {16, 50, 1, 1027}, {17, 51, 2, 1027}, {18, 52, 1, 1027}, {11, 42, 1, 1028}, {13, 46, 2, 1028}, {14, 47, 2, 1028}, {16, 51, 1, 1028}, {17, 52, 2, 1028}, {18, 53, 1, 1028}, {11, 43, 1, 1029}, {13, 47, 2, 1029}, {14, 48, 2, 1029}, {16, 52, 1, 1029}, {17, 53, 2, 1029}, {18, 54, 1, 1029}, {11, 44, 1, 1030}, {13, 48, 2, 1030}, {14, 49, 2, 1030}, {16, 53, 1, 1030}, {17, 54, 2, 1030}, {18, 55, 1, 1030}, {12, 35, 1, 1031}, {14, 36, 2, 1031}, {15, 37, 2, 1031}, {17, 38, 1, 1031}, {18, 39, 2, 1031}, {19, 40, 1, 1031}, {12, 36, 1, 1032}, {14, 38, 2, 1032}, {15, 39, 2, 1032}, {17, 41, 1, 1032}, {18, 42, 2, 1032}, {19, 43, 1, 1032}, {12, 37, 1, 1033}, {14, 39, 2, 1033}, {15, 40, 2, 1033}, {17, 42, 1, 1033}, {18, 43, 2, 1033}, {19, 44, 1, 1033}, {12, 38, 1, 1034}, {14, 41, 2, 1034}, {15, 42, 2, 1034}, {17, 45, 1, 1034}, {18, 46, 2, 1034}, {19, 47, 1, 1034}, {12, 39, 1, 1035}, {14, 42, 2, 1035}, {15, 43, 2, 1035}, {17, 46, 1, 1035}, {18, 47, 2, 1035}, {19, 48, 1, 1035}, {12, 40, 1, 1036}, {14, 43, 2, 1036}, {15, 44, 2, 1036}, {17, 47, 1, 1036}, {18, 48, 2, 1036}, {19, 49, 1, 1036}, {12, 41, 1, 1037}, {14, 45, 2, 1037}, {15, 46, 2, 1037}, {17, 50, 1, 1037}, {18, 51, 2, 1037}, {19, 52, 1, 1037}, {12, 42, 1, 1038}, {14, 46, 2, 1038}, {15, 47, 2, 1038}, {17, 51, 1, 1038}, {18, 52, 2, 1038}, {19, 53, 1, 1038}, {12, 43, 1, 1039}, {14, 47, 2, 1039}, {15, 48, 2, 1039}, {17, 52, 1, 1039}, {18, 53, 2, 1039}, {19, 54, 1, 1039}, {12, 44, 1, 1040}, {14, 48, 2, 1040}, {15, 49, 2, 1040}, {17, 53, 1, 1040}, {18, 54, 2, 1040}, {19, 55, 1, 1040}, {10, 56, 1, 1041}, {11, 57, 2, 1041}, {12, 58, 2, 1041}, {13, 59, 1, 1041}, {14, 60, 2, 1041}, {15, 61, 1, 1041}, {10, 57, 1, 1042}, {11, 59, 2, 1042}, {12, 60, 2, 1042}, {13, 62, 1, 1042}, {14, 63, 2, 1042}, {15, 64, 1, 1042}, {10, 58, 1, 1043}, {11, 60, 2, 1043}, {12, 61, 2, 1043}, {13, 63, 1, 1043}, {14, 64, 2, 1043}, {15, 65, 1, 1043}, {10, 59, 1, 1044}, {11, 62, 2, 1044}, {12, 63, 2, 1044}, {13, 66, 1, 1044}, {14, 67, 2, 1044}, {15, 68, 1, 1044}, {10, 60, 1, 1045}, {11, 63, 2, 1045}, {12, 64, 2, 1045}, {13, 67, 1, 1045}, {14, 68, 2, 1045}, {15, 69, 1, 1045}, {10, 61, 1, 1046}, {11, 64, 2, 1046}, {12, 65, 2, 1046}, {13, 68, 1, 1046}, {14, 69, 2, 1046}, {15, 70, 1, 1046}, {10, 62, 1, 1047}, {11, 66, 2, 1047}, {12, 67, 2, 1047}, {13, 71, 1, 1047}, {14, 72, 2, 1047}, {15, 73, 1, 1047}, {10, 63, 1, 1048}, {11, 67, 2, 1048}, {12, 68, 2, 1048}, {13, 72, 1, 1048}, {14, 73, 2, 1048}, {15, 74, 1, 1048}, {10, 64, 1, 1049}, {11, 68, 2, 1049}, {12, 69, 2, 1049}, {13, 73, 1, 1049}, {14, 74, 2, 1049}, {15, 75, 1, 1049}, {10, 65, 1, 1050}, {11, 69, 2, 1050}, {12, 70, 2, 1050}, {13, 74, 1, 1050}, {14, 75, 2, 1050}, {15, 76, 1, 1050}, {10, 66, 1, 1051}, {11, 71, 2, 1051}, {12, 72, 2, 1051}, {13, 77, 1, 1051}, {14, 78, 2, 1051}, {15, 79, 1, 1051}, {10, 67, 1, 1052}, {11, 72, 2, 1052}, {12, 73, 2, 1052}, {13, 78, 1, 1052}, {14, 79, 2, 1052}, {15, 80, 1, 1052}, {10, 68, 1, 1053}, {11, 73, 2, 1053}, {12, 74, 2, 1053}, {13, 79, 1, 1053}, {14, 80, 2, 1053}, {15, 81, 1, 1053}, {10, 69, 1, 1054}, {11, 74, 2, 1054}, {12, 75, 2, 1054}, {13, 80, 1, 1054}, {14, 81, 2, 1054}, {15, 82, 1, 1054}, {10, 70, 1, 1055}, {11, 75, 2, 1055}, {12, 76, 2, 1055}, {13, 81, 1, 1055}, {14, 82, 2, 1055}, {15, 83, 1, 1055}, {11, 56, 1, 1056}, {13, 57, 2, 1056}, {14, 58, 2, 1056}, {16, 59, 1, 1056}, {17, 60, 2, 1056}, {18, 61, 1, 1056}, {11, 57, 1, 1057}, {13, 59, 2, 1057}, {14, 60, 2, 1057}, {16, 62, 1, 1057}, {17, 63, 2, 1057}, {18, 64, 1, 1057}, {11, 58, 1, 1058}, {13, 60, 2, 1058}, {14, 61, 2, 1058}, {16, 63, 1, 1058}, {17, 64, 2, 1058}, {18, 65, 1, 1058}, {11, 59, 1, 1059}, {13, 62, 2, 1059}, {14, 63, 2, 1059}, {16, 66, 1, 1059}, {17, 67, 2, 1059}, {18, 68, 1, 1059}, {11, 60, 1, 1060}, {13, 63, 2, 1060}, {14, 64, 2, 1060}, {16, 67, 1, 1060}, {17, 68, 2, 1060}, {18, 69, 1, 1060}, {11, 61, 1, 1061}, {13, 64, 2, 1061}, {14, 65, 2, 1061}, {16, 68, 1, 1061}, {17, 69, 2, 1061}, {18, 70, 1, 1061}, {11, 62, 1, 1062}, {13, 66, 2, 1062}, {14, 67, 2, 1062}, {16, 71, 1, 1062}, {17, 72, 2, 1062}, {18, 73, 1, 1062}, {11, 63, 1, 1063}, {13, 67, 2, 1063}, {14, 68, 2, 1063}, {16, 72, 1, 1063}, {17, 73, 2, 1063}, {18, 74, 1, 1063}, {11, 64, 1, 1064}, {13, 68, 2, 1064}, {14, 69, 2, 1064}, {16, 73, 1, 1064}, {17, 74, 2, 1064}, {18, 75, 1, 1064}, {11, 65, 1, 1065}, {13, 69, 2, 1065}, {14, 70, 2, 1065}, {16, 74, 1, 1065}, {17, 75, 2, 1065}, {18, 76, 1, 1065}, {11, 66, 1, 1066}, {13, 71, 2, 1066}, {14, 72, 2, 1066}, {16, 77, 1, 1066}, {17, 78, 2, 1066}, {18, 79, 1, 1066}, {11, 67, 1, 1067}, {13, 72, 2, 1067}, {14, 73, 2, 1067}, {16, 78, 1, 1067}, {17, 79, 2, 1067}, {18, 80, 1, 1067}, {11, 68, 1, 1068}, {13, 73, 2, 1068}, {14, 74, 2, 1068}, {16, 79, 1, 1068}, {17, 80, 2, 1068}, {18, 81, 1, 1068}, {11, 69, 1, 1069}, {13, 74, 2, 1069}, {14, 75, 2, 1069}, {16, 80, 1, 1069}, {17, 81, 2, 1069}, {18, 82, 1, 1069}, {11, 70, 1, 1070}, {13, 75, 2, 1070}, {14, 76, 2, 1070}, {16, 81, 1, 1070}, {17, 82, 2, 1070}, {18, 83, 1, 1070}, {12, 56, 1, 1071}, {14, 57, 2, 1071}, {15, 58, 2, 1071}, {17, 59, 1, 1071}, {18, 60, 2, 1071}, {19, 61, 1, 1071}, {12, 57, 1, 1072}, {14, 59, 2, 1072}, {15, 60, 2, 1072}, {17, 62, 1, 1072}, {18, 63, 2, 1072}, {19, 64, 1, 1072}, {12, 58, 1, 1073}, {14, 60, 2, 1073}, {15, 61, 2, 1073}, {17, 63, 1, 1073}, {18, 64, 2, 1073}, {19, 65, 1, 1073}, {12, 59, 1, 1074}, {14, 62, 2, 1074}, {15, 63, 2, 1074}, {17, 66, 1, 1074}, {18, 67, 2, 1074}, {19, 68, 1, 1074}, {12, 60, 1, 1075}, {14, 63, 2, 1075}, {15, 64, 2, 1075}, {17, 67, 1, 1075}, {18, 68, 2, 1075}, {19, 69, 1, 1075}, {12, 61, 1, 1076}, {14, 64, 2, 1076}, {15, 65, 2, 1076}, {17, 68, 1, 1076}, {18, 69, 2, 1076}, {19, 70, 1, 1076}, {12, 62, 1, 1077}, {14, 66, 2, 1077}, {15, 67, 2, 1077}, {17, 71, 1, 1077}, {18, 72, 2, 1077}, {19, 73, 1, 1077}, {12, 63, 1, 1078}, {14, 67, 2, 1078}, {15, 68, 2, 1078}, {17, 72, 1, 1078}, {18, 73, 2, 1078}, {19, 74, 1, 1078}, {12, 64, 1, 1079}, {14, 68, 2, 1079}, {15, 69, 2, 1079}, {17, 73, 1, 1079}, {18, 74, 2, 1079}, {19, 75, 1, 1079}, {12, 65, 1, 1080}, {14, 69, 2, 1080}, {15, 70, 2, 1080}, {17, 74, 1, 1080}, {18, 75, 2, 1080}, {19, 76, 1, 1080}, {12, 66, 1, 1081}, {14, 71, 2, 1081}, {15, 72, 2, 1081}, {17, 77, 1, 1081}, {18, 78, 2, 1081}, {19, 79, 1, 1081}, {12, 67, 1, 1082}, {14, 72, 2, 1082}, {15, 73, 2, 1082}, {17, 78, 1, 1082}, {18, 79, 2, 1082}, {19, 80, 1, 1082}, {12, 68, 1, 1083}, {14, 73, 2, 1083}, {15, 74, 2, 1083}, {17, 79, 1, 1083}, {18, 80, 2, 1083}, {19, 81, 1, 1083}, {12, 69, 1, 1084}, {14, 74, 2, 1084}, {15, 75, 2, 1084}, {17, 80, 1, 1084}, {18, 81, 2, 1084}, {19, 82, 1, 1084}, {12, 70, 1, 1085}, {14, 75, 2, 1085}, {15, 76, 2, 1085}, {17, 81, 1, 1085}, {18, 82, 2, 1085}, {19, 83, 1, 1085}, {10, 84, 1, 1086}, {11, 85, 2, 1086}, {12, 86, 2, 1086}, {13, 87, 1, 1086}, {14, 88, 2, 1086}, {15, 89, 1, 1086}, {10, 85, 1, 1087}, {11, 87, 2, 1087}, {12, 88, 2, 1087}, {13, 90, 1, 1087}, {14, 91, 2, 1087}, {15, 92, 1, 1087}, {10, 86, 1, 1088}, {11, 88, 2, 1088}, {12, 89, 2, 1088}, {13, 91, 1, 1088}, {14, 92, 2, 1088}, {15, 93, 1, 1088}, {10, 87, 1, 1089}, {11, 90, 2, 1089}, {12, 91, 2, 1089}, {13, 94, 1, 1089}, {14, 95, 2, 1089}, {15, 96, 1, 1089}, {10, 88, 1, 1090}, {11, 91, 2, 1090}, {12, 92, 2, 1090}, {13, 95, 1, 1090}, {14, 96, 2, 1090}, {15, 97, 1, 1090}, {10, 89, 1, 1091}, {11, 92, 2, 1091}, {12, 93, 2, 1091}, {13, 96, 1, 1091}, {14, 97, 2, 1091}, {15, 98, 1, 1091}, {10, 90, 1, 1092}, {11, 94, 2, 1092}, {12, 95, 2, 1092}, {13, 99, 1, 1092}, {14, 100, 2, 1092}, {15, 101, 1, 1092}, {10, 91, 1, 1093}, {11, 95, 2, 1093}, {12, 96, 2, 1093}, {13, 100, 1, 1093}, {14, 101, 2, 1093}, {15, 102, 1, 1093}, {10, 92, 1, 1094}, {11, 96, 2, 1094}, {12, 97, 2, 1094}, {13, 101, 1, 1094}, {14, 102, 2, 1094}, {15, 103, 1, 1094}, {10, 93, 1, 1095}, {11, 97, 2, 1095}, {12, 98, 2, 1095}, {13, 102, 1, 1095}, {14, 103, 2, 1095}, {15, 104, 1, 1095}, {10, 94, 1, 1096}, {11, 99, 2, 1096}, {12, 100, 2, 1096}, {13, 105, 1, 1096}, {14, 106, 2, 1096}, {15, 107, 1, 1096}, {10, 95, 1, 1097}, {11, 100, 2, 1097}, {12, 101, 2, 1097}, {13, 106, 1, 1097}, {14, 107, 2, 1097}, {15, 108, 1, 1097}, {10, 96, 1, 1098}, {11, 101, 2, 1098}, {12, 102, 2, 1098}, {13, 107, 1, 1098}, {14, 108, 2, 1098}, {15, 109, 1, 1098}, {10, 97, 1, 1099}, {11, 102, 2, 1099}, {12, 103, 2, 1099}, {13, 108, 1, 1099}, {14, 109, 2, 1099}, {15, 110, 1, 1099}, {10, 98, 1, 1100}, {11, 103, 2, 1100}, {12, 104, 2, 1100}, {13, 109, 1, 1100}, {14, 110, 2, 1100}, {15, 111, 1, 1100}, {10, 99, 1, 1101}, {11, 105, 2, 1101}, {12, 106, 2, 1101}, {13, 112, 1, 1101}, {14, 113, 2, 1101}, {15, 114, 1, 1101}, {10, 100, 1, 1102}, {11, 106, 2, 1102}, {12, 107, 2, 1102}, {13, 113, 1, 1102}, {14, 114, 2, 1102}, {15, 115, 1, 1102}, {10, 101, 1, 1103}, {11, 107, 2, 1103}, {12, 108, 2, 1103}, {13, 114, 1, 1103}, {14, 115, 2, 1103}, {15, 116, 1, 1103}, {10, 102, 1, 1104}, {11, 108, 2, 1104}, {12, 109, 2, 1104}, {13, 115, 1, 1104}, {14, 116, 2, 1104}, {15, 117, 1, 1104}, {10, 103, 1, 1105}, {11, 109, 2, 1105}, {12, 110, 2, 1105}, {13, 116, 1, 1105}, {14, 117, 2, 1105}, {15, 118, 1, 1105}, {10, 104, 1, 1106}, {11, 110, 2, 1106}, {12, 111, 2, 1106}, {13, 117, 1, 1106}, {14, 118, 2, 1106}, {15, 119, 1, 1106}, {11, 84, 1, 1107}, {13, 85, 2, 1107}, {14, 86, 2, 1107}, {16, 87, 1, 1107}, {17, 88, 2, 1107}, {18, 89, 1, 1107}, {11, 85, 1, 1108}, {13, 87, 2, 1108}, {14, 88, 2, 1108}, {16, 90, 1, 1108}, {17, 91, 2, 1108}, {18, 92, 1, 1108}, {11, 86, 1, 1109}, {13, 88, 2, 1109}, {14, 89, 2, 1109}, {16, 91, 1, 1109}, {17, 92, 2, 1109}, {18, 93, 1, 1109}, {11, 87, 1, 1110}, {13, 90, 2, 1110}, {14, 91, 2, 1110}, {16, 94, 1, 1110}, {17, 95, 2, 1110}, {18, 96, 1, 1110}, {11, 88, 1, 1111}, {13, 91, 2, 1111}, {14, 92, 2, 1111}, {16, 95, 1, 1111}, {17, 96, 2, 1111}, {18, 97, 1, 1111}, {11, 89, 1, 1112}, {13, 92, 2, 1112}, {14, 93, 2, 1112}, {16, 96, 1, 1112}, {17, 97, 2, 1112}, {18, 98, 1, 1112}, {11, 90, 1, 1113}, {13, 94, 2, 1113}, {14, 95, 2, 1113}, {16, 99, 1, 1113}, {17, 100, 2, 1113}, {18, 101, 1, 1113}, {11, 91, 1, 1114}, {13, 95, 2, 1114}, {14, 96, 2, 1114}, {16, 100, 1, 1114}, {17, 101, 2, 1114}, {18, 102, 1, 1114}, {11, 92, 1, 1115}, {13, 96, 2, 1115}, {14, 97, 2, 1115}, {16, 101, 1, 1115}, {17, 102, 2, 1115}, {18, 103, 1, 1115}, {11, 93, 1, 1116}, {13, 97, 2, 1116}, {14, 98, 2, 1116}, {16, 102, 1, 1116}, {17, 103, 2, 1116}, {18, 104, 1, 1116}, {11, 94, 1, 1117}, {13, 99, 2, 1117}, {14, 100, 2, 1117}, {16, 105, 1, 1117}, {17, 106, 2, 1117}, {18, 107, 1, 1117}, {11, 95, 1, 1118}, {13, 100, 2, 1118}, {14, 101, 2, 1118}, {16, 106, 1, 1118}, {17, 107, 2, 1118}, {18, 108, 1, 1118}, {11, 96, 1, 1119}, {13, 101, 2, 1119}, {14, 102, 2, 1119}, {16, 107, 1, 1119}, {17, 108, 2, 1119}, {18, 109, 1, 1119}, {11, 97, 1, 1120}, {13, 102, 2, 1120}, {14, 103, 2, 1120}, {16, 108, 1, 1120}, {17, 109, 2, 1120}, {18, 110, 1, 1120}, {11, 98, 1, 1121}, {13, 103, 2, 1121}, {14, 104, 2, 1121}, {16, 109, 1, 1121}, {17, 110, 2, 1121}, {18, 111, 1, 1121}, {11, 99, 1, 1122}, {13, 105, 2, 1122}, {14, 106, 2, 1122}, {16, 112, 1, 1122}, {17, 113, 2, 1122}, {18, 114, 1, 1122}, {11, 100, 1, 1123}, {13, 106, 2, 1123}, {14, 107, 2, 1123}, {16, 113, 1, 1123}, {17, 114, 2, 1123}, {18, 115, 1, 1123}, {11, 101, 1, 1124}, {13, 107, 2, 1124}, {14, 108, 2, 1124}, {16, 114, 1, 1124}, {17, 115, 2, 1124}, {18, 116, 1, 1124}, {11, 102, 1, 1125}, {13, 108, 2, 1125}, {14, 109, 2, 1125}, {16, 115, 1, 1125}, {17, 116, 2, 1125}, {18, 117, 1, 1125}, {11, 103, 1, 1126}, {13, 109, 2, 1126}, {14, 110, 2, 1126}, {16, 116, 1, 1126}, {17, 117, 2, 1126}, {18, 118, 1, 1126}, {11, 104, 1, 1127}, {13, 110, 2, 1127}, {14, 111, 2, 1127}, {16, 117, 1, 1127}, {17, 118, 2, 1127}, {18, 119, 1, 1127}, {12, 84, 1, 1128}, {14, 85, 2, 1128}, {15, 86, 2, 1128}, {17, 87, 1, 1128}, {18, 88, 2, 1128}, {19, 89, 1, 1128}, {12, 85, 1, 1129}, {14, 87, 2, 1129}, {15, 88, 2, 1129}, {17, 90, 1, 1129}, {18, 91, 2, 1129}, {19, 92, 1, 1129}, {12, 86, 1, 1130}, {14, 88, 2, 1130}, {15, 89, 2, 1130}, {17, 91, 1, 1130}, {18, 92, 2, 1130}, {19, 93, 1, 1130}, {12, 87, 1, 1131}, {14, 90, 2, 1131}, {15, 91, 2, 1131}, {17, 94, 1, 1131}, {18, 95, 2, 1131}, {19, 96, 1, 1131}, {12, 88, 1, 1132}, {14, 91, 2, 1132}, {15, 92, 2, 1132}, {17, 95, 1, 1132}, {18, 96, 2, 1132}, {19, 97, 1, 1132}, {12, 89, 1, 1133}, {14, 92, 2, 1133}, {15, 93, 2, 1133}, {17, 96, 1, 1133}, {18, 97, 2, 1133}, {19, 98, 1, 1133}, {12, 90, 1, 1134}, {14, 94, 2, 1134}, {15, 95, 2, 1134}, {17, 99, 1, 1134}, {18, 100, 2, 1134}, {19, 101, 1, 1134}, {12, 91, 1, 1135}, {14, 95, 2, 1135}, {15, 96, 2, 1135}, {17, 100, 1, 1135}, {18, 101, 2, 1135}, {19, 102, 1, 1135}, {12, 92, 1, 1136}, {14, 96, 2, 1136}, {15, 97, 2, 1136}, {17, 101, 1, 1136}, {18, 102, 2, 1136}, {19, 103, 1, 1136}, {12, 93, 1, 1137}, {14, 97, 2, 1137}, {15, 98, 2, 1137}, {17, 102, 1, 1137}, {18, 103, 2, 1137}, {19, 104, 1, 1137}, {12, 94, 1, 1138}, {14, 99, 2, 1138}, {15, 100, 2, 1138}, {17, 105, 1, 1138}, {18, 106, 2, 1138}, {19, 107, 1, 1138}, {12, 95, 1, 1139}, {14, 100, 2, 1139}, {15, 101, 2, 1139}, {17, 106, 1, 1139}, {18, 107, 2, 1139}, {19, 108, 1, 1139}, {12, 96, 1, 1140}, {14, 101, 2, 1140}, {15, 102, 2, 1140}, {17, 107, 1, 1140}, {18, 108, 2, 1140}, {19, 109, 1, 1140}, {12, 97, 1, 1141}, {14, 102, 2, 1141}, {15, 103, 2, 1141}, {17, 108, 1, 1141}, {18, 109, 2, 1141}, {19, 110, 1, 1141}, {12, 98, 1, 1142}, {14, 103, 2, 1142}, {15, 104, 2, 1142}, {17, 109, 1, 1142}, {18, 110, 2, 1142}, {19, 111, 1, 1142}, {12, 99, 1, 1143}, {14, 105, 2, 1143}, {15, 106, 2, 1143}, {17, 112, 1, 1143}, {18, 113, 2, 1143}, {19, 114, 1, 1143}, {12, 100, 1, 1144}, {14, 106, 2, 1144}, {15, 107, 2, 1144}, {17, 113, 1, 1144}, {18, 114, 2, 1144}, {19, 115, 1, 1144}, {12, 101, 1, 1145}, {14, 107, 2, 1145}, {15, 108, 2, 1145}, {17, 114, 1, 1145}, {18, 115, 2, 1145}, {19, 116, 1, 1145}, {12, 102, 1, 1146}, {14, 108, 2, 1146}, {15, 109, 2, 1146}, {17, 115, 1, 1146}, {18, 116, 2, 1146}, {19, 117, 1, 1146}, {12, 103, 1, 1147}, {14, 109, 2, 1147}, {15, 110, 2, 1147}, {17, 116, 1, 1147}, {18, 117, 2, 1147}, {19, 118, 1, 1147}, {12, 104, 1, 1148}, {14, 110, 2, 1148}, {15, 111, 2, 1148}, {17, 117, 1, 1148}, {18, 118, 2, 1148}, {19, 119, 1, 1148}, {10, 10, 1, 1149}, {11, 11, 3, 1149}, {12, 12, 3, 1149}, {13, 13, 3, 1149}, {14, 14, 6, 1149}, {15, 15, 3, 1149}, {16, 16, 1, 1149}, {17, 17, 3, 1149}, {18, 18, 3, 1149}, {19, 19, 1, 1149}, {10, 20, 1, 1150}, {11, 21, 3, 1150}, {12, 22, 3, 1150}, {13, 23, 3, 1150}, {14, 24, 6, 1150}, {15, 25, 3, 1150}, {16, 26, 1, 1150}, {17, 27, 3, 1150}, {18, 28, 3, 1150}, {19, 29, 1, 1150}, {10, 21, 1, 1151}, {11, 23, 3, 1151}, {12, 24, 3, 1151}, {13, 26, 3, 1151}, {14, 27, 6, 1151}, {15, 28, 3, 1151}, {16, 30, 1, 1151}, {17, 31, 3, 1151}, {18, 32, 3, 1151}, {19, 33, 1, 1151}, {10, 22, 1, 1152}, {11, 24, 3, 1152}, {12, 25, 3, 1152}, {13, 27, 3, 1152}, {14, 28, 6, 1152}, {15, 29, 3, 1152}, {16, 31, 1, 1152}, {17, 32, 3, 1152}, {18, 33, 3, 1152}, {19, 34, 1, 1152}, {10, 35, 1, 1153}, {11, 36, 3, 1153}, {12, 37, 3, 1153}, {13, 38, 3, 1153}, {14, 39, 6, 1153}, {15, 40, 3, 1153}, {16, 41, 1, 1153}, {17, 42, 3, 1153}, {18, 43, 3, 1153}, {19, 44, 1, 1153}, {10, 36, 1, 1154}, {11, 38, 3, 1154}, {12, 39, 3, 1154}, {13, 41, 3, 1154}, {14, 42, 6, 1154}, {15, 43, 3, 1154}, {16, 45, 1, 1154}, {17, 46, 3, 1154}, {18, 47, 3, 1154}, {19, 48, 1, 1154}, {10, 37, 1, 1155}, {11, 39, 3, 1155}, {12, 40, 3, 1155}, {13, 42, 3, 1155}, {14, 43, 6, 1155}, {15, 44, 3, 1155}, {16, 46, 1, 1155}, {17, 47, 3, 1155}, {18, 48, 3, 1155}, {19, 49, 1, 1155}, {10, 38, 1, 1156}, {11, 41, 3, 1156}, {12, 42, 3, 1156}, {13, 45, 3, 1156}, {14, 46, 6, 1156}, {15, 47, 3, 1156}, {16, 50, 1, 1156}, {17, 51, 3, 1156}, {18, 52, 3, 1156}, {19, 53, 1, 1156}, {10, 39, 1, 1157}, {11, 42, 3, 1157}, {12, 43, 3, 1157}, {13, 46, 3, 1157}, {14, 47, 6, 1157}, {15, 48, 3, 1157}, {16, 51, 1, 1157}, {17, 52, 3, 1157}, {18, 53, 3, 1157}, {19, 54, 1, 1157}, {10, 40, 1, 1158}, {11, 43, 3, 1158}, {12, 44, 3, 1158}, {13, 47, 3, 1158}, {14, 48, 6, 1158}, {15, 49, 3, 1158}, {16, 52, 1, 1158}, {17, 53, 3, 1158}, {18, 54, 3, 1158}, {19, 55, 1, 1158}, {10, 56, 1, 1159}, {11, 57, 3, 1159}, {12, 58, 3, 1159}, {13, 59, 3, 1159}, {14, 60, 6, 1159}, {15, 61, 3, 1159}, {16, 62, 1, 1159}, {17, 63, 3, 1159}, {18, 64, 3, 1159}, {19, 65, 1, 1159}, {10, 57, 1, 1160}, {11, 59, 3, 1160}, {12, 60, 3, 1160}, {13, 62, 3, 1160}, {14, 63, 6, 1160}, {15, 64, 3, 1160}, {16, 66, 1, 1160}, {17, 67, 3, 1160}, {18, 68, 3, 1160}, {19, 69, 1, 1160}, {10, 58, 1, 1161}, {11, 60, 3, 1161}, {12, 61, 3, 1161}, {13, 63, 3, 1161}, {14, 64, 6, 1161}, {15, 65, 3, 1161}, {16, 67, 1, 1161}, {17, 68, 3, 1161}, {18, 69, 3, 1161}, {19, 70, 1, 1161}, {10, 59, 1, 1162}, {11, 62, 3, 1162}, {12, 63, 3, 1162}, {13, 66, 3, 1162}, {14, 67, 6, 1162}, {15, 68, 3, 1162}, {16, 71, 1, 1162}, {17, 72, 3, 1162}, {18, 73, 3, 1162}, {19, 74, 1, 1162}, {10, 60, 1, 1163}, {11, 63, 3, 1163}, {12, 64, 3, 1163}, {13, 67, 3, 1163}, {14, 68, 6, 1163}, {15, 69, 3, 1163}, {16, 72, 1, 1163}, {17, 73, 3, 1163}, {18, 74, 3, 1163}, {19, 75, 1, 1163}, {10, 61, 1, 1164}, {11, 64, 3, 1164}, {12, 65, 3, 1164}, {13, 68, 3, 1164}, {14, 69, 6, 1164}, {15, 70, 3, 1164}, {16, 73, 1, 1164}, {17, 74, 3, 1164}, {18, 75, 3, 1164}, {19, 76, 1, 1164}, {10, 62, 1, 1165}, {11, 66, 3, 1165}, {12, 67, 3, 1165}, {13, 71, 3, 1165}, {14, 72, 6, 1165}, {15, 73, 3, 1165}, {16, 77, 1, 1165}, {17, 78, 3, 1165}, {18, 79, 3, 1165}, {19, 80, 1, 1165}, {10, 63, 1, 1166}, {11, 67, 3, 1166}, {12, 68, 3, 1166}, {13, 72, 3, 1166}, {14, 73, 6, 1166}, {15, 74, 3, 1166}, {16, 78, 1, 1166}, {17, 79, 3, 1166}, {18, 80, 3, 1166}, {19, 81, 1, 1166}, {10, 64, 1, 1167}, {11, 68, 3, 1167}, {12, 69, 3, 1167}, {13, 73, 3, 1167}, {14, 74, 6, 1167}, {15, 75, 3, 1167}, {16, 79, 1, 1167}, {17, 80, 3, 1167}, {18, 81, 3, 1167}, {19, 82, 1, 1167}, {10, 65, 1, 1168}, {11, 69, 3, 1168}, {12, 70, 3, 1168}, {13, 74, 3, 1168}, {14, 75, 6, 1168}, {15, 76, 3, 1168}, {16, 80, 1, 1168}, {17, 81, 3, 1168}, {18, 82, 3, 1168}, {19, 83, 1, 1168}, {10, 84, 1, 1169}, {11, 85, 3, 1169}, {12, 86, 3, 1169}, {13, 87, 3, 1169}, {14, 88, 6, 1169}, {15, 89, 3, 1169}, {16, 90, 1, 1169}, {17, 91, 3, 1169}, {18, 92, 3, 1169}, {19, 93, 1, 1169}, {10, 85, 1, 1170}, {11, 87, 3, 1170}, {12, 88, 3, 1170}, {13, 90, 3, 1170}, {14, 91, 6, 1170}, {15, 92, 3, 1170}, {16, 94, 1, 1170}, {17, 95, 3, 1170}, {18, 96, 3, 1170}, {19, 97, 1, 1170}, {10, 86, 1, 1171}, {11, 88, 3, 1171}, {12, 89, 3, 1171}, {13, 91, 3, 1171}, {14, 92, 6, 1171}, {15, 93, 3, 1171}, {16, 95, 1, 1171}, {17, 96, 3, 1171}, {18, 97, 3, 1171}, {19, 98, 1, 1171}, {10, 87, 1, 1172}, {11, 90, 3, 1172}, {12, 91, 3, 1172}, {13, 94, 3, 1172}, {14, 95, 6, 1172}, {15, 96, 3, 1172}, {16, 99, 1, 1172}, {17, 100, 3, 1172}, {18, 101, 3, 1172}, {19, 102, 1, 1172}, {10, 88, 1, 1173}, {11, 91, 3, 1173}, {12, 92, 3, 1173}, {13, 95, 3, 1173}, {14, 96, 6, 1173}, {15, 97, 3, 1173}, {16, 100, 1, 1173}, {17, 101, 3, 1173}, {18, 102, 3, 1173}, {19, 103, 1, 1173}, {10, 89, 1, 1174}, {11, 92, 3, 1174}, {12, 93, 3, 1174}, {13, 96, 3, 1174}, {14, 97, 6, 1174}, {15, 98, 3, 1174}, {16, 101, 1, 1174}, {17, 102, 3, 1174}, {18, 103, 3, 1174}, {19, 104, 1, 1174}, {10, 90, 1, 1175}, {11, 94, 3, 1175}, {12, 95, 3, 1175}, {13, 99, 3, 1175}, {14, 100, 6, 1175}, {15, 101, 3, 1175}, {16, 105, 1, 1175}, {17, 106, 3, 1175}, {18, 107, 3, 1175}, {19, 108, 1, 1175}, {10, 91, 1, 1176}, {11, 95, 3, 1176}, {12, 96, 3, 1176}, {13, 100, 3, 1176}, {14, 101, 6, 1176}, {15, 102, 3, 1176}, {16, 106, 1, 1176}, {17, 107, 3, 1176}, {18, 108, 3, 1176}, {19, 109, 1, 1176}, {10, 92, 1, 1177}, {11, 96, 3, 1177}, {12, 97, 3, 1177}, {13, 101, 3, 1177}, {14, 102, 6, 1177}, {15, 103, 3, 1177}, {16, 107, 1, 1177}, {17, 108, 3, 1177}, {18, 109, 3, 1177}, {19, 110, 1, 1177}, {10, 93, 1, 1178}, {11, 97, 3, 1178}, {12, 98, 3, 1178}, {13, 102, 3, 1178}, {14, 103, 6, 1178}, {15, 104, 3, 1178}, {16, 108, 1, 1178}, {17, 109, 3, 1178}, {18, 110, 3, 1178}, {19, 111, 1, 1178}, {10, 94, 1, 1179}, {11, 99, 3, 1179}, {12, 100, 3, 1179}, {13, 105, 3, 1179}, {14, 106, 6, 1179}, {15, 107, 3, 1179}, {16, 112, 1, 1179}, {17, 113, 3, 1179}, {18, 114, 3, 1179}, {19, 115, 1, 1179}, {10, 95, 1, 1180}, {11, 100, 3, 1180}, {12, 101, 3, 1180}, {13, 106, 3, 1180}, {14, 107, 6, 1180}, {15, 108, 3, 1180}, {16, 113, 1, 1180}, {17, 114, 3, 1180}, {18, 115, 3, 1180}, {19, 116, 1, 1180}, {10, 96, 1, 1181}, {11, 101, 3, 1181}, {12, 102, 3, 1181}, {13, 107, 3, 1181}, {14, 108, 6, 1181}, {15, 109, 3, 1181}, {16, 114, 1, 1181}, {17, 115, 3, 1181}, {18, 116, 3, 1181}, {19, 117, 1, 1181}, {10, 97, 1, 1182}, {11, 102, 3, 1182}, {12, 103, 3, 1182}, {13, 108, 3, 1182}, {14, 109, 6, 1182}, {15, 110, 3, 1182}, {16, 115, 1, 1182}, {17, 116, 3, 1182}, {18, 117, 3, 1182}, {19, 118, 1, 1182}, {10, 98, 1, 1183}, {11, 103, 3, 1183}, {12, 104, 3, 1183}, {13, 109, 3, 1183}, {14, 110, 6, 1183}, {15, 111, 3, 1183}, {16, 116, 1, 1183}, {17, 117, 3, 1183}, {18, 118, 3, 1183}, {19, 119, 1, 1183}, {10, 120, 1, 1184}, {11, 121, 3, 1184}, {12, 122, 3, 1184}, {13, 123, 3, 1184}, {14, 124, 6, 1184}, {15, 125, 3, 1184}, {16, 126, 1, 1184}, {17, 127, 3, 1184}, {18, 128, 3, 1184}, {19, 129, 1, 1184}, {10, 121, 1, 1185}, {11, 123, 3, 1185}, {12, 124, 3, 1185}, {13, 126, 3, 1185}, {14, 127, 6, 1185}, {15, 128, 3, 1185}, {16, 130, 1, 1185}, {17, 131, 3, 1185}, {18, 132, 3, 1185}, {19, 133, 1, 1185}, {10, 122, 1, 1186}, {11, 124, 3, 1186}, {12, 125, 3, 1186}, {13, 127, 3, 1186}, {14, 128, 6, 1186}, {15, 129, 3, 1186}, {16, 131, 1, 1186}, {17, 132, 3, 1186}, {18, 133, 3, 1186}, {19, 134, 1, 1186}, {10, 123, 1, 1187}, {11, 126, 3, 1187}, {12, 127, 3, 1187}, {13, 130, 3, 1187}, {14, 131, 6, 1187}, {15, 132, 3, 1187}, {16, 135, 1, 1187}, {17, 136, 3, 1187}, {18, 137, 3, 1187}, {19, 138, 1, 1187}, {10, 124, 1, 1188}, {11, 127, 3, 1188}, {12, 128, 3, 1188}, {13, 131, 3, 1188}, {14, 132, 6, 1188}, {15, 133, 3, 1188}, {16, 136, 1, 1188}, {17, 137, 3, 1188}, {18, 138, 3, 1188}, {19, 139, 1, 1188}, {10, 125, 1, 1189}, {11, 128, 3, 1189}, {12, 129, 3, 1189}, {13, 132, 3, 1189}, {14, 133, 6, 1189}, {15, 134, 3, 1189}, {16, 137, 1, 1189}, {17, 138, 3, 1189}, {18, 139, 3, 1189}, {19, 140, 1, 1189}, {10, 126, 1, 1190}, {11, 130, 3, 1190}, {12, 131, 3, 1190}, {13, 135, 3, 1190}, {14, 136, 6, 1190}, {15, 137, 3, 1190}, {16, 141, 1, 1190}, {17, 142, 3, 1190}, {18, 143, 3, 1190}, {19, 144, 1, 1190}, {10, 127, 1, 1191}, {11, 131, 3, 1191}, {12, 132, 3, 1191}, {13, 136, 3, 1191}, {14, 137, 6, 1191}, {15, 138, 3, 1191}, {16, 142, 1, 1191}, {17, 143, 3, 1191}, {18, 144, 3, 1191}, {19, 145, 1, 1191}, {10, 128, 1, 1192}, {11, 132, 3, 1192}, {12, 133, 3, 1192}, {13, 137, 3, 1192}, {14, 138, 6, 1192}, {15, 139, 3, 1192}, {16, 143, 1, 1192}, {17, 144, 3, 1192}, {18, 145, 3, 1192}, {19, 146, 1, 1192}, {10, 129, 1, 1193}, {11, 133, 3, 1193}, {12, 134, 3, 1193}, {13, 138, 3, 1193}, {14, 139, 6, 1193}, {15, 140, 3, 1193}, {16, 144, 1, 1193}, {17, 145, 3, 1193}, {18, 146, 3, 1193}, {19, 147, 1, 1193}, {10, 130, 1, 1194}, {11, 135, 3, 1194}, {12, 136, 3, 1194}, {13, 141, 3, 1194}, {14, 142, 6, 1194}, {15, 143, 3, 1194}, {16, 148, 1, 1194}, {17, 149, 3, 1194}, {18, 150, 3, 1194}, {19, 151, 1, 1194}, {10, 131, 1, 1195}, {11, 136, 3, 1195}, {12, 137, 3, 1195}, {13, 142, 3, 1195}, {14, 143, 6, 1195}, {15, 144, 3, 1195}, {16, 149, 1, 1195}, {17, 150, 3, 1195}, {18, 151, 3, 1195}, {19, 152, 1, 1195}, {10, 132, 1, 1196}, {11, 137, 3, 1196}, {12, 138, 3, 1196}, {13, 143, 3, 1196}, {14, 144, 6, 1196}, {15, 145, 3, 1196}, {16, 150, 1, 1196}, {17, 151, 3, 1196}, {18, 152, 3, 1196}, {19, 153, 1, 1196}, {10, 133, 1, 1197}, {11, 138, 3, 1197}, {12, 139, 3, 1197}, {13, 144, 3, 1197}, {14, 145, 6, 1197}, {15, 146, 3, 1197}, {16, 151, 1, 1197}, {17, 152, 3, 1197}, {18, 153, 3, 1197}, {19, 154, 1, 1197}, {10, 134, 1, 1198}, {11, 139, 3, 1198}, {12, 140, 3, 1198}, {13, 145, 3, 1198}, {14, 146, 6, 1198}, {15, 147, 3, 1198}, {16, 152, 1, 1198}, {17, 153, 3, 1198}, {18, 154, 3, 1198}, {19, 155, 1, 1198}, {10, 135, 1, 1199}, {11, 141, 3, 1199}, {12, 142, 3, 1199}, {13, 148, 3, 1199}, {14, 149, 6, 1199}, {15, 150, 3, 1199}, {16, 156, 1, 1199}, {17, 157, 3, 1199}, {18, 158, 3, 1199}, {19, 159, 1, 1199}, {10, 136, 1, 1200}, {11, 142, 3, 1200}, {12, 143, 3, 1200}, {13, 149, 3, 1200}, {14, 150, 6, 1200}, {15, 151, 3, 1200}, {16, 157, 1, 1200}, {17, 158, 3, 1200}, {18, 159, 3, 1200}, {19, 160, 1, 1200}, {10, 137, 1, 1201}, {11, 143, 3, 1201}, {12, 144, 3, 1201}, {13, 150, 3, 1201}, {14, 151, 6, 1201}, {15, 152, 3, 1201}, {16, 158, 1, 1201}, {17, 159, 3, 1201}, {18, 160, 3, 1201}, {19, 161, 1, 1201}, {10, 138, 1, 1202}, {11, 144, 3, 1202}, {12, 145, 3, 1202}, {13, 151, 3, 1202}, {14, 152, 6, 1202}, {15, 153, 3, 1202}, {16, 159, 1, 1202}, {17, 160, 3, 1202}, {18, 161, 3, 1202}, {19, 162, 1, 1202}, {10, 139, 1, 1203}, {11, 145, 3, 1203}, {12, 146, 3, 1203}, {13, 152, 3, 1203}, {14, 153, 6, 1203}, {15, 154, 3, 1203}, {16, 160, 1, 1203}, {17, 161, 3, 1203}, {18, 162, 3, 1203}, {19, 163, 1, 1203}, {10, 140, 1, 1204}, {11, 146, 3, 1204}, {12, 147, 3, 1204}, {13, 153, 3, 1204}, {14, 154, 6, 1204}, {15, 155, 3, 1204}, {16, 161, 1, 1204}, {17, 162, 3, 1204}, {18, 163, 3, 1204}, {19, 164, 1, 1204}, {10, 165, 1, 1205}, {11, 166, 3, 1205}, {12, 167, 3, 1205}, {13, 168, 3, 1205}, {14, 169, 6, 1205}, {15, 170, 3, 1205}, {16, 171, 1, 1205}, {17, 172, 3, 1205}, {18, 173, 3, 1205}, {19, 174, 1, 1205}, {10, 166, 1, 1206}, {11, 168, 3, 1206}, {12, 169, 3, 1206}, {13, 171, 3, 1206}, {14, 172, 6, 1206}, {15, 173, 3, 1206}, {16, 175, 1, 1206}, {17, 176, 3, 1206}, {18, 177, 3, 1206}, {19, 178, 1, 1206}, {10, 167, 1, 1207}, {11, 169, 3, 1207}, {12, 170, 3, 1207}, {13, 172, 3, 1207}, {14, 173, 6, 1207}, {15, 174, 3, 1207}, {16, 176, 1, 1207}, {17, 177, 3, 1207}, {18, 178, 3, 1207}, {19, 179, 1, 1207}, {10, 168, 1, 1208}, {11, 171, 3, 1208}, {12, 172, 3, 1208}, {13, 175, 3, 1208}, {14, 176, 6, 1208}, {15, 177, 3, 1208}, {16, 180, 1, 1208}, {17, 181, 3, 1208}, {18, 182, 3, 1208}, {19, 183, 1, 1208}, {10, 169, 1, 1209}, {11, 172, 3, 1209}, {12, 173, 3, 1209}, {13, 176, 3, 1209}, {14, 177, 6, 1209}, {15, 178, 3, 1209}, {16, 181, 1, 1209}, {17, 182, 3, 1209}, {18, 183, 3, 1209}, {19, 184, 1, 1209}, {10, 170, 1, 1210}, {11, 173, 3, 1210}, {12, 174, 3, 1210}, {13, 177, 3, 1210}, {14, 178, 6, 1210}, {15, 179, 3, 1210}, {16, 182, 1, 1210}, {17, 183, 3, 1210}, {18, 184, 3, 1210}, {19, 185, 1, 1210}, {10, 171, 1, 1211}, {11, 175, 3, 1211}, {12, 176, 3, 1211}, {13, 180, 3, 1211}, {14, 181, 6, 1211}, {15, 182, 3, 1211}, {16, 186, 1, 1211}, {17, 187, 3, 1211}, {18, 188, 3, 1211}, {19, 189, 1, 1211}, {10, 172, 1, 1212}, {11, 176, 3, 1212}, {12, 177, 3, 1212}, {13, 181, 3, 1212}, {14, 182, 6, 1212}, {15, 183, 3, 1212}, {16, 187, 1, 1212}, {17, 188, 3, 1212}, {18, 189, 3, 1212}, {19, 190, 1, 1212}, {10, 173, 1, 1213}, {11, 177, 3, 1213}, {12, 178, 3, 1213}, {13, 182, 3, 1213}, {14, 183, 6, 1213}, {15, 184, 3, 1213}, {16, 188, 1, 1213}, {17, 189, 3, 1213}, {18, 190, 3, 1213}, {19, 191, 1, 1213}, {10, 174, 1, 1214}, {11, 178, 3, 1214}, {12, 179, 3, 1214}, {13, 183, 3, 1214}, {14, 184, 6, 1214}, {15, 185, 3, 1214}, {16, 189, 1, 1214}, {17, 190, 3, 1214}, {18, 191, 3, 1214}, {19, 192, 1, 1214}, {10, 175, 1, 1215}, {11, 180, 3, 1215}, {12, 181, 3, 1215}, {13, 186, 3, 1215}, {14, 187, 6, 1215}, {15, 188, 3, 1215}, {16, 193, 1, 1215}, {17, 194, 3, 1215}, {18, 195, 3, 1215}, {19, 196, 1, 1215}, {10, 176, 1, 1216}, {11, 181, 3, 1216}, {12, 182, 3, 1216}, {13, 187, 3, 1216}, {14, 188, 6, 1216}, {15, 189, 3, 1216}, {16, 194, 1, 1216}, {17, 195, 3, 1216}, {18, 196, 3, 1216}, {19, 197, 1, 1216}, {10, 177, 1, 1217}, {11, 182, 3, 1217}, {12, 183, 3, 1217}, {13, 188, 3, 1217}, {14, 189, 6, 1217}, {15, 190, 3, 1217}, {16, 195, 1, 1217}, {17, 196, 3, 1217}, {18, 197, 3, 1217}, {19, 198, 1, 1217}, {10, 178, 1, 1218}, {11, 183, 3, 1218}, {12, 184, 3, 1218}, {13, 189, 3, 1218}, {14, 190, 6, 1218}, {15, 191, 3, 1218}, {16, 196, 1, 1218}, {17, 197, 3, 1218}, {18, 198, 3, 1218}, {19, 199, 1, 1218}, {10, 179, 1, 1219}, {11, 184, 3, 1219}, {12, 185, 3, 1219}, {13, 190, 3, 1219}, {14, 191, 6, 1219}, {15, 192, 3, 1219}, {16, 197, 1, 1219}, {17, 198, 3, 1219}, {18, 199, 3, 1219}, {19, 200, 1, 1219}, {10, 180, 1, 1220}, {11, 186, 3, 1220}, {12, 187, 3, 1220}, {13, 193, 3, 1220}, {14, 194, 6, 1220}, {15, 195, 3, 1220}, {16, 201, 1, 1220}, {17, 202, 3, 1220}, {18, 203, 3, 1220}, {19, 204, 1, 1220}, {10, 181, 1, 1221}, {11, 187, 3, 1221}, {12, 188, 3, 1221}, {13, 194, 3, 1221}, {14, 195, 6, 1221}, {15, 196, 3, 1221}, {16, 202, 1, 1221}, {17, 203, 3, 1221}, {18, 204, 3, 1221}, {19, 205, 1, 1221}, {10, 182, 1, 1222}, {11, 188, 3, 1222}, {12, 189, 3, 1222}, {13, 195, 3, 1222}, {14, 196, 6, 1222}, {15, 197, 3, 1222}, {16, 203, 1, 1222}, {17, 204, 3, 1222}, {18, 205, 3, 1222}, {19, 206, 1, 1222}, {10, 183, 1, 1223}, {11, 189, 3, 1223}, {12, 190, 3, 1223}, {13, 196, 3, 1223}, {14, 197, 6, 1223}, {15, 198, 3, 1223}, {16, 204, 1, 1223}, {17, 205, 3, 1223}, {18, 206, 3, 1223}, {19, 207, 1, 1223}, {10, 184, 1, 1224}, {11, 190, 3, 1224}, {12, 191, 3, 1224}, {13, 197, 3, 1224}, {14, 198, 6, 1224}, {15, 199, 3, 1224}, {16, 205, 1, 1224}, {17, 206, 3, 1224}, {18, 207, 3, 1224}, {19, 208, 1, 1224}, {10, 185, 1, 1225}, {11, 191, 3, 1225}, {12, 192, 3, 1225}, {13, 198, 3, 1225}, {14, 199, 6, 1225}, {15, 200, 3, 1225}, {16, 206, 1, 1225}, {17, 207, 3, 1225}, {18, 208, 3, 1225}, {19, 209, 1, 1225}, {10, 186, 1, 1226}, {11, 193, 3, 1226}, {12, 194, 3, 1226}, {13, 201, 3, 1226}, {14, 202, 6, 1226}, {15, 203, 3, 1226}, {16, 210, 1, 1226}, {17, 211, 3, 1226}, {18, 212, 3, 1226}, {19, 213, 1, 1226}, {10, 187, 1, 1227}, {11, 194, 3, 1227}, {12, 195, 3, 1227}, {13, 202, 3, 1227}, {14, 203, 6, 1227}, {15, 204, 3, 1227}, {16, 211, 1, 1227}, {17, 212, 3, 1227}, {18, 213, 3, 1227}, {19, 214, 1, 1227}, {10, 188, 1, 1228}, {11, 195, 3, 1228}, {12, 196, 3, 1228}, {13, 203, 3, 1228}, {14, 204, 6, 1228}, {15, 205, 3, 1228}, {16, 212, 1, 1228}, {17, 213, 3, 1228}, {18, 214, 3, 1228}, {19, 215, 1, 1228}, {10, 189, 1, 1229}, {11, 196, 3, 1229}, {12, 197, 3, 1229}, {13, 204, 3, 1229}, {14, 205, 6, 1229}, {15, 206, 3, 1229}, {16, 213, 1, 1229}, {17, 214, 3, 1229}, {18, 215, 3, 1229}, {19, 216, 1, 1229}, {10, 190, 1, 1230}, {11, 197, 3, 1230}, {12, 198, 3, 1230}, {13, 205, 3, 1230}, {14, 206, 6, 1230}, {15, 207, 3, 1230}, {16, 214, 1, 1230}, {17, 215, 3, 1230}, {18, 216, 3, 1230}, {19, 217, 1, 1230}, {10, 191, 1, 1231}, {11, 198, 3, 1231}, {12, 199, 3, 1231}, {13, 206, 3, 1231}, {14, 207, 6, 1231}, {15, 208, 3, 1231}, {16, 215, 1, 1231}, {17, 216, 3, 1231}, {18, 217, 3, 1231}, {19, 218, 1, 1231}, {10, 192, 1, 1232}, {11, 199, 3, 1232}, {12, 200, 3, 1232}, {13, 207, 3, 1232}, {14, 208, 6, 1232}, {15, 209, 3, 1232}, {16, 216, 1, 1232}, {17, 217, 3, 1232}, {18, 218, 3, 1232}, {19, 219, 1, 1232}, {20, 20, 1, 1233}, {21, 21, 2, 1233}, {22, 22, 2, 1233}, {23, 23, 1, 1233}, {24, 24, 2, 1233}, {25, 25, 1, 1233}, {20, 21, 1, 1234}, {21, 23, 2, 1234}, {22, 24, 2, 1234}, {23, 26, 1, 1234}, {24, 27, 2, 1234}, {25, 28, 1, 1234}, {20, 22, 1, 1235}, {21, 24, 2, 1235}, {22, 25, 2, 1235}, {23, 27, 1, 1235}, {24, 28, 2, 1235}, {25, 29, 1, 1235}, {20, 23, 1, 1236}, {21, 26, 2, 1236}, {22, 27, 2, 1236}, {23, 30, 1, 1236}, {24, 31, 2, 1236}, {25, 32, 1, 1236}, {20, 24, 1, 1237}, {21, 27, 2, 1237}, {22, 28, 2, 1237}, {23, 31, 1, 1237}, {24, 32, 2, 1237}, {25, 33, 1, 1237}, {20, 25, 1, 1238}, {21, 28, 2, 1238}, {22, 29, 2, 1238}, {23, 32, 1, 1238}, {24, 33, 2, 1238}, {25, 34, 1, 1238}, {21, 21, 1, 1239}, {23, 23, 2, 1239}, {24, 24, 2, 1239}, {26, 26, 1, 1239}, {27, 27, 2, 1239}, {28, 28, 1, 1239}, {21, 22, 1, 1240}, {23, 24, 2, 1240}, {24, 25, 2, 1240}, {26, 27, 1, 1240}, {27, 28, 2, 1240}, {28, 29, 1, 1240}, {21, 23, 1, 1241}, {23, 26, 2, 1241}, {24, 27, 2, 1241}, {26, 30, 1, 1241}, {27, 31, 2, 1241}, {28, 32, 1, 1241}, {21, 24, 1, 1242}, {23, 27, 2, 1242}, {24, 28, 2, 1242}, {26, 31, 1, 1242}, {27, 32, 2, 1242}, {28, 33, 1, 1242}, {21, 25, 1, 1243}, {23, 28, 2, 1243}, {24, 29, 2, 1243}, {26, 32, 1, 1243}, {27, 33, 2, 1243}, {28, 34, 1, 1243}, {22, 22, 1, 1244}, {24, 24, 2, 1244}, {25, 25, 2, 1244}, {27, 27, 1, 1244}, {28, 28, 2, 1244}, {29, 29, 1, 1244}, {22, 23, 1, 1245}, {24, 26, 2, 1245}, {25, 27, 2, 1245}, {27, 30, 1, 1245}, {28, 31, 2, 1245}, {29, 32, 1, 1245}, {22, 24, 1, 1246}, {24, 27, 2, 1246}, {25, 28, 2, 1246}, {27, 31, 1, 1246}, {28, 32, 2, 1246}, {29, 33, 1, 1246}, {22, 25, 1, 1247}, {24, 28, 2, 1247}, {25, 29, 2, 1247}, {27, 32, 1, 1247}, {28, 33, 2, 1247}, {29, 34, 1, 1247}, {23, 23, 1, 1248}, {26, 26, 2, 1248}, {27, 27, 2, 1248}, {30, 30, 1, 1248}, {31, 31, 2, 1248}, {32, 32, 1, 1248}, {23, 24, 1, 1249}, {26, 27, 2, 1249}, {27, 28, 2, 1249}, {30, 31, 1, 1249}, {31, 32, 2, 1249}, {32, 33, 1, 1249}, {23, 25, 1, 1250}, {26, 28, 2, 1250}, {27, 29, 2, 1250}, {30, 32, 1, 1250}, {31, 33, 2, 1250}, {32, 34, 1, 1250}, {24, 24, 1, 1251}, {27, 27, 2, 1251}, {28, 28, 2, 1251}, {31, 31, 1, 1251}, {32, 32, 2, 1251}, {33, 33, 1, 1251}, {24, 25, 1, 1252}, {27, 28, 2, 1252}, {28, 29, 2, 1252}, {31, 32, 1, 1252}, {32, 33, 2, 1252}, {33, 34, 1, 1252}, {25, 25, 1, 1253}, {28, 28, 2, 1253}, {29, 29, 2, 1253}, {32, 32, 1, 1253}, {33, 33, 2, 1253}, {34, 34, 1, 1253}, {20, 35, 1, 1254}, {21, 36, 2, 1254}, {22, 37, 2, 1254}, {23, 38, 1, 1254}, {24, 39, 2, 1254}, {25, 40, 1, 1254}, {20, 36, 1, 1255}, {21, 38, 2, 1255}, {22, 39, 2, 1255}, {23, 41, 1, 1255}, {24, 42, 2, 1255}, {25, 43, 1, 1255}, {20, 37, 1, 1256}, {21, 39, 2, 1256}, {22, 40, 2, 1256}, {23, 42, 1, 1256}, {24, 43, 2, 1256}, {25, 44, 1, 1256}, {20, 38, 1, 1257}, {21, 41, 2, 1257}, {22, 42, 2, 1257}, {23, 45, 1, 1257}, {24, 46, 2, 1257}, {25, 47, 1, 1257}, {20, 39, 1, 1258}, {21, 42, 2, 1258}, {22, 43, 2, 1258}, {23, 46, 1, 1258}, {24, 47, 2, 1258}, {25, 48, 1, 1258}, {20, 40, 1, 1259}, {21, 43, 2, 1259}, {22, 44, 2, 1259}, {23, 47, 1, 1259}, {24, 48, 2, 1259}, {25, 49, 1, 1259}, {20, 41, 1, 1260}, {21, 45, 2, 1260}, {22, 46, 2, 1260}, {23, 50, 1, 1260}, {24, 51, 2, 1260}, {25, 52, 1, 1260}, {20, 42, 1, 1261}, {21, 46, 2, 1261}, {22, 47, 2, 1261}, {23, 51, 1, 1261}, {24, 52, 2, 1261}, {25, 53, 1, 1261}, {20, 43, 1, 1262}, {21, 47, 2, 1262}, {22, 48, 2, 1262}, {23, 52, 1, 1262}, {24, 53, 2, 1262}, {25, 54, 1, 1262}, {20, 44, 1, 1263}, {21, 48, 2, 1263}, {22, 49, 2, 1263}, {23, 53, 1, 1263}, {24, 54, 2, 1263}, {25, 55, 1, 1263}, {21, 35, 1, 1264}, {23, 36, 2, 1264}, {24, 37, 2, 1264}, {26, 38, 1, 1264}, {27, 39, 2, 1264}, {28, 40, 1, 1264}, {21, 36, 1, 1265}, {23, 38, 2, 1265}, {24, 39, 2, 1265}, {26, 41, 1, 1265}, {27, 42, 2, 1265}, {28, 43, 1, 1265}, {21, 37, 1, 1266}, {23, 39, 2, 1266}, {24, 40, 2, 1266}, {26, 42, 1, 1266}, {27, 43, 2, 1266}, {28, 44, 1, 1266}, {21, 38, 1, 1267}, {23, 41, 2, 1267}, {24, 42, 2, 1267}, {26, 45, 1, 1267}, {27, 46, 2, 1267}, {28, 47, 1, 1267}, {21, 39, 1, 1268}, {23, 42, 2, 1268}, {24, 43, 2, 1268}, {26, 46, 1, 1268}, {27, 47, 2, 1268}, {28, 48, 1, 1268}, {21, 40, 1, 1269}, {23, 43, 2, 1269}, {24, 44, 2, 1269}, {26, 47, 1, 1269}, {27, 48, 2, 1269}, {28, 49, 1, 1269}, {21, 41, 1, 1270}, {23, 45, 2, 1270}, {24, 46, 2, 1270}, {26, 50, 1, 1270}, {27, 51, 2, 1270}, {28, 52, 1, 1270}, {21, 42, 1, 1271}, {23, 46, 2, 1271}, {24, 47, 2, 1271}, {26, 51, 1, 1271}, {27, 52, 2, 1271}, {28, 53, 1, 1271}, {21, 43, 1, 1272}, {23, 47, 2, 1272}, {24, 48, 2, 1272}, {26, 52, 1, 1272}, {27, 53, 2, 1272}, {28, 54, 1, 1272}, {21, 44, 1, 1273}, {23, 48, 2, 1273}, {24, 49, 2, 1273}, {26, 53, 1, 1273}, {27, 54, 2, 1273}, {28, 55, 1, 1273}, {22, 35, 1, 1274}, {24, 36, 2, 1274}, {25, 37, 2, 1274}, {27, 38, 1, 1274}, {28, 39, 2, 1274}, {29, 40, 1, 1274}, {22, 36, 1, 1275}, {24, 38, 2, 1275}, {25, 39, 2, 1275}, {27, 41, 1, 1275}, {28, 42, 2, 1275}, {29, 43, 1, 1275}, {22, 37, 1, 1276}, {24, 39, 2, 1276}, {25, 40, 2, 1276}, {27, 42, 1, 1276}, {28, 43, 2, 1276}, {29, 44, 1, 1276}, {22, 38, 1, 1277}, {24, 41, 2, 1277}, {25, 42, 2, 1277}, {27, 45, 1, 1277}, {28, 46, 2, 1277}, {29, 47, 1, 1277}, {22, 39, 1, 1278}, {24, 42, 2, 1278}, {25, 43, 2, 1278}, {27, 46, 1, 1278}, {28, 47, 2, 1278}, {29, 48, 1, 1278}, {22, 40, 1, 1279}, {24, 43, 2, 1279}, {25, 44, 2, 1279}, {27, 47, 1, 1279}, {28, 48, 2, 1279}, {29, 49, 1, 1279}, {22, 41, 1, 1280}, {24, 45, 2, 1280}, {25, 46, 2, 1280}, {27, 50, 1, 1280}, {28, 51, 2, 1280}, {29, 52, 1, 1280}, {22, 42, 1, 1281}, {24, 46, 2, 1281}, {25, 47, 2, 1281}, {27, 51, 1, 1281}, {28, 52, 2, 1281}, {29, 53, 1, 1281}, {22, 43, 1, 1282}, {24, 47, 2, 1282}, {25, 48, 2, 1282}, {27, 52, 1, 1282}, {28, 53, 2, 1282}, {29, 54, 1, 1282}, {22, 44, 1, 1283}, {24, 48, 2, 1283}, {25, 49, 2, 1283}, {27, 53, 1, 1283}, {28, 54, 2, 1283}, {29, 55, 1, 1283}, {23, 35, 1, 1284}, {26, 36, 2, 1284}, {27, 37, 2, 1284}, {30, 38, 1, 1284}, {31, 39, 2, 1284}, {32, 40, 1, 1284}, {23, 36, 1, 1285}, {26, 38, 2, 1285}, {27, 39, 2, 1285}, {30, 41, 1, 1285}, {31, 42, 2, 1285}, {32, 43, 1, 1285}, {23, 37, 1, 1286}, {26, 39, 2, 1286}, {27, 40, 2, 1286}, {30, 42, 1, 1286}, {31, 43, 2, 1286}, {32, 44, 1, 1286}, {23, 38, 1, 1287}, {26, 41, 2, 1287}, {27, 42, 2, 1287}, {30, 45, 1, 1287}, {31, 46, 2, 1287}, {32, 47, 1, 1287}, {23, 39, 1, 1288}, {26, 42, 2, 1288}, {27, 43, 2, 1288}, {30, 46, 1, 1288}, {31, 47, 2, 1288}, {32, 48, 1, 1288}, {23, 40, 1, 1289}, {26, 43, 2, 1289}, {27, 44, 2, 1289}, {30, 47, 1, 1289}, {31, 48, 2, 1289}, {32, 49, 1, 1289}, {23, 41, 1, 1290}, {26, 45, 2, 1290}, {27, 46, 2, 1290}, {30, 50, 1, 1290}, {31, 51, 2, 1290}, {32, 52, 1, 1290}, {23, 42, 1, 1291}, {26, 46, 2, 1291}, {27, 47, 2, 1291}, {30, 51, 1, 1291}, {31, 52, 2, 1291}, {32, 53, 1, 1291}, {23, 43, 1, 1292}, {26, 47, 2, 1292}, {27, 48, 2, 1292}, {30, 52, 1, 1292}, {31, 53, 2, 1292}, {32, 54, 1, 1292}, {23, 44, 1, 1293}, {26, 48, 2, 1293}, {27, 49, 2, 1293}, {30, 53, 1, 1293}, {31, 54, 2, 1293}, {32, 55, 1, 1293}, {24, 35, 1, 1294}, {27, 36, 2, 1294}, {28, 37, 2, 1294}, {31, 38, 1, 1294}, {32, 39, 2, 1294}, {33, 40, 1, 1294}, {24, 36, 1, 1295}, {27, 38, 2, 1295}, {28, 39, 2, 1295}, {31, 41, 1, 1295}, {32, 42, 2, 1295}, {33, 43, 1, 1295}, {24, 37, 1, 1296}, {27, 39, 2, 1296}, {28, 40, 2, 1296}, {31, 42, 1, 1296}, {32, 43, 2, 1296}, {33, 44, 1, 1296}, {24, 38, 1, 1297}, {27, 41, 2, 1297}, {28, 42, 2, 1297}, {31, 45, 1, 1297}, {32, 46, 2, 1297}, {33, 47, 1, 1297}, {24, 39, 1, 1298}, {27, 42, 2, 1298}, {28, 43, 2, 1298}, {31, 46, 1, 1298}, {32, 47, 2, 1298}, {33, 48, 1, 1298}, {24, 40, 1, 1299}, {27, 43, 2, 1299}, {28, 44, 2, 1299}, {31, 47, 1, 1299}, {32, 48, 2, 1299}, {33, 49, 1, 1299}, {24, 41, 1, 1300}, {27, 45, 2, 1300}, {28, 46, 2, 1300}, {31, 50, 1, 1300}, {32, 51, 2, 1300}, {33, 52, 1, 1300}, {24, 42, 1, 1301}, {27, 46, 2, 1301}, {28, 47, 2, 1301}, {31, 51, 1, 1301}, {32, 52, 2, 1301}, {33, 53, 1, 1301}, {24, 43, 1, 1302}, {27, 47, 2, 1302}, {28, 48, 2, 1302}, {31, 52, 1, 1302}, {32, 53, 2, 1302}, {33, 54, 1, 1302}, {24, 44, 1, 1303}, {27, 48, 2, 1303}, {28, 49, 2, 1303}, {31, 53, 1, 1303}, {32, 54, 2, 1303}, {33, 55, 1, 1303}, {25, 35, 1, 1304}, {28, 36, 2, 1304}, {29, 37, 2, 1304}, {32, 38, 1, 1304}, {33, 39, 2, 1304}, {34, 40, 1, 1304}, {25, 36, 1, 1305}, {28, 38, 2, 1305}, {29, 39, 2, 1305}, {32, 41, 1, 1305}, {33, 42, 2, 1305}, {34, 43, 1, 1305}, {25, 37, 1, 1306}, {28, 39, 2, 1306}, {29, 40, 2, 1306}, {32, 42, 1, 1306}, {33, 43, 2, 1306}, {34, 44, 1, 1306}, {25, 38, 1, 1307}, {28, 41, 2, 1307}, {29, 42, 2, 1307}, {32, 45, 1, 1307}, {33, 46, 2, 1307}, {34, 47, 1, 1307}, {25, 39, 1, 1308}, {28, 42, 2, 1308}, {29, 43, 2, 1308}, {32, 46, 1, 1308}, {33, 47, 2, 1308}, {34, 48, 1, 1308}, {25, 40, 1, 1309}, {28, 43, 2, 1309}, {29, 44, 2, 1309}, {32, 47, 1, 1309}, {33, 48, 2, 1309}, {34, 49, 1, 1309}, {25, 41, 1, 1310}, {28, 45, 2, 1310}, {29, 46, 2, 1310}, {32, 50, 1, 1310}, {33, 51, 2, 1310}, {34, 52, 1, 1310}, {25, 42, 1, 1311}, {28, 46, 2, 1311}, {29, 47, 2, 1311}, {32, 51, 1, 1311}, {33, 52, 2, 1311}, {34, 53, 1, 1311}, {25, 43, 1, 1312}, {28, 47, 2, 1312}, {29, 48, 2, 1312}, {32, 52, 1, 1312}, {33, 53, 2, 1312}, {34, 54, 1, 1312}, {25, 44, 1, 1313}, {28, 48, 2, 1313}, {29, 49, 2, 1313}, {32, 53, 1, 1313}, {33, 54, 2, 1313}, {34, 55, 1, 1313}, {20, 56, 1, 1314}, {21, 57, 2, 1314}, {22, 58, 2, 1314}, {23, 59, 1, 1314}, {24, 60, 2, 1314}, {25, 61, 1, 1314}, {20, 57, 1, 1315}, {21, 59, 2, 1315}, {22, 60, 2, 1315}, {23, 62, 1, 1315}, {24, 63, 2, 1315}, {25, 64, 1, 1315}, {20, 58, 1, 1316}, {21, 60, 2, 1316}, {22, 61, 2, 1316}, {23, 63, 1, 1316}, {24, 64, 2, 1316}, {25, 65, 1, 1316}, {20, 59, 1, 1317}, {21, 62, 2, 1317}, {22, 63, 2, 1317}, {23, 66, 1, 1317}, {24, 67, 2, 1317}, {25, 68, 1, 1317}, {20, 60, 1, 1318}, {21, 63, 2, 1318}, {22, 64, 2, 1318}, {23, 67, 1, 1318}, {24, 68, 2, 1318}, {25, 69, 1, 1318}, {20, 61, 1, 1319}, {21, 64, 2, 1319}, {22, 65, 2, 1319}, {23, 68, 1, 1319}, {24, 69, 2, 1319}, {25, 70, 1, 1319}, {20, 62, 1, 1320}, {21, 66, 2, 1320}, {22, 67, 2, 1320}, {23, 71, 1, 1320}, {24, 72, 2, 1320}, {25, 73, 1, 1320}, {20, 63, 1, 1321}, {21, 67, 2, 1321}, {22, 68, 2, 1321}, {23, 72, 1, 1321}, {24, 73, 2, 1321}, {25, 74, 1, 1321}, {20, 64, 1, 1322}, {21, 68, 2, 1322}, {22, 69, 2, 1322}, {23, 73, 1, 1322}, {24, 74, 2, 1322}, {25, 75, 1, 1322}, {20, 65, 1, 1323}, {21, 69, 2, 1323}, {22, 70, 2, 1323}, {23, 74, 1, 1323}, {24, 75, 2, 1323}, {25, 76, 1, 1323}, {20, 66, 1, 1324}, {21, 71, 2, 1324}, {22, 72, 2, 1324}, {23, 77, 1, 1324}, {24, 78, 2, 1324}, {25, 79, 1, 1324}, {20, 67, 1, 1325}, {21, 72, 2, 1325}, {22, 73, 2, 1325}, {23, 78, 1, 1325}, {24, 79, 2, 1325}, {25, 80, 1, 1325}, {20, 68, 1, 1326}, {21, 73, 2, 1326}, {22, 74, 2, 1326}, {23, 79, 1, 1326}, {24, 80, 2, 1326}, {25, 81, 1, 1326}, {20, 69, 1, 1327}, {21, 74, 2, 1327}, {22, 75, 2, 1327}, {23, 80, 1, 1327}, {24, 81, 2, 1327}, {25, 82, 1, 1327}, {20, 70, 1, 1328}, {21, 75, 2, 1328}, {22, 76, 2, 1328}, {23, 81, 1, 1328}, {24, 82, 2, 1328}, {25, 83, 1, 1328}, {21, 56, 1, 1329}, {23, 57, 2, 1329}, {24, 58, 2, 1329}, {26, 59, 1, 1329}, {27, 60, 2, 1329}, {28, 61, 1, 1329}, {21, 57, 1, 1330}, {23, 59, 2, 1330}, {24, 60, 2, 1330}, {26, 62, 1, 1330}, {27, 63, 2, 1330}, {28, 64, 1, 1330}, {21, 58, 1, 1331}, {23, 60, 2, 1331}, {24, 61, 2, 1331}, {26, 63, 1, 1331}, {27, 64, 2, 1331}, {28, 65, 1, 1331}, {21, 59, 1, 1332}, {23, 62, 2, 1332}, {24, 63, 2, 1332}, {26, 66, 1, 1332}, {27, 67, 2, 1332}, {28, 68, 1, 1332}, {21, 60, 1, 1333}, {23, 63, 2, 1333}, {24, 64, 2, 1333}, {26, 67, 1, 1333}, {27, 68, 2, 1333}, {28, 69, 1, 1333}, {21, 61, 1, 1334}, {23, 64, 2, 1334}, {24, 65, 2, 1334}, {26, 68, 1, 1334}, {27, 69, 2, 1334}, {28, 70, 1, 1334}, {21, 62, 1, 1335}, {23, 66, 2, 1335}, {24, 67, 2, 1335}, {26, 71, 1, 1335}, {27, 72, 2, 1335}, {28, 73, 1, 1335}, {21, 63, 1, 1336}, {23, 67, 2, 1336}, {24, 68, 2, 1336}, {26, 72, 1, 1336}, {27, 73, 2, 1336}, {28, 74, 1, 1336}, {21, 64, 1, 1337}, {23, 68, 2, 1337}, {24, 69, 2, 1337}, {26, 73, 1, 1337}, {27, 74, 2, 1337}, {28, 75, 1, 1337}, {21, 65, 1, 1338}, {23, 69, 2, 1338}, {24, 70, 2, 1338}, {26, 74, 1, 1338}, {27, 75, 2, 1338}, {28, 76, 1, 1338}, {21, 66, 1, 1339}, {23, 71, 2, 1339}, {24, 72, 2, 1339}, {26, 77, 1, 1339}, {27, 78, 2, 1339}, {28, 79, 1, 1339}, {21, 67, 1, 1340}, {23, 72, 2, 1340}, {24, 73, 2, 1340}, {26, 78, 1, 1340}, {27, 79, 2, 1340}, {28, 80, 1, 1340}, {21, 68, 1, 1341}, {23, 73, 2, 1341}, {24, 74, 2, 1341}, {26, 79, 1, 1341}, {27, 80, 2, 1341}, {28, 81, 1, 1341}, {21, 69, 1, 1342}, {23, 74, 2, 1342}, {24, 75, 2, 1342}, {26, 80, 1, 1342}, {27, 81, 2, 1342}, {28, 82, 1, 1342}, {21, 70, 1, 1343}, {23, 75, 2, 1343}, {24, 76, 2, 1343}, {26, 81, 1, 1343}, {27, 82, 2, 1343}, {28, 83, 1, 1343}, {22, 56, 1, 1344}, {24, 57, 2, 1344}, {25, 58, 2, 1344}, {27, 59, 1, 1344}, {28, 60, 2, 1344}, {29, 61, 1, 1344}, {22, 57, 1, 1345}, {24, 59, 2, 1345}, {25, 60, 2, 1345}, {27, 62, 1, 1345}, {28, 63, 2, 1345}, {29, 64, 1, 1345}, {22, 58, 1, 1346}, {24, 60, 2, 1346}, {25, 61, 2, 1346}, {27, 63, 1, 1346}, {28, 64, 2, 1346}, {29, 65, 1, 1346}, {22, 59, 1, 1347}, {24, 62, 2, 1347}, {25, 63, 2, 1347}, {27, 66, 1, 1347}, {28, 67, 2, 1347}, {29, 68, 1, 1347}, {22, 60, 1, 1348}, {24, 63, 2, 1348}, {25, 64, 2, 1348}, {27, 67, 1, 1348}, {28, 68, 2, 1348}, {29, 69, 1, 1348}, {22, 61, 1, 1349}, {24, 64, 2, 1349}, {25, 65, 2, 1349}, {27, 68, 1, 1349}, {28, 69, 2, 1349}, {29, 70, 1, 1349}, {22, 62, 1, 1350}, {24, 66, 2, 1350}, {25, 67, 2, 1350}, {27, 71, 1, 1350}, {28, 72, 2, 1350}, {29, 73, 1, 1350}, {22, 63, 1, 1351}, {24, 67, 2, 1351}, {25, 68, 2, 1351}, {27, 72, 1, 1351}, {28, 73, 2, 1351}, {29, 74, 1, 1351}, {22, 64, 1, 1352}, {24, 68, 2, 1352}, {25, 69, 2, 1352}, {27, 73, 1, 1352}, {28, 74, 2, 1352}, {29, 75, 1, 1352}, {22, 65, 1, 1353}, {24, 69, 2, 1353}, {25, 70, 2, 1353}, {27, 74, 1, 1353}, {28, 75, 2, 1353}, {29, 76, 1, 1353}, {22, 66, 1, 1354}, {24, 71, 2, 1354}, {25, 72, 2, 1354}, {27, 77, 1, 1354}, {28, 78, 2, 1354}, {29, 79, 1, 1354}, {22, 67, 1, 1355}, {24, 72, 2, 1355}, {25, 73, 2, 1355}, {27, 78, 1, 1355}, {28, 79, 2, 1355}, {29, 80, 1, 1355}, {22, 68, 1, 1356}, {24, 73, 2, 1356}, {25, 74, 2, 1356}, {27, 79, 1, 1356}, {28, 80, 2, 1356}, {29, 81, 1, 1356}, {22, 69, 1, 1357}, {24, 74, 2, 1357}, {25, 75, 2, 1357}, {27, 80, 1, 1357}, {28, 81, 2, 1357}, {29, 82, 1, 1357}, {22, 70, 1, 1358}, {24, 75, 2, 1358}, {25, 76, 2, 1358}, {27, 81, 1, 1358}, {28, 82, 2, 1358}, {29, 83, 1, 1358}, {23, 56, 1, 1359}, {26, 57, 2, 1359}, {27, 58, 2, 1359}, {30, 59, 1, 1359}, {31, 60, 2, 1359}, {32, 61, 1, 1359}, {23, 57, 1, 1360}, {26, 59, 2, 1360}, {27, 60, 2, 1360}, {30, 62, 1, 1360}, {31, 63, 2, 1360}, {32, 64, 1, 1360}, {23, 58, 1, 1361}, {26, 60, 2, 1361}, {27, 61, 2, 1361}, {30, 63, 1, 1361}, {31, 64, 2, 1361}, {32, 65, 1, 1361}, {23, 59, 1, 1362}, {26, 62, 2, 1362}, {27, 63, 2, 1362}, {30, 66, 1, 1362}, {31, 67, 2, 1362}, {32, 68, 1, 1362}, {23, 60, 1, 1363}, {26, 63, 2, 1363}, {27, 64, 2, 1363}, {30, 67, 1, 1363}, {31, 68, 2, 1363}, {32, 69, 1, 1363}, {23, 61, 1, 1364}, {26, 64, 2, 1364}, {27, 65, 2, 1364}, {30, 68, 1, 1364}, {31, 69, 2, 1364}, {32, 70, 1, 1364}, {23, 62, 1, 1365}, {26, 66, 2, 1365}, {27, 67, 2, 1365}, {30, 71, 1, 1365}, {31, 72, 2, 1365}, {32, 73, 1, 1365}, {23, 63, 1, 1366}, {26, 67, 2, 1366}, {27, 68, 2, 1366}, {30, 72, 1, 1366}, {31, 73, 2, 1366}, {32, 74, 1, 1366}, {23, 64, 1, 1367}, {26, 68, 2, 1367}, {27, 69, 2, 1367}, {30, 73, 1, 1367}, {31, 74, 2, 1367}, {32, 75, 1, 1367}, {23, 65, 1, 1368}, {26, 69, 2, 1368}, {27, 70, 2, 1368}, {30, 74, 1, 1368}, {31, 75, 2, 1368}, {32, 76, 1, 1368}, {23, 66, 1, 1369}, {26, 71, 2, 1369}, {27, 72, 2, 1369}, {30, 77, 1, 1369}, {31, 78, 2, 1369}, {32, 79, 1, 1369}, {23, 67, 1, 1370}, {26, 72, 2, 1370}, {27, 73, 2, 1370}, {30, 78, 1, 1370}, {31, 79, 2, 1370}, {32, 80, 1, 1370}, {23, 68, 1, 1371}, {26, 73, 2, 1371}, {27, 74, 2, 1371}, {30, 79, 1, 1371}, {31, 80, 2, 1371}, {32, 81, 1, 1371}, {23, 69, 1, 1372}, {26, 74, 2, 1372}, {27, 75, 2, 1372}, {30, 80, 1, 1372}, {31, 81, 2, 1372}, {32, 82, 1, 1372}, {23, 70, 1, 1373}, {26, 75, 2, 1373}, {27, 76, 2, 1373}, {30, 81, 1, 1373}, {31, 82, 2, 1373}, {32, 83, 1, 1373}, {24, 56, 1, 1374}, {27, 57, 2, 1374}, {28, 58, 2, 1374}, {31, 59, 1, 1374}, {32, 60, 2, 1374}, {33, 61, 1, 1374}, {24, 57, 1, 1375}, {27, 59, 2, 1375}, {28, 60, 2, 1375}, {31, 62, 1, 1375}, {32, 63, 2, 1375}, {33, 64, 1, 1375}, {24, 58, 1, 1376}, {27, 60, 2, 1376}, {28, 61, 2, 1376}, {31, 63, 1, 1376}, {32, 64, 2, 1376}, {33, 65, 1, 1376}, {24, 59, 1, 1377}, {27, 62, 2, 1377}, {28, 63, 2, 1377}, {31, 66, 1, 1377}, {32, 67, 2, 1377}, {33, 68, 1, 1377}, {24, 60, 1, 1378}, {27, 63, 2, 1378}, {28, 64, 2, 1378}, {31, 67, 1, 1378}, {32, 68, 2, 1378}, {33, 69, 1, 1378}, {24, 61, 1, 1379}, {27, 64, 2, 1379}, {28, 65, 2, 1379}, {31, 68, 1, 1379}, {32, 69, 2, 1379}, {33, 70, 1, 1379}, {24, 62, 1, 1380}, {27, 66, 2, 1380}, {28, 67, 2, 1380}, {31, 71, 1, 1380}, {32, 72, 2, 1380}, {33, 73, 1, 1380}, {24, 63, 1, 1381}, {27, 67, 2, 1381}, {28, 68, 2, 1381}, {31, 72, 1, 1381}, {32, 73, 2, 1381}, {33, 74, 1, 1381}, {24, 64, 1, 1382}, {27, 68, 2, 1382}, {28, 69, 2, 1382}, {31, 73, 1, 1382}, {32, 74, 2, 1382}, {33, 75, 1, 1382}, {24, 65, 1, 1383}, {27, 69, 2, 1383}, {28, 70, 2, 1383}, {31, 74, 1, 1383}, {32, 75, 2, 1383}, {33, 76, 1, 1383}, {24, 66, 1, 1384}, {27, 71, 2, 1384}, {28, 72, 2, 1384}, {31, 77, 1, 1384}, {32, 78, 2, 1384}, {33, 79, 1, 1384}, {24, 67, 1, 1385}, {27, 72, 2, 1385}, {28, 73, 2, 1385}, {31, 78, 1, 1385}, {32, 79, 2, 1385}, {33, 80, 1, 1385}, {24, 68, 1, 1386}, {27, 73, 2, 1386}, {28, 74, 2, 1386}, {31, 79, 1, 1386}, {32, 80, 2, 1386}, {33, 81, 1, 1386}, {24, 69, 1, 1387}, {27, 74, 2, 1387}, {28, 75, 2, 1387}, {31, 80, 1, 1387}, {32, 81, 2, 1387}, {33, 82, 1, 1387}, {24, 70, 1, 1388}, {27, 75, 2, 1388}, {28, 76, 2, 1388}, {31, 81, 1, 1388}, {32, 82, 2, 1388}, {33, 83, 1, 1388}, {25, 56, 1, 1389}, {28, 57, 2, 1389}, {29, 58, 2, 1389}, {32, 59, 1, 1389}, {33, 60, 2, 1389}, {34, 61, 1, 1389}, {25, 57, 1, 1390}, {28, 59, 2, 1390}, {29, 60, 2, 1390}, {32, 62, 1, 1390}, {33, 63, 2, 1390}, {34, 64, 1, 1390}, {25, 58, 1, 1391}, {28, 60, 2, 1391}, {29, 61, 2, 1391}, {32, 63, 1, 1391}, {33, 64, 2, 1391}, {34, 65, 1, 1391}, {25, 59, 1, 1392}, {28, 62, 2, 1392}, {29, 63, 2, 1392}, {32, 66, 1, 1392}, {33, 67, 2, 1392}, {34, 68, 1, 1392}, {25, 60, 1, 1393}, {28, 63, 2, 1393}, {29, 64, 2, 1393}, {32, 67, 1, 1393}, {33, 68, 2, 1393}, {34, 69, 1, 1393}, {25, 61, 1, 1394}, {28, 64, 2, 1394}, {29, 65, 2, 1394}, {32, 68, 1, 1394}, {33, 69, 2, 1394}, {34, 70, 1, 1394}, {25, 62, 1, 1395}, {28, 66, 2, 1395}, {29, 67, 2, 1395}, {32, 71, 1, 1395}, {33, 72, 2, 1395}, {34, 73, 1, 1395}, {25, 63, 1, 1396}, {28, 67, 2, 1396}, {29, 68, 2, 1396}, {32, 72, 1, 1396}, {33, 73, 2, 1396}, {34, 74, 1, 1396}, {25, 64, 1, 1397}, {28, 68, 2, 1397}, {29, 69, 2, 1397}, {32, 73, 1, 1397}, {33, 74, 2, 1397}, {34, 75, 1, 1397}, {25, 65, 1, 1398}, {28, 69, 2, 1398}, {29, 70, 2, 1398}, {32, 74, 1, 1398}, {33, 75, 2, 1398}, {34, 76, 1, 1398}, {25, 66, 1, 1399}, {28, 71, 2, 1399}, {29, 72, 2, 1399}, {32, 77, 1, 1399}, {33, 78, 2, 1399}, {34, 79, 1, 1399}, {25, 67, 1, 1400}, {28, 72, 2, 1400}, {29, 73, 2, 1400}, {32, 78, 1, 1400}, {33, 79, 2, 1400}, {34, 80, 1, 1400}, {25, 68, 1, 1401}, {28, 73, 2, 1401}, {29, 74, 2, 1401}, {32, 79, 1, 1401}, {33, 80, 2, 1401}, {34, 81, 1, 1401}, {25, 69, 1, 1402}, {28, 74, 2, 1402}, {29, 75, 2, 1402}, {32, 80, 1, 1402}, {33, 81, 2, 1402}, {34, 82, 1, 1402}, {25, 70, 1, 1403}, {28, 75, 2, 1403}, {29, 76, 2, 1403}, {32, 81, 1, 1403}, {33, 82, 2, 1403}, {34, 83, 1, 1403}, {20, 84, 1, 1404}, {21, 85, 2, 1404}, {22, 86, 2, 1404}, {23, 87, 1, 1404}, {24, 88, 2, 1404}, {25, 89, 1, 1404}, {20, 85, 1, 1405}, {21, 87, 2, 1405}, {22, 88, 2, 1405}, {23, 90, 1, 1405}, {24, 91, 2, 1405}, {25, 92, 1, 1405}, {20, 86, 1, 1406}, {21, 88, 2, 1406}, {22, 89, 2, 1406}, {23, 91, 1, 1406}, {24, 92, 2, 1406}, {25, 93, 1, 1406}, {20, 87, 1, 1407}, {21, 90, 2, 1407}, {22, 91, 2, 1407}, {23, 94, 1, 1407}, {24, 95, 2, 1407}, {25, 96, 1, 1407}, {20, 88, 1, 1408}, {21, 91, 2, 1408}, {22, 92, 2, 1408}, {23, 95, 1, 1408}, {24, 96, 2, 1408}, {25, 97, 1, 1408}, {20, 89, 1, 1409}, {21, 92, 2, 1409}, {22, 93, 2, 1409}, {23, 96, 1, 1409}, {24, 97, 2, 1409}, {25, 98, 1, 1409}, {20, 90, 1, 1410}, {21, 94, 2, 1410}, {22, 95, 2, 1410}, {23, 99, 1, 1410}, {24, 100, 2, 1410}, {25, 101, 1, 1410}, {20, 91, 1, 1411}, {21, 95, 2, 1411}, {22, 96, 2, 1411}, {23, 100, 1, 1411}, {24, 101, 2, 1411}, {25, 102, 1, 1411}, {20, 92, 1, 1412}, {21, 96, 2, 1412}, {22, 97, 2, 1412}, {23, 101, 1, 1412}, {24, 102, 2, 1412}, {25, 103, 1, 1412}, {20, 93, 1, 1413}, {21, 97, 2, 1413}, {22, 98, 2, 1413}, {23, 102, 1, 1413}, {24, 103, 2, 1413}, {25, 104, 1, 1413}, {20, 94, 1, 1414}, {21, 99, 2, 1414}, {22, 100, 2, 1414}, {23, 105, 1, 1414}, {24, 106, 2, 1414}, {25, 107, 1, 1414}, {20, 95, 1, 1415}, {21, 100, 2, 1415}, {22, 101, 2, 1415}, {23, 106, 1, 1415}, {24, 107, 2, 1415}, {25, 108, 1, 1415}, {20, 96, 1, 1416}, {21, 101, 2, 1416}, {22, 102, 2, 1416}, {23, 107, 1, 1416}, {24, 108, 2, 1416}, {25, 109, 1, 1416}, {20, 97, 1, 1417}, {21, 102, 2, 1417}, {22, 103, 2, 1417}, {23, 108, 1, 1417}, {24, 109, 2, 1417}, {25, 110, 1, 1417}, {20, 98, 1, 1418}, {21, 103, 2, 1418}, {22, 104, 2, 1418}, {23, 109, 1, 1418}, {24, 110, 2, 1418}, {25, 111, 1, 1418}, {20, 99, 1, 1419}, {21, 105, 2, 1419}, {22, 106, 2, 1419}, {23, 112, 1, 1419}, {24, 113, 2, 1419}, {25, 114, 1, 1419}, {20, 100, 1, 1420}, {21, 106, 2, 1420}, {22, 107, 2, 1420}, {23, 113, 1, 1420}, {24, 114, 2, 1420}, {25, 115, 1, 1420}, {20, 101, 1, 1421}, {21, 107, 2, 1421}, {22, 108, 2, 1421}, {23, 114, 1, 1421}, {24, 115, 2, 1421}, {25, 116, 1, 1421}, {20, 102, 1, 1422}, {21, 108, 2, 1422}, {22, 109, 2, 1422}, {23, 115, 1, 1422}, {24, 116, 2, 1422}, {25, 117, 1, 1422}, {20, 103, 1, 1423}, {21, 109, 2, 1423}, {22, 110, 2, 1423}, {23, 116, 1, 1423}, {24, 117, 2, 1423}, {25, 118, 1, 1423}, {20, 104, 1, 1424}, {21, 110, 2, 1424}, {22, 111, 2, 1424}, {23, 117, 1, 1424}, {24, 118, 2, 1424}, {25, 119, 1, 1424}, {21, 84, 1, 1425}, {23, 85, 2, 1425}, {24, 86, 2, 1425}, {26, 87, 1, 1425}, {27, 88, 2, 1425}, {28, 89, 1, 1425}, {21, 85, 1, 1426}, {23, 87, 2, 1426}, {24, 88, 2, 1426}, {26, 90, 1, 1426}, {27, 91, 2, 1426}, {28, 92, 1, 1426}, {21, 86, 1, 1427}, {23, 88, 2, 1427}, {24, 89, 2, 1427}, {26, 91, 1, 1427}, {27, 92, 2, 1427}, {28, 93, 1, 1427}, {21, 87, 1, 1428}, {23, 90, 2, 1428}, {24, 91, 2, 1428}, {26, 94, 1, 1428}, {27, 95, 2, 1428}, {28, 96, 1, 1428}, {21, 88, 1, 1429}, {23, 91, 2, 1429}, {24, 92, 2, 1429}, {26, 95, 1, 1429}, {27, 96, 2, 1429}, {28, 97, 1, 1429}, {21, 89, 1, 1430}, {23, 92, 2, 1430}, {24, 93, 2, 1430}, {26, 96, 1, 1430}, {27, 97, 2, 1430}, {28, 98, 1, 1430}, {21, 90, 1, 1431}, {23, 94, 2, 1431}, {24, 95, 2, 1431}, {26, 99, 1, 1431}, {27, 100, 2, 1431}, {28, 101, 1, 1431}, {21, 91, 1, 1432}, {23, 95, 2, 1432}, {24, 96, 2, 1432}, {26, 100, 1, 1432}, {27, 101, 2, 1432}, {28, 102, 1, 1432}, {21, 92, 1, 1433}, {23, 96, 2, 1433}, {24, 97, 2, 1433}, {26, 101, 1, 1433}, {27, 102, 2, 1433}, {28, 103, 1, 1433}, {21, 93, 1, 1434}, {23, 97, 2, 1434}, {24, 98, 2, 1434}, {26, 102, 1, 1434}, {27, 103, 2, 1434}, {28, 104, 1, 1434}, {21, 94, 1, 1435}, {23, 99, 2, 1435}, {24, 100, 2, 1435}, {26, 105, 1, 1435}, {27, 106, 2, 1435}, {28, 107, 1, 1435}, {21, 95, 1, 1436}, {23, 100, 2, 1436}, {24, 101, 2, 1436}, {26, 106, 1, 1436}, {27, 107, 2, 1436}, {28, 108, 1, 1436}, {21, 96, 1, 1437}, {23, 101, 2, 1437}, {24, 102, 2, 1437}, {26, 107, 1, 1437}, {27, 108, 2, 1437}, {28, 109, 1, 1437}, {21, 97, 1, 1438}, {23, 102, 2, 1438}, {24, 103, 2, 1438}, {26, 108, 1, 1438}, {27, 109, 2, 1438}, {28, 110, 1, 1438}, {21, 98, 1, 1439}, {23, 103, 2, 1439}, {24, 104, 2, 1439}, {26, 109, 1, 1439}, {27, 110, 2, 1439}, {28, 111, 1, 1439}, {21, 99, 1, 1440}, {23, 105, 2, 1440}, {24, 106, 2, 1440}, {26, 112, 1, 1440}, {27, 113, 2, 1440}, {28, 114, 1, 1440}, {21, 100, 1, 1441}, {23, 106, 2, 1441}, {24, 107, 2, 1441}, {26, 113, 1, 1441}, {27, 114, 2, 1441}, {28, 115, 1, 1441}, {21, 101, 1, 1442}, {23, 107, 2, 1442}, {24, 108, 2, 1442}, {26, 114, 1, 1442}, {27, 115, 2, 1442}, {28, 116, 1, 1442}, {21, 102, 1, 1443}, {23, 108, 2, 1443}, {24, 109, 2, 1443}, {26, 115, 1, 1443}, {27, 116, 2, 1443}, {28, 117, 1, 1443}, {21, 103, 1, 1444}, {23, 109, 2, 1444}, {24, 110, 2, 1444}, {26, 116, 1, 1444}, {27, 117, 2, 1444}, {28, 118, 1, 1444}, {21, 104, 1, 1445}, {23, 110, 2, 1445}, {24, 111, 2, 1445}, {26, 117, 1, 1445}, {27, 118, 2, 1445}, {28, 119, 1, 1445}, {22, 84, 1, 1446}, {24, 85, 2, 1446}, {25, 86, 2, 1446}, {27, 87, 1, 1446}, {28, 88, 2, 1446}, {29, 89, 1, 1446}, {22, 85, 1, 1447}, {24, 87, 2, 1447}, {25, 88, 2, 1447}, {27, 90, 1, 1447}, {28, 91, 2, 1447}, {29, 92, 1, 1447}, {22, 86, 1, 1448}, {24, 88, 2, 1448}, {25, 89, 2, 1448}, {27, 91, 1, 1448}, {28, 92, 2, 1448}, {29, 93, 1, 1448}, {22, 87, 1, 1449}, {24, 90, 2, 1449}, {25, 91, 2, 1449}, {27, 94, 1, 1449}, {28, 95, 2, 1449}, {29, 96, 1, 1449}, {22, 88, 1, 1450}, {24, 91, 2, 1450}, {25, 92, 2, 1450}, {27, 95, 1, 1450}, {28, 96, 2, 1450}, {29, 97, 1, 1450}, {22, 89, 1, 1451}, {24, 92, 2, 1451}, {25, 93, 2, 1451}, {27, 96, 1, 1451}, {28, 97, 2, 1451}, {29, 98, 1, 1451}, {22, 90, 1, 1452}, {24, 94, 2, 1452}, {25, 95, 2, 1452}, {27, 99, 1, 1452}, {28, 100, 2, 1452}, {29, 101, 1, 1452}, {22, 91, 1, 1453}, {24, 95, 2, 1453}, {25, 96, 2, 1453}, {27, 100, 1, 1453}, {28, 101, 2, 1453}, {29, 102, 1, 1453}, {22, 92, 1, 1454}, {24, 96, 2, 1454}, {25, 97, 2, 1454}, {27, 101, 1, 1454}, {28, 102, 2, 1454}, {29, 103, 1, 1454}, {22, 93, 1, 1455}, {24, 97, 2, 1455}, {25, 98, 2, 1455}, {27, 102, 1, 1455}, {28, 103, 2, 1455}, {29, 104, 1, 1455}, {22, 94, 1, 1456}, {24, 99, 2, 1456}, {25, 100, 2, 1456}, {27, 105, 1, 1456}, {28, 106, 2, 1456}, {29, 107, 1, 1456}, {22, 95, 1, 1457}, {24, 100, 2, 1457}, {25, 101, 2, 1457}, {27, 106, 1, 1457}, {28, 107, 2, 1457}, {29, 108, 1, 1457}, {22, 96, 1, 1458}, {24, 101, 2, 1458}, {25, 102, 2, 1458}, {27, 107, 1, 1458}, {28, 108, 2, 1458}, {29, 109, 1, 1458}, {22, 97, 1, 1459}, {24, 102, 2, 1459}, {25, 103, 2, 1459}, {27, 108, 1, 1459}, {28, 109, 2, 1459}, {29, 110, 1, 1459}, {22, 98, 1, 1460}, {24, 103, 2, 1460}, {25, 104, 2, 1460}, {27, 109, 1, 1460}, {28, 110, 2, 1460}, {29, 111, 1, 1460}, {22, 99, 1, 1461}, {24, 105, 2, 1461}, {25, 106, 2, 1461}, {27, 112, 1, 1461}, {28, 113, 2, 1461}, {29, 114, 1, 1461}, {22, 100, 1, 1462}, {24, 106, 2, 1462}, {25, 107, 2, 1462}, {27, 113, 1, 1462}, {28, 114, 2, 1462}, {29, 115, 1, 1462}, {22, 101, 1, 1463}, {24, 107, 2, 1463}, {25, 108, 2, 1463}, {27, 114, 1, 1463}, {28, 115, 2, 1463}, {29, 116, 1, 1463}, {22, 102, 1, 1464}, {24, 108, 2, 1464}, {25, 109, 2, 1464}, {27, 115, 1, 1464}, {28, 116, 2, 1464}, {29, 117, 1, 1464}, {22, 103, 1, 1465}, {24, 109, 2, 1465}, {25, 110, 2, 1465}, {27, 116, 1, 1465}, {28, 117, 2, 1465}, {29, 118, 1, 1465}, {22, 104, 1, 1466}, {24, 110, 2, 1466}, {25, 111, 2, 1466}, {27, 117, 1, 1466}, {28, 118, 2, 1466}, {29, 119, 1, 1466}, {23, 84, 1, 1467}, {26, 85, 2, 1467}, {27, 86, 2, 1467}, {30, 87, 1, 1467}, {31, 88, 2, 1467}, {32, 89, 1, 1467}, {23, 85, 1, 1468}, {26, 87, 2, 1468}, {27, 88, 2, 1468}, {30, 90, 1, 1468}, {31, 91, 2, 1468}, {32, 92, 1, 1468}, {23, 86, 1, 1469}, {26, 88, 2, 1469}, {27, 89, 2, 1469}, {30, 91, 1, 1469}, {31, 92, 2, 1469}, {32, 93, 1, 1469}, {23, 87, 1, 1470}, {26, 90, 2, 1470}, {27, 91, 2, 1470}, {30, 94, 1, 1470}, {31, 95, 2, 1470}, {32, 96, 1, 1470}, {23, 88, 1, 1471}, {26, 91, 2, 1471}, {27, 92, 2, 1471}, {30, 95, 1, 1471}, {31, 96, 2, 1471}, {32, 97, 1, 1471}, {23, 89, 1, 1472}, {26, 92, 2, 1472}, {27, 93, 2, 1472}, {30, 96, 1, 1472}, {31, 97, 2, 1472}, {32, 98, 1, 1472}, {23, 90, 1, 1473}, {26, 94, 2, 1473}, {27, 95, 2, 1473}, {30, 99, 1, 1473}, {31, 100, 2, 1473}, {32, 101, 1, 1473}, {23, 91, 1, 1474}, {26, 95, 2, 1474}, {27, 96, 2, 1474}, {30, 100, 1, 1474}, {31, 101, 2, 1474}, {32, 102, 1, 1474}, {23, 92, 1, 1475}, {26, 96, 2, 1475}, {27, 97, 2, 1475}, {30, 101, 1, 1475}, {31, 102, 2, 1475}, {32, 103, 1, 1475}, {23, 93, 1, 1476}, {26, 97, 2, 1476}, {27, 98, 2, 1476}, {30, 102, 1, 1476}, {31, 103, 2, 1476}, {32, 104, 1, 1476}, {23, 94, 1, 1477}, {26, 99, 2, 1477}, {27, 100, 2, 1477}, {30, 105, 1, 1477}, {31, 106, 2, 1477}, {32, 107, 1, 1477}, {23, 95, 1, 1478}, {26, 100, 2, 1478}, {27, 101, 2, 1478}, {30, 106, 1, 1478}, {31, 107, 2, 1478}, {32, 108, 1, 1478}, {23, 96, 1, 1479}, {26, 101, 2, 1479}, {27, 102, 2, 1479}, {30, 107, 1, 1479}, {31, 108, 2, 1479}, {32, 109, 1, 1479}, {23, 97, 1, 1480}, {26, 102, 2, 1480}, {27, 103, 2, 1480}, {30, 108, 1, 1480}, {31, 109, 2, 1480}, {32, 110, 1, 1480}, {23, 98, 1, 1481}, {26, 103, 2, 1481}, {27, 104, 2, 1481}, {30, 109, 1, 1481}, {31, 110, 2, 1481}, {32, 111, 1, 1481}, {23, 99, 1, 1482}, {26, 105, 2, 1482}, {27, 106, 2, 1482}, {30, 112, 1, 1482}, {31, 113, 2, 1482}, {32, 114, 1, 1482}, {23, 100, 1, 1483}, {26, 106, 2, 1483}, {27, 107, 2, 1483}, {30, 113, 1, 1483}, {31, 114, 2, 1483}, {32, 115, 1, 1483}, {23, 101, 1, 1484}, {26, 107, 2, 1484}, {27, 108, 2, 1484}, {30, 114, 1, 1484}, {31, 115, 2, 1484}, {32, 116, 1, 1484}, {23, 102, 1, 1485}, {26, 108, 2, 1485}, {27, 109, 2, 1485}, {30, 115, 1, 1485}, {31, 116, 2, 1485}, {32, 117, 1, 1485}, {23, 103, 1, 1486}, {26, 109, 2, 1486}, {27, 110, 2, 1486}, {30, 116, 1, 1486}, {31, 117, 2, 1486}, {32, 118, 1, 1486}, {23, 104, 1, 1487}, {26, 110, 2, 1487}, {27, 111, 2, 1487}, {30, 117, 1, 1487}, {31, 118, 2, 1487}, {32, 119, 1, 1487}, {24, 84, 1, 1488}, {27, 85, 2, 1488}, {28, 86, 2, 1488}, {31, 87, 1, 1488}, {32, 88, 2, 1488}, {33, 89, 1, 1488}, {24, 85, 1, 1489}, {27, 87, 2, 1489}, {28, 88, 2, 1489}, {31, 90, 1, 1489}, {32, 91, 2, 1489}, {33, 92, 1, 1489}, {24, 86, 1, 1490}, {27, 88, 2, 1490}, {28, 89, 2, 1490}, {31, 91, 1, 1490}, {32, 92, 2, 1490}, {33, 93, 1, 1490}, {24, 87, 1, 1491}, {27, 90, 2, 1491}, {28, 91, 2, 1491}, {31, 94, 1, 1491}, {32, 95, 2, 1491}, {33, 96, 1, 1491}, {24, 88, 1, 1492}, {27, 91, 2, 1492}, {28, 92, 2, 1492}, {31, 95, 1, 1492}, {32, 96, 2, 1492}, {33, 97, 1, 1492}, {24, 89, 1, 1493}, {27, 92, 2, 1493}, {28, 93, 2, 1493}, {31, 96, 1, 1493}, {32, 97, 2, 1493}, {33, 98, 1, 1493}, {24, 90, 1, 1494}, {27, 94, 2, 1494}, {28, 95, 2, 1494}, {31, 99, 1, 1494}, {32, 100, 2, 1494}, {33, 101, 1, 1494}, {24, 91, 1, 1495}, {27, 95, 2, 1495}, {28, 96, 2, 1495}, {31, 100, 1, 1495}, {32, 101, 2, 1495}, {33, 102, 1, 1495}, {24, 92, 1, 1496}, {27, 96, 2, 1496}, {28, 97, 2, 1496}, {31, 101, 1, 1496}, {32, 102, 2, 1496}, {33, 103, 1, 1496}, {24, 93, 1, 1497}, {27, 97, 2, 1497}, {28, 98, 2, 1497}, {31, 102, 1, 1497}, {32, 103, 2, 1497}, {33, 104, 1, 1497}, {24, 94, 1, 1498}, {27, 99, 2, 1498}, {28, 100, 2, 1498}, {31, 105, 1, 1498}, {32, 106, 2, 1498}, {33, 107, 1, 1498}, {24, 95, 1, 1499}, {27, 100, 2, 1499}, {28, 101, 2, 1499}, {31, 106, 1, 1499}, {32, 107, 2, 1499}, {33, 108, 1, 1499}, {24, 96, 1, 1500}, {27, 101, 2, 1500}, {28, 102, 2, 1500}, {31, 107, 1, 1500}, {32, 108, 2, 1500}, {33, 109, 1, 1500}, {24, 97, 1, 1501}, {27, 102, 2, 1501}, {28, 103, 2, 1501}, {31, 108, 1, 1501}, {32, 109, 2, 1501}, {33, 110, 1, 1501}, {24, 98, 1, 1502}, {27, 103, 2, 1502}, {28, 104, 2, 1502}, {31, 109, 1, 1502}, {32, 110, 2, 1502}, {33, 111, 1, 1502}, {24, 99, 1, 1503}, {27, 105, 2, 1503}, {28, 106, 2, 1503}, {31, 112, 1, 1503}, {32, 113, 2, 1503}, {33, 114, 1, 1503}, {24, 100, 1, 1504}, {27, 106, 2, 1504}, {28, 107, 2, 1504}, {31, 113, 1, 1504}, {32, 114, 2, 1504}, {33, 115, 1, 1504}, {24, 101, 1, 1505}, {27, 107, 2, 1505}, {28, 108, 2, 1505}, {31, 114, 1, 1505}, {32, 115, 2, 1505}, {33, 116, 1, 1505}, {24, 102, 1, 1506}, {27, 108, 2, 1506}, {28, 109, 2, 1506}, {31, 115, 1, 1506}, {32, 116, 2, 1506}, {33, 117, 1, 1506}, {24, 103, 1, 1507}, {27, 109, 2, 1507}, {28, 110, 2, 1507}, {31, 116, 1, 1507}, {32, 117, 2, 1507}, {33, 118, 1, 1507}, {24, 104, 1, 1508}, {27, 110, 2, 1508}, {28, 111, 2, 1508}, {31, 117, 1, 1508}, {32, 118, 2, 1508}, {33, 119, 1, 1508}, {25, 84, 1, 1509}, {28, 85, 2, 1509}, {29, 86, 2, 1509}, {32, 87, 1, 1509}, {33, 88, 2, 1509}, {34, 89, 1, 1509}, {25, 85, 1, 1510}, {28, 87, 2, 1510}, {29, 88, 2, 1510}, {32, 90, 1, 1510}, {33, 91, 2, 1510}, {34, 92, 1, 1510}, {25, 86, 1, 1511}, {28, 88, 2, 1511}, {29, 89, 2, 1511}, {32, 91, 1, 1511}, {33, 92, 2, 1511}, {34, 93, 1, 1511}, {25, 87, 1, 1512}, {28, 90, 2, 1512}, {29, 91, 2, 1512}, {32, 94, 1, 1512}, {33, 95, 2, 1512}, {34, 96, 1, 1512}, {25, 88, 1, 1513}, {28, 91, 2, 1513}, {29, 92, 2, 1513}, {32, 95, 1, 1513}, {33, 96, 2, 1513}, {34, 97, 1, 1513}, {25, 89, 1, 1514}, {28, 92, 2, 1514}, {29, 93, 2, 1514}, {32, 96, 1, 1514}, {33, 97, 2, 1514}, {34, 98, 1, 1514}, {25, 90, 1, 1515}, {28, 94, 2, 1515}, {29, 95, 2, 1515}, {32, 99, 1, 1515}, {33, 100, 2, 1515}, {34, 101, 1, 1515}, {25, 91, 1, 1516}, {28, 95, 2, 1516}, {29, 96, 2, 1516}, {32, 100, 1, 1516}, {33, 101, 2, 1516}, {34, 102, 1, 1516}, {25, 92, 1, 1517}, {28, 96, 2, 1517}, {29, 97, 2, 1517}, {32, 101, 1, 1517}, {33, 102, 2, 1517}, {34, 103, 1, 1517}, {25, 93, 1, 1518}, {28, 97, 2, 1518}, {29, 98, 2, 1518}, {32, 102, 1, 1518}, {33, 103, 2, 1518}, {34, 104, 1, 1518}, {25, 94, 1, 1519}, {28, 99, 2, 1519}, {29, 100, 2, 1519}, {32, 105, 1, 1519}, {33, 106, 2, 1519}, {34, 107, 1, 1519}, {25, 95, 1, 1520}, {28, 100, 2, 1520}, {29, 101, 2, 1520}, {32, 106, 1, 1520}, {33, 107, 2, 1520}, {34, 108, 1, 1520}, {25, 96, 1, 1521}, {28, 101, 2, 1521}, {29, 102, 2, 1521}, {32, 107, 1, 1521}, {33, 108, 2, 1521}, {34, 109, 1, 1521}, {25, 97, 1, 1522}, {28, 102, 2, 1522}, {29, 103, 2, 1522}, {32, 108, 1, 1522}, {33, 109, 2, 1522}, {34, 110, 1, 1522}, {25, 98, 1, 1523}, {28, 103, 2, 1523}, {29, 104, 2, 1523}, {32, 109, 1, 1523}, {33, 110, 2, 1523}, {34, 111, 1, 1523}, {25, 99, 1, 1524}, {28, 105, 2, 1524}, {29, 106, 2, 1524}, {32, 112, 1, 1524}, {33, 113, 2, 1524}, {34, 114, 1, 1524}, {25, 100, 1, 1525}, {28, 106, 2, 1525}, {29, 107, 2, 1525}, {32, 113, 1, 1525}, {33, 114, 2, 1525}, {34, 115, 1, 1525}, {25, 101, 1, 1526}, {28, 107, 2, 1526}, {29, 108, 2, 1526}, {32, 114, 1, 1526}, {33, 115, 2, 1526}, {34, 116, 1, 1526}, {25, 102, 1, 1527}, {28, 108, 2, 1527}, {29, 109, 2, 1527}, {32, 115, 1, 1527}, {33, 116, 2, 1527}, {34, 117, 1, 1527}, {25, 103, 1, 1528}, {28, 109, 2, 1528}, {29, 110, 2, 1528}, {32, 116, 1, 1528}, {33, 117, 2, 1528}, {34, 118, 1, 1528}, {25, 104, 1, 1529}, {28, 110, 2, 1529}, {29, 111, 2, 1529}, {32, 117, 1, 1529}, {33, 118, 2, 1529}, {34, 119, 1, 1529}, {20, 120, 1, 1530}, {21, 121, 2, 1530}, {22, 122, 2, 1530}, {23, 123, 1, 1530}, {24, 124, 2, 1530}, {25, 125, 1, 1530}, {20, 121, 1, 1531}, {21, 123, 2, 1531}, {22, 124, 2, 1531}, {23, 126, 1, 1531}, {24, 127, 2, 1531}, {25, 128, 1, 1531}, {20, 122, 1, 1532}, {21, 124, 2, 1532}, {22, 125, 2, 1532}, {23, 127, 1, 1532}, {24, 128, 2, 1532}, {25, 129, 1, 1532}, {20, 123, 1, 1533}, {21, 126, 2, 1533}, {22, 127, 2, 1533}, {23, 130, 1, 1533}, {24, 131, 2, 1533}, {25, 132, 1, 1533}, {20, 124, 1, 1534}, {21, 127, 2, 1534}, {22, 128, 2, 1534}, {23, 131, 1, 1534}, {24, 132, 2, 1534}, {25, 133, 1, 1534}, {20, 125, 1, 1535}, {21, 128, 2, 1535}, {22, 129, 2, 1535}, {23, 132, 1, 1535}, {24, 133, 2, 1535}, {25, 134, 1, 1535}, {20, 126, 1, 1536}, {21, 130, 2, 1536}, {22, 131, 2, 1536}, {23, 135, 1, 1536}, {24, 136, 2, 1536}, {25, 137, 1, 1536}, {20, 127, 1, 1537}, {21, 131, 2, 1537}, {22, 132, 2, 1537}, {23, 136, 1, 1537}, {24, 137, 2, 1537}, {25, 138, 1, 1537}, {20, 128, 1, 1538}, {21, 132, 2, 1538}, {22, 133, 2, 1538}, {23, 137, 1, 1538}, {24, 138, 2, 1538}, {25, 139, 1, 1538}, {20, 129, 1, 1539}, {21, 133, 2, 1539}, {22, 134, 2, 1539}, {23, 138, 1, 1539}, {24, 139, 2, 1539}, {25, 140, 1, 1539}, {20, 130, 1, 1540}, {21, 135, 2, 1540}, {22, 136, 2, 1540}, {23, 141, 1, 1540}, {24, 142, 2, 1540}, {25, 143, 1, 1540}, {20, 131, 1, 1541}, {21, 136, 2, 1541}, {22, 137, 2, 1541}, {23, 142, 1, 1541}, {24, 143, 2, 1541}, {25, 144, 1, 1541}, {20, 132, 1, 1542}, {21, 137, 2, 1542}, {22, 138, 2, 1542}, {23, 143, 1, 1542}, {24, 144, 2, 1542}, {25, 145, 1, 1542}, {20, 133, 1, 1543}, {21, 138, 2, 1543}, {22, 139, 2, 1543}, {23, 144, 1, 1543}, {24, 145, 2, 1543}, {25, 146, 1, 1543}, {20, 134, 1, 1544}, {21, 139, 2, 1544}, {22, 140, 2, 1544}, {23, 145, 1, 1544}, {24, 146, 2, 1544}, {25, 147, 1, 1544}, {20, 135, 1, 1545}, {21, 141, 2, 1545}, {22, 142, 2, 1545}, {23, 148, 1, 1545}, {24, 149, 2, 1545}, {25, 150, 1, 1545}, {20, 136, 1, 1546}, {21, 142, 2, 1546}, {22, 143, 2, 1546}, {23, 149, 1, 1546}, {24, 150, 2, 1546}, {25, 151, 1, 1546}, {20, 137, 1, 1547}, {21, 143, 2, 1547}, {22, 144, 2, 1547}, {23, 150, 1, 1547}, {24, 151, 2, 1547}, {25, 152, 1, 1547}, {20, 138, 1, 1548}, {21, 144, 2, 1548}, {22, 145, 2, 1548}, {23, 151, 1, 1548}, {24, 152, 2, 1548}, {25, 153, 1, 1548}, {20, 139, 1, 1549}, {21, 145, 2, 1549}, {22, 146, 2, 1549}, {23, 152, 1, 1549}, {24, 153, 2, 1549}, {25, 154, 1, 1549}, {20, 140, 1, 1550}, {21, 146, 2, 1550}, {22, 147, 2, 1550}, {23, 153, 1, 1550}, {24, 154, 2, 1550}, {25, 155, 1, 1550}, {20, 141, 1, 1551}, {21, 148, 2, 1551}, {22, 149, 2, 1551}, {23, 156, 1, 1551}, {24, 157, 2, 1551}, {25, 158, 1, 1551}, {20, 142, 1, 1552}, {21, 149, 2, 1552}, {22, 150, 2, 1552}, {23, 157, 1, 1552}, {24, 158, 2, 1552}, {25, 159, 1, 1552}, {20, 143, 1, 1553}, {21, 150, 2, 1553}, {22, 151, 2, 1553}, {23, 158, 1, 1553}, {24, 159, 2, 1553}, {25, 160, 1, 1553}, {20, 144, 1, 1554}, {21, 151, 2, 1554}, {22, 152, 2, 1554}, {23, 159, 1, 1554}, {24, 160, 2, 1554}, {25, 161, 1, 1554}, {20, 145, 1, 1555}, {21, 152, 2, 1555}, {22, 153, 2, 1555}, {23, 160, 1, 1555}, {24, 161, 2, 1555}, {25, 162, 1, 1555}, {20, 146, 1, 1556}, {21, 153, 2, 1556}, {22, 154, 2, 1556}, {23, 161, 1, 1556}, {24, 162, 2, 1556}, {25, 163, 1, 1556}, {20, 147, 1, 1557}, {21, 154, 2, 1557}, {22, 155, 2, 1557}, {23, 162, 1, 1557}, {24, 163, 2, 1557}, {25, 164, 1, 1557}, {21, 120, 1, 1558}, {23, 121, 2, 1558}, {24, 122, 2, 1558}, {26, 123, 1, 1558}, {27, 124, 2, 1558}, {28, 125, 1, 1558}, {21, 121, 1, 1559}, {23, 123, 2, 1559}, {24, 124, 2, 1559}, {26, 126, 1, 1559}, {27, 127, 2, 1559}, {28, 128, 1, 1559}, {21, 122, 1, 1560}, {23, 124, 2, 1560}, {24, 125, 2, 1560}, {26, 127, 1, 1560}, {27, 128, 2, 1560}, {28, 129, 1, 1560}, {21, 123, 1, 1561}, {23, 126, 2, 1561}, {24, 127, 2, 1561}, {26, 130, 1, 1561}, {27, 131, 2, 1561}, {28, 132, 1, 1561}, {21, 124, 1, 1562}, {23, 127, 2, 1562}, {24, 128, 2, 1562}, {26, 131, 1, 1562}, {27, 132, 2, 1562}, {28, 133, 1, 1562}, {21, 125, 1, 1563}, {23, 128, 2, 1563}, {24, 129, 2, 1563}, {26, 132, 1, 1563}, {27, 133, 2, 1563}, {28, 134, 1, 1563}, {21, 126, 1, 1564}, {23, 130, 2, 1564}, {24, 131, 2, 1564}, {26, 135, 1, 1564}, {27, 136, 2, 1564}, {28, 137, 1, 1564}, {21, 127, 1, 1565}, {23, 131, 2, 1565}, {24, 132, 2, 1565}, {26, 136, 1, 1565}, {27, 137, 2, 1565}, {28, 138, 1, 1565}, {21, 128, 1, 1566}, {23, 132, 2, 1566}, {24, 133, 2, 1566}, {26, 137, 1, 1566}, {27, 138, 2, 1566}, {28, 139, 1, 1566}, {21, 129, 1, 1567}, {23, 133, 2, 1567}, {24, 134, 2, 1567}, {26, 138, 1, 1567}, {27, 139, 2, 1567}, {28, 140, 1, 1567}, {21, 130, 1, 1568}, {23, 135, 2, 1568}, {24, 136, 2, 1568}, {26, 141, 1, 1568}, {27, 142, 2, 1568}, {28, 143, 1, 1568}, {21, 131, 1, 1569}, {23, 136, 2, 1569}, {24, 137, 2, 1569}, {26, 142, 1, 1569}, {27, 143, 2, 1569}, {28, 144, 1, 1569}, {21, 132, 1, 1570}, {23, 137, 2, 1570}, {24, 138, 2, 1570}, {26, 143, 1, 1570}, {27, 144, 2, 1570}, {28, 145, 1, 1570}, {21, 133, 1, 1571}, {23, 138, 2, 1571}, {24, 139, 2, 1571}, {26, 144, 1, 1571}, {27, 145, 2, 1571}, {28, 146, 1, 1571}, {21, 134, 1, 1572}, {23, 139, 2, 1572}, {24, 140, 2, 1572}, {26, 145, 1, 1572}, {27, 146, 2, 1572}, {28, 147, 1, 1572}, {21, 135, 1, 1573}, {23, 141, 2, 1573}, {24, 142, 2, 1573}, {26, 148, 1, 1573}, {27, 149, 2, 1573}, {28, 150, 1, 1573}, {21, 136, 1, 1574}, {23, 142, 2, 1574}, {24, 143, 2, 1574}, {26, 149, 1, 1574}, {27, 150, 2, 1574}, {28, 151, 1, 1574}, {21, 137, 1, 1575}, {23, 143, 2, 1575}, {24, 144, 2, 1575}, {26, 150, 1, 1575}, {27, 151, 2, 1575}, {28, 152, 1, 1575}, {21, 138, 1, 1576}, {23, 144, 2, 1576}, {24, 145, 2, 1576}, {26, 151, 1, 1576}, {27, 152, 2, 1576}, {28, 153, 1, 1576}, {21, 139, 1, 1577}, {23, 145, 2, 1577}, {24, 146, 2, 1577}, {26, 152, 1, 1577}, {27, 153, 2, 1577}, {28, 154, 1, 1577}, {21, 140, 1, 1578}, {23, 146, 2, 1578}, {24, 147, 2, 1578}, {26, 153, 1, 1578}, {27, 154, 2, 1578}, {28, 155, 1, 1578}, {21, 141, 1, 1579}, {23, 148, 2, 1579}, {24, 149, 2, 1579}, {26, 156, 1, 1579}, {27, 157, 2, 1579}, {28, 158, 1, 1579}, {21, 142, 1, 1580}, {23, 149, 2, 1580}, {24, 150, 2, 1580}, {26, 157, 1, 1580}, {27, 158, 2, 1580}, {28, 159, 1, 1580}, {21, 143, 1, 1581}, {23, 150, 2, 1581}, {24, 151, 2, 1581}, {26, 158, 1, 1581}, {27, 159, 2, 1581}, {28, 160, 1, 1581}, {21, 144, 1, 1582}, {23, 151, 2, 1582}, {24, 152, 2, 1582}, {26, 159, 1, 1582}, {27, 160, 2, 1582}, {28, 161, 1, 1582}, {21, 145, 1, 1583}, {23, 152, 2, 1583}, {24, 153, 2, 1583}, {26, 160, 1, 1583}, {27, 161, 2, 1583}, {28, 162, 1, 1583}, {21, 146, 1, 1584}, {23, 153, 2, 1584}, {24, 154, 2, 1584}, {26, 161, 1, 1584}, {27, 162, 2, 1584}, {28, 163, 1, 1584}, {21, 147, 1, 1585}, {23, 154, 2, 1585}, {24, 155, 2, 1585}, {26, 162, 1, 1585}, {27, 163, 2, 1585}, {28, 164, 1, 1585}, {22, 120, 1, 1586}, {24, 121, 2, 1586}, {25, 122, 2, 1586}, {27, 123, 1, 1586}, {28, 124, 2, 1586}, {29, 125, 1, 1586}, {22, 121, 1, 1587}, {24, 123, 2, 1587}, {25, 124, 2, 1587}, {27, 126, 1, 1587}, {28, 127, 2, 1587}, {29, 128, 1, 1587}, {22, 122, 1, 1588}, {24, 124, 2, 1588}, {25, 125, 2, 1588}, {27, 127, 1, 1588}, {28, 128, 2, 1588}, {29, 129, 1, 1588}, {22, 123, 1, 1589}, {24, 126, 2, 1589}, {25, 127, 2, 1589}, {27, 130, 1, 1589}, {28, 131, 2, 1589}, {29, 132, 1, 1589}, {22, 124, 1, 1590}, {24, 127, 2, 1590}, {25, 128, 2, 1590}, {27, 131, 1, 1590}, {28, 132, 2, 1590}, {29, 133, 1, 1590}, {22, 125, 1, 1591}, {24, 128, 2, 1591}, {25, 129, 2, 1591}, {27, 132, 1, 1591}, {28, 133, 2, 1591}, {29, 134, 1, 1591}, {22, 126, 1, 1592}, {24, 130, 2, 1592}, {25, 131, 2, 1592}, {27, 135, 1, 1592}, {28, 136, 2, 1592}, {29, 137, 1, 1592}, {22, 127, 1, 1593}, {24, 131, 2, 1593}, {25, 132, 2, 1593}, {27, 136, 1, 1593}, {28, 137, 2, 1593}, {29, 138, 1, 1593}, {22, 128, 1, 1594}, {24, 132, 2, 1594}, {25, 133, 2, 1594}, {27, 137, 1, 1594}, {28, 138, 2, 1594}, {29, 139, 1, 1594}, {22, 129, 1, 1595}, {24, 133, 2, 1595}, {25, 134, 2, 1595}, {27, 138, 1, 1595}, {28, 139, 2, 1595}, {29, 140, 1, 1595}, {22, 130, 1, 1596}, {24, 135, 2, 1596}, {25, 136, 2, 1596}, {27, 141, 1, 1596}, {28, 142, 2, 1596}, {29, 143, 1, 1596}, {22, 131, 1, 1597}, {24, 136, 2, 1597}, {25, 137, 2, 1597}, {27, 142, 1, 1597}, {28, 143, 2, 1597}, {29, 144, 1, 1597}, {22, 132, 1, 1598}, {24, 137, 2, 1598}, {25, 138, 2, 1598}, {27, 143, 1, 1598}, {28, 144, 2, 1598}, {29, 145, 1, 1598}, {22, 133, 1, 1599}, {24, 138, 2, 1599}, {25, 139, 2, 1599}, {27, 144, 1, 1599}, {28, 145, 2, 1599}, {29, 146, 1, 1599}, {22, 134, 1, 1600}, {24, 139, 2, 1600}, {25, 140, 2, 1600}, {27, 145, 1, 1600}, {28, 146, 2, 1600}, {29, 147, 1, 1600}, {22, 135, 1, 1601}, {24, 141, 2, 1601}, {25, 142, 2, 1601}, {27, 148, 1, 1601}, {28, 149, 2, 1601}, {29, 150, 1, 1601}, {22, 136, 1, 1602}, {24, 142, 2, 1602}, {25, 143, 2, 1602}, {27, 149, 1, 1602}, {28, 150, 2, 1602}, {29, 151, 1, 1602}, {22, 137, 1, 1603}, {24, 143, 2, 1603}, {25, 144, 2, 1603}, {27, 150, 1, 1603}, {28, 151, 2, 1603}, {29, 152, 1, 1603}, {22, 138, 1, 1604}, {24, 144, 2, 1604}, {25, 145, 2, 1604}, {27, 151, 1, 1604}, {28, 152, 2, 1604}, {29, 153, 1, 1604}, {22, 139, 1, 1605}, {24, 145, 2, 1605}, {25, 146, 2, 1605}, {27, 152, 1, 1605}, {28, 153, 2, 1605}, {29, 154, 1, 1605}, {22, 140, 1, 1606}, {24, 146, 2, 1606}, {25, 147, 2, 1606}, {27, 153, 1, 1606}, {28, 154, 2, 1606}, {29, 155, 1, 1606}, {22, 141, 1, 1607}, {24, 148, 2, 1607}, {25, 149, 2, 1607}, {27, 156, 1, 1607}, {28, 157, 2, 1607}, {29, 158, 1, 1607}, {22, 142, 1, 1608}, {24, 149, 2, 1608}, {25, 150, 2, 1608}, {27, 157, 1, 1608}, {28, 158, 2, 1608}, {29, 159, 1, 1608}, {22, 143, 1, 1609}, {24, 150, 2, 1609}, {25, 151, 2, 1609}, {27, 158, 1, 1609}, {28, 159, 2, 1609}, {29, 160, 1, 1609}, {22, 144, 1, 1610}, {24, 151, 2, 1610}, {25, 152, 2, 1610}, {27, 159, 1, 1610}, {28, 160, 2, 1610}, {29, 161, 1, 1610}, {22, 145, 1, 1611}, {24, 152, 2, 1611}, {25, 153, 2, 1611}, {27, 160, 1, 1611}, {28, 161, 2, 1611}, {29, 162, 1, 1611}, {22, 146, 1, 1612}, {24, 153, 2, 1612}, {25, 154, 2, 1612}, {27, 161, 1, 1612}, {28, 162, 2, 1612}, {29, 163, 1, 1612}, {22, 147, 1, 1613}, {24, 154, 2, 1613}, {25, 155, 2, 1613}, {27, 162, 1, 1613}, {28, 163, 2, 1613}, {29, 164, 1, 1613}, {23, 120, 1, 1614}, {26, 121, 2, 1614}, {27, 122, 2, 1614}, {30, 123, 1, 1614}, {31, 124, 2, 1614}, {32, 125, 1, 